~o
<STREAMINFO> 1 25
<VECSIZE> 25<NULLD><MFCC_D_N_Z_0><DIAGC>
~t "T_@"
<TRANSP> 5
 0.000000e+00 1.000000e+00 0.000000e+00 0.000000e+00 0.000000e+00
 0.000000e+00 4.679219e-01 5.320781e-01 0.000000e+00 0.000000e+00
 0.000000e+00 0.000000e+00 5.114891e-01 4.885109e-01 0.000000e+00
 0.000000e+00 0.000000e+00 0.000000e+00 6.854654e-01 3.145346e-01
 0.000000e+00 0.000000e+00 0.000000e+00 0.000000e+00 0.000000e+00
~t "T_a"
<TRANSP> 5
 0.000000e+00 1.000000e+00 0.000000e+00 0.000000e+00 0.000000e+00
 0.000000e+00 6.204687e-01 3.795313e-01 0.000000e+00 0.000000e+00
 0.000000e+00 0.000000e+00 9.086881e-01 9.131189e-02 0.000000e+00
 0.000000e+00 0.000000e+00 0.000000e+00 8.423124e-01 1.576876e-01
 0.000000e+00 0.000000e+00 0.000000e+00 0.000000e+00 0.000000e+00
~t "T_b"
<TRANSP> 5
 0.000000e+00 1.000000e+00 0.000000e+00 0.000000e+00 0.000000e+00
 0.000000e+00 8.538597e-01 1.461403e-01 0.000000e+00 0.000000e+00
 0.000000e+00 0.000000e+00 8.101628e-01 1.898372e-01 0.000000e+00
 0.000000e+00 0.000000e+00 0.000000e+00 9.467237e-01 5.327631e-02
 0.000000e+00 0.000000e+00 0.000000e+00 0.000000e+00 0.000000e+00
~t "T_c"
<TRANSP> 5
 0.000000e+00 1.000000e+00 0.000000e+00 0.000000e+00 0.000000e+00
 0.000000e+00 9.368889e-01 6.311101e-02 0.000000e+00 0.000000e+00
 0.000000e+00 0.000000e+00 8.113576e-01 1.886424e-01 0.000000e+00
 0.000000e+00 0.000000e+00 0.000000e+00 6.797631e-01 3.202369e-01
 0.000000e+00 0.000000e+00 0.000000e+00 0.000000e+00 0.000000e+00
~t "T_d"
<TRANSP> 5
 0.000000e+00 1.000000e+00 0.000000e+00 0.000000e+00 0.000000e+00
 0.000000e+00 7.500522e-01 2.499478e-01 0.000000e+00 0.000000e+00
 0.000000e+00 0.000000e+00 6.815129e-01 3.184872e-01 0.000000e+00
 0.000000e+00 0.000000e+00 0.000000e+00 7.754406e-01 2.245594e-01
 0.000000e+00 0.000000e+00 0.000000e+00 0.000000e+00 0.000000e+00
~t "T_e"
<TRANSP> 5
 0.000000e+00 1.000000e+00 0.000000e+00 0.000000e+00 0.000000e+00
 0.000000e+00 3.517256e-01 6.482744e-01 0.000000e+00 0.000000e+00
 0.000000e+00 0.000000e+00 6.760467e-01 3.239533e-01 0.000000e+00
 0.000000e+00 0.000000e+00 0.000000e+00 9.328688e-01 6.713124e-02
 0.000000e+00 0.000000e+00 0.000000e+00 0.000000e+00 0.000000e+00
~t "T_f"
<TRANSP> 5
 0.000000e+00 1.000000e+00 0.000000e+00 0.000000e+00 0.000000e+00
 0.000000e+00 9.080155e-01 9.198447e-02 0.000000e+00 0.000000e+00
 0.000000e+00 0.000000e+00 9.544150e-01 4.558507e-02 0.000000e+00
 0.000000e+00 0.000000e+00 0.000000e+00 9.529507e-01 4.704937e-02
 0.000000e+00 0.000000e+00 0.000000e+00 0.000000e+00 0.000000e+00
~t "T_g"
<TRANSP> 5
 0.000000e+00 1.000000e+00 0.000000e+00 0.000000e+00 0.000000e+00
 0.000000e+00 6.173474e-01 3.826527e-01 0.000000e+00 0.000000e+00
 0.000000e+00 0.000000e+00 7.646339e-01 2.353662e-01 0.000000e+00
 0.000000e+00 0.000000e+00 0.000000e+00 8.257358e-01 1.742642e-01
 0.000000e+00 0.000000e+00 0.000000e+00 0.000000e+00 0.000000e+00
~t "T_h"
<TRANSP> 5
 0.000000e+00 1.000000e+00 0.000000e+00 0.000000e+00 0.000000e+00
 0.000000e+00 8.463461e-01 1.536539e-01 0.000000e+00 0.000000e+00
 0.000000e+00 0.000000e+00 8.444749e-01 1.555251e-01 0.000000e+00
 0.000000e+00 0.000000e+00 0.000000e+00 9.077455e-01 9.225443e-02
 0.000000e+00 0.000000e+00 0.000000e+00 0.000000e+00 0.000000e+00
~t "T_i"
<TRANSP> 5
 0.000000e+00 1.000000e+00 0.000000e+00 0.000000e+00 0.000000e+00
 0.000000e+00 7.386684e-01 2.613316e-01 0.000000e+00 0.000000e+00
 0.000000e+00 0.000000e+00 8.541465e-01 1.458535e-01 0.000000e+00
 0.000000e+00 0.000000e+00 0.000000e+00 8.153135e-01 1.846864e-01
 0.000000e+00 0.000000e+00 0.000000e+00 0.000000e+00 0.000000e+00
~t "T_j"
<TRANSP> 5
 0.000000e+00 1.000000e+00 0.000000e+00 0.000000e+00 0.000000e+00
 0.000000e+00 8.466572e-01 1.533429e-01 0.000000e+00 0.000000e+00
 0.000000e+00 0.000000e+00 8.320937e-01 1.679064e-01 0.000000e+00
 0.000000e+00 0.000000e+00 0.000000e+00 7.709724e-01 2.290276e-01
 0.000000e+00 0.000000e+00 0.000000e+00 0.000000e+00 0.000000e+00
~t "T_k"
<TRANSP> 5
 0.000000e+00 1.000000e+00 0.000000e+00 0.000000e+00 0.000000e+00
 0.000000e+00 7.173845e-01 2.826156e-01 0.000000e+00 0.000000e+00
 0.000000e+00 0.000000e+00 7.459389e-01 2.540611e-01 0.000000e+00
 0.000000e+00 0.000000e+00 0.000000e+00 8.725696e-01 1.274304e-01
 0.000000e+00 0.000000e+00 0.000000e+00 0.000000e+00 0.000000e+00
~t "T_l"
<TRANSP> 5
 0.000000e+00 1.000000e+00 0.000000e+00 0.000000e+00 0.000000e+00
 0.000000e+00 8.329223e-01 1.670776e-01 0.000000e+00 0.000000e+00
 0.000000e+00 0.000000e+00 6.481844e-01 3.518156e-01 0.000000e+00
 0.000000e+00 0.000000e+00 0.000000e+00 7.217681e-01 2.782319e-01
 0.000000e+00 0.000000e+00 0.000000e+00 0.000000e+00 0.000000e+00
~t "T_m"
<TRANSP> 5
 0.000000e+00 1.000000e+00 0.000000e+00 0.000000e+00 0.000000e+00
 0.000000e+00 7.229410e-01 2.770591e-01 0.000000e+00 0.000000e+00
 0.000000e+00 0.000000e+00 8.041078e-01 1.958922e-01 0.000000e+00
 0.000000e+00 0.000000e+00 0.000000e+00 7.495697e-01 2.504303e-01
 0.000000e+00 0.000000e+00 0.000000e+00 0.000000e+00 0.000000e+00
~t "T_n"
<TRANSP> 5
 0.000000e+00 1.000000e+00 0.000000e+00 0.000000e+00 0.000000e+00
 0.000000e+00 6.980748e-01 3.019251e-01 0.000000e+00 0.000000e+00
 0.000000e+00 0.000000e+00 8.570765e-01 1.429235e-01 0.000000e+00
 0.000000e+00 0.000000e+00 0.000000e+00 8.158296e-01 1.841705e-01
 0.000000e+00 0.000000e+00 0.000000e+00 0.000000e+00 0.000000e+00
~t "T_o"
<TRANSP> 5
 0.000000e+00 1.000000e+00 0.000000e+00 0.000000e+00 0.000000e+00
 0.000000e+00 7.178739e-01 2.821261e-01 0.000000e+00 0.000000e+00
 0.000000e+00 0.000000e+00 9.130834e-01 8.691663e-02 0.000000e+00
 0.000000e+00 0.000000e+00 0.000000e+00 8.032708e-01 1.967293e-01
 0.000000e+00 0.000000e+00 0.000000e+00 0.000000e+00 0.000000e+00
~t "T_p"
<TRANSP> 5
 0.000000e+00 1.000000e+00 0.000000e+00 0.000000e+00 0.000000e+00
 0.000000e+00 6.712775e-01 3.287225e-01 0.000000e+00 0.000000e+00
 0.000000e+00 0.000000e+00 9.006450e-01 9.935500e-02 0.000000e+00
 0.000000e+00 0.000000e+00 0.000000e+00 6.560331e-01 3.439669e-01
 0.000000e+00 0.000000e+00 0.000000e+00 0.000000e+00 0.000000e+00
~t "T_r"
<TRANSP> 5
 0.000000e+00 1.000000e+00 0.000000e+00 0.000000e+00 0.000000e+00
 0.000000e+00 7.887558e-01 2.112443e-01 0.000000e+00 0.000000e+00
 0.000000e+00 0.000000e+00 8.162678e-01 1.837322e-01 0.000000e+00
 0.000000e+00 0.000000e+00 0.000000e+00 8.658066e-01 1.341934e-01
 0.000000e+00 0.000000e+00 0.000000e+00 0.000000e+00 0.000000e+00
~t "T_s"
<TRANSP> 5
 0.000000e+00 1.000000e+00 0.000000e+00 0.000000e+00 0.000000e+00
 0.000000e+00 7.910278e-01 2.089722e-01 0.000000e+00 0.000000e+00
 0.000000e+00 0.000000e+00 8.664032e-01 1.335968e-01 0.000000e+00
 0.000000e+00 0.000000e+00 0.000000e+00 7.063578e-01 2.936422e-01
 0.000000e+00 0.000000e+00 0.000000e+00 0.000000e+00 0.000000e+00
~t "T_t"
<TRANSP> 5
 0.000000e+00 1.000000e+00 0.000000e+00 0.000000e+00 0.000000e+00
 0.000000e+00 6.363598e-01 3.636402e-01 0.000000e+00 0.000000e+00
 0.000000e+00 0.000000e+00 6.972128e-01 3.027872e-01 0.000000e+00
 0.000000e+00 0.000000e+00 0.000000e+00 7.304787e-01 2.695212e-01
 0.000000e+00 0.000000e+00 0.000000e+00 0.000000e+00 0.000000e+00
~t "T_u"
<TRANSP> 5
 0.000000e+00 1.000000e+00 0.000000e+00 0.000000e+00 0.000000e+00
 0.000000e+00 7.611044e-01 2.388956e-01 0.000000e+00 0.000000e+00
 0.000000e+00 0.000000e+00 8.882546e-01 1.117454e-01 0.000000e+00
 0.000000e+00 0.000000e+00 0.000000e+00 8.344791e-01 1.655208e-01
 0.000000e+00 0.000000e+00 0.000000e+00 0.000000e+00 0.000000e+00
~t "T_ng"
<TRANSP> 5
 0.000000e+00 1.000000e+00 0.000000e+00 0.000000e+00 0.000000e+00
 0.000000e+00 7.946264e-01 2.053736e-01 0.000000e+00 0.000000e+00
 0.000000e+00 0.000000e+00 8.474576e-01 1.525424e-01 0.000000e+00
 0.000000e+00 0.000000e+00 0.000000e+00 8.763862e-01 1.236139e-01
 0.000000e+00 0.000000e+00 0.000000e+00 0.000000e+00 0.000000e+00
~s "ST_f_2_1"
<MEAN> 25
 6.312488e+00 -3.483582e+00 -1.144331e+01 -2.201056e-02 7.740765e+00 -1.565688e+01 -9.549897e-01 1.345945e+01 2.236558e+00 -9.949017e-01 4.096159e+00 -3.945374e+00 2.393985e-01 4.789498e-01 3.768490e-01 4.098814e-01 -8.171298e-02 2.135754e+00 -6.801670e-01 -6.194767e-01 -5.431391e-02 -6.239752e-01 -5.773477e-01 3.935530e-01 -1.356984e+00
<VARIANCE> 25
 1.708155e+01 1.243773e+01 2.211306e+01 2.732025e+01 9.131454e+00 7.441216e+01 2.275242e+01 3.082314e+01 2.666435e+01 3.075887e+01 2.589055e+01 2.148834e+01 2.908915e+00 1.376866e+00 2.280884e+00 1.637638e+00 1.366255e+00 4.512392e+00 1.679373e+00 3.469603e+00 3.154918e+00 1.643115e+00 3.218407e+00 2.146530e+00 4.342247e+00
<GCONST> 9.514809e+01
~s "ST_f_3_1"
<MEAN> 25
 -1.191326e+01 1.366571e+00 2.300433e-02 6.243108e+00 3.578289e+00 7.428899e+00 -2.677231e+00 3.096198e+00 6.770505e+00 1.499912e+00 -2.425808e+00 8.532587e-01 -4.166643e-01 -3.785670e-02 1.760779e-01 -9.508282e-02 -2.772943e-01 3.924982e-01 7.658979e-02 -3.946841e-01 -1.654884e-01 1.668174e-01 -1.457348e-01 6.885060e-02 -7.512634e-01
<VARIANCE> 25
 4.948384e+01 1.227824e+01 1.506857e+01 2.203558e+01 2.603419e+01 2.422381e+01 2.981959e+01 3.119129e+01 3.401368e+01 3.420305e+01 3.394275e+01 2.454481e+01 5.786342e+00 8.369526e-01 1.449600e+00 2.710270e+00 3.364599e+00 3.550897e+00 3.574672e+00 3.416087e+00 4.323065e+00 2.887630e+00 2.996760e+00 2.378055e+00 8.710969e-01
<GCONST> 9.750690e+01
~s "ST_f_4_1"
<MEAN> 25
 -3.174051e-01 2.095480e-03 -3.008834e-01 -1.522767e+00 8.825346e-01 8.660889e+00 -5.713108e-01 -2.690939e+00 -1.389275e+00 3.931471e-01 -6.017592e+00 -5.058444e-01 4.519628e-02 1.438996e-02 6.470095e-02 -9.972581e-02 -3.332112e-02 -3.868162e-02 4.179341e-02 -8.678070e-03 -1.611673e-02 3.914770e-02 -4.491683e-02 6.162423e-02 -1.190951e-02
<VARIANCE> 25
 1.578154e+00 3.312528e+00 6.823831e+00 7.312656e+00 9.423142e+00 1.049860e+01 1.140050e+01 1.061861e+01 1.251917e+01 1.351849e+01 1.369263e+01 1.111517e+01 1.748723e-01 3.285803e-01 6.857560e-01 9.442184e-01 1.057334e+00 1.134523e+00 1.513941e+00 1.138967e+00 1.383224e+00 1.185473e+00 1.744679e+00 1.306414e+00 7.760117e-02
<GCONST> 6.725582e+01
~s "ST_s_2_1"
<MEAN> 25
 -1.153639e+01 5.712871e+00 3.000392e+00 4.703663e-01 6.846033e+00 -4.183319e+00 -2.064198e+00 9.596193e+00 1.064203e+00 -4.797249e-01 -2.116992e+00 1.598143e+00 -4.166877e+00 2.705907e+00 1.117614e+00 4.324330e-01 1.250888e+00 4.265712e-01 3.424395e-01 1.964666e+00 4.241855e-01 -1.919473e-01 5.848743e-01 8.793877e-01 9.250246e-01
<VARIANCE> 25
 6.875582e+01 4.001397e+01 2.095167e+01 2.237612e+01 4.257327e+01 6.980910e+01 2.384541e+01 4.979969e+01 3.473164e+01 2.680547e+01 5.010889e+01 3.630298e+01 2.479982e+00 1.482164e+00 2.429885e+00 2.765129e+00 3.601549e+00 7.528626e+00 3.294577e+00 4.753871e+00 4.438568e+00 3.572760e+00 7.361961e+00 4.590529e+00 2.968160e+00
<GCONST> 1.060658e+02
~s "ST_s_3_1"
<MEAN> 25
 -2.610990e+01 1.547617e+01 5.754557e+00 4.174956e+00 1.204854e+01 6.246601e+00 2.611609e+00 1.481404e+01 4.320828e+00 2.941780e-01 5.860052e-01 8.430504e+00 -5.024546e-01 -1.917366e-02 2.223069e-01 3.054632e-01 -2.389784e-01 4.796651e-01 5.473480e-01 1.193714e-01 5.104401e-01 5.138200e-01 3.032725e-01 4.636442e-01 3.562731e-01
<VARIANCE> 25
 7.402726e+00 1.567119e+01 8.386326e+00 1.398926e+01 2.033755e+01 4.404930e+01 2.897305e+01 4.624569e+01 2.531808e+01 3.435857e+01 1.746540e+01 1.177294e+01 1.693364e+00 3.387735e+00 9.775615e-01 1.067606e+00 2.162946e+00 5.932854e+00 1.578564e+00 2.248044e+00 2.370877e+00 2.153862e+00 2.167490e+00 1.574264e+00 8.246607e-01
<GCONST> 8.983125e+01
~s "ST_s_4_1"
<MEAN> 25
 -1.877469e+01 6.061222e+00 3.532503e+00 2.255655e+00 5.235421e+00 -1.862541e+00 1.493291e+00 1.256132e+01 6.748713e+00 6.764279e+00 2.039858e+00 5.390489e+00 5.517180e+00 -2.842750e+00 -2.362458e+00 -1.922746e+00 -7.567999e-01 -3.031849e+00 -1.481869e+00 -2.484050e+00 -5.950540e-01 1.007030e+00 -5.214578e-01 -2.896486e+00 1.447471e+00
<VARIANCE> 25
 6.708678e+01 3.359527e+01 3.781775e+01 4.217746e+01 3.164458e+01 5.349990e+01 2.302806e+01 3.872043e+01 2.695300e+01 3.293236e+01 2.350219e+01 2.709784e+01 4.126596e+00 2.080475e+00 5.160614e+00 3.644885e+00 6.840717e+00 5.258041e+00 2.839455e+00 5.653272e+00 4.654449e+00 3.993304e+00 2.845931e+00 2.717700e+00 1.517270e+00
<GCONST> 1.053423e+02
~s "ST_i_2_1"
<MEAN> 25
 -4.792841e+00 -3.867905e-01 1.130517e+01 8.422746e+00 -8.832920e+00 -1.099124e+01 -6.511841e-01 2.233875e+00 1.973838e+00 -4.547858e+00 2.795452e+00 5.660797e+00 7.649780e-01 6.747643e-01 2.273905e+00 9.698931e-01 -2.439668e+00 -3.011925e+00 6.029794e-02 -1.008781e+00 -1.737573e+00 -2.251460e-01 1.536736e+00 7.687374e-02 3.140743e+00
<VARIANCE> 25
 4.261851e+01 2.631448e+01 3.963264e+01 3.537960e+01 4.609634e+01 1.061296e+02 4.792715e+01 5.814975e+01 5.814783e+01 2.916218e+01 5.396639e+01 6.114678e+01 5.010281e+00 2.584323e+00 3.816706e+00 3.948665e+00 5.230944e+00 9.938293e+00 3.976243e+00 1.102275e+01 8.264340e+00 4.186542e+00 4.232680e+00 1.119231e+01 5.559438e+00
<GCONST> 1.143031e+02
~s "ST_i_3_1"
<MEAN> 25
 -2.699772e+00 4.443324e+00 1.947971e+01 7.653699e+00 -1.678976e+01 -1.436337e+01 -1.459621e+00 -6.226727e+00 -5.544947e+00 -1.983459e-01 6.858683e+00 2.076968e+00 -3.214793e-01 5.104447e-01 2.036376e-01 -7.621669e-01 -6.087483e-01 6.013224e-01 4.519602e-01 2.124577e-01 -1.043142e-01 5.878771e-01 -2.490159e-01 -3.271646e-01 -1.206470e-01
<VARIANCE> 25
 1.600426e+01 9.438500e+00 1.954093e+01 2.333724e+01 3.683092e+01 3.383126e+01 1.943435e+01 6.067223e+01 4.159165e+01 3.575462e+01 4.830891e+01 2.919423e+01 6.632263e-01 7.177442e-01 2.270073e+00 1.626505e+00 1.753947e+00 2.601493e+00 2.219811e+00 3.054181e+00 2.959331e+00 2.622519e+00 2.165232e+00 2.151695e+00 7.606056e-01
<GCONST> 9.315364e+01
~s "ST_i_4_1"
<MEAN> 25
 4.589903e-01 6.754558e+00 1.369354e+01 4.296260e+00 -1.286252e+01 -6.863946e+00 -1.309644e+00 -1.217198e+00 -5.148606e+00 6.472504e-01 2.331928e-01 5.651301e-01 1.412081e+00 -5.671877e-01 -1.751901e+00 -7.046258e-02 1.251099e+00 1.976801e+00 -3.350502e-01 1.491723e-01 -4.741523e-02 -3.613236e-01 -1.055224e+00 3.228968e-02 -2.228820e+00
<VARIANCE> 25
 2.075505e+01 2.863414e+01 3.291602e+01 2.587387e+01 3.884434e+01 9.617240e+01 3.724072e+01 6.375292e+01 2.733527e+01 3.101228e+01 4.709587e+01 4.115719e+01 2.268274e+00 1.982821e+00 2.271161e+00 1.914238e+00 2.384482e+00 4.008523e+00 2.372195e+00 5.174927e+00 2.380738e+00 2.503372e+00 3.218842e+00 2.814003e+00 1.984851e+00
<GCONST> 1.018042e+02
~s "ST_l_2_1"
<MEAN> 25
 -2.279663e+00 2.978857e+00 6.363587e+00 6.586513e+00 -5.047898e+00 -4.852366e-01 -2.590623e+00 4.969713e+00 -5.479621e-01 -5.005156e+00 -4.259686e+00 1.303604e+00 -1.806235e-02 -1.386542e-01 2.313320e-01 -4.205020e-01 -1.418406e-03 9.262669e-01 -6.533728e-01 -7.064128e-01 4.303845e-01 2.564819e-01 -9.202988e-02 2.892903e-01 -4.252846e-01
<VARIANCE> 25
 3.895766e+01 4.360788e+01 2.697373e+01 5.752288e+01 2.340651e+01 1.278852e+02 4.300035e+01 6.499157e+01 4.376487e+01 7.449609e+01 6.385919e+01 3.873856e+01 2.625342e+00 1.964780e+00 3.063194e+00 3.666970e+00 2.721300e+00 6.536110e+00 6.368458e+00 6.895958e+00 4.842614e+00 5.631415e+00 5.611140e+00 3.237113e+00 1.848361e+00
<GCONST> 1.101141e+02
~s "ST_l_3_1"
<MEAN> 25
 4.845550e+00 2.975470e+00 1.066866e+01 4.919052e+00 -6.669698e+00 -5.250735e-01 -7.898487e+00 -7.138314e+00 3.853052e+00 3.420780e+00 -9.561076e-01 1.288182e+00 1.749538e+00 9.336209e-01 8.283633e-01 4.571216e-01 6.433383e-01 -2.707065e+00 -1.968813e+00 -2.456985e+00 -6.381696e-02 1.303666e+00 1.120593e+00 -2.071686e+00 1.929793e+00
<VARIANCE> 25
 2.718373e+01 4.744281e+01 2.643775e+01 2.583276e+01 4.274090e+01 5.312541e+01 4.446003e+01 8.238869e+01 5.374611e+01 4.650722e+01 6.795091e+01 2.748775e+01 3.162140e+00 5.506917e+00 3.169987e+00 4.791602e+00 8.222585e+00 8.071746e+00 6.150306e+00 6.325359e+00 5.316855e+00 3.902105e+00 7.456651e+00 3.788452e+00 2.363351e+00
<GCONST> 1.115935e+02
~s "ST_l_4_1"
<MEAN> 25
 6.551449e+00 1.343635e+00 7.213505e+00 5.169511e-04 1.576267e-01 -8.017826e+00 -1.063664e+01 -1.307095e+01 2.568669e+00 6.690642e+00 6.022765e+00 -6.703433e+00 -5.351890e-01 -4.674287e-01 -7.534454e-01 -1.118663e+00 9.848926e-01 -1.528726e+00 1.506216e+00 1.280199e+00 -1.097596e+00 -6.413736e-01 1.853529e+00 -6.140703e-01 1.599658e+00
<VARIANCE> 25
 1.285479e+01 3.972400e+01 5.125307e+01 8.964244e+01 6.766685e+01 7.460924e+01 4.834620e+01 1.443389e+02 4.906260e+01 4.341416e+01 7.350114e+01 3.956892e+01 1.175936e+00 1.692176e+00 3.302634e+00 5.147178e+00 9.119629e+00 5.840775e+00 4.646109e+00 9.331575e+00 3.346200e+00 5.776407e+00 5.689828e+00 4.364336e+00 1.393017e+00
<GCONST> 1.114030e+02
~s "ST_b_2_1"
<MEAN> 25
 3.079847e+00 4.597312e+00 8.847422e+00 5.596343e+00 -1.891515e+00 6.921150e+00 -2.737613e+00 -4.715580e+00 -4.284455e+00 -3.029238e+00 -6.043067e+00 2.190878e+00 2.617090e-02 3.975622e-01 4.815677e-01 4.735119e-01 5.432663e-01 1.904335e-01 -1.075862e-01 -2.654939e-01 -1.089630e-01 -1.116022e-01 -4.877473e-02 -5.486363e-02 3.320792e-01
<VARIANCE> 25
 2.140253e+01 2.578780e+01 2.481373e+01 1.690094e+01 2.237159e+01 3.370602e+01 2.746883e+01 1.733826e+01 2.390141e+01 2.349013e+01 1.782462e+01 1.942423e+01 1.946881e+00 1.818452e+00 2.032544e+00 1.704262e+00 1.574854e+00 3.357673e+00 2.876006e+00 1.972735e+00 2.872006e+00 2.584923e+00 2.287994e+00 1.395775e+00 7.721547e-01
<GCONST> 9.208328e+01
~s "ST_b_3_1"
<MEAN> 25
 3.386077e-02 -3.908610e-01 5.693040e+00 6.355623e+00 -8.407897e-01 -6.080483e+00 -8.318391e+00 -1.702760e+00 4.990164e+00 -1.649635e-01 1.469809e+00 3.970683e+00 9.974172e-01 -1.357349e+00 5.621628e-02 8.082153e-01 -7.912975e-01 -5.319522e+00 -1.608099e+00 9.594695e-01 1.198310e+00 -4.375833e-01 2.604220e+00 4.984730e-01 4.913069e+00
<VARIANCE> 25
 5.434830e+01 1.699713e+01 1.930682e+01 2.683144e+01 3.483295e+01 1.548726e+02 5.976758e+01 3.682176e+01 5.890166e+01 4.652834e+01 5.622918e+01 2.229901e+01 6.311257e+00 1.961863e+00 3.507096e+00 3.006047e+00 4.118581e+00 6.674606e+00 8.084249e+00 4.935416e+00 1.187838e+01 7.921095e+00 3.831615e+00 2.963516e+00 2.796432e+00
<GCONST> 1.102391e+02
~s "ST_b_4_1"
<MEAN> 25
 1.946661e+00 -2.285849e+00 1.206867e+01 6.909729e+00 -1.126633e+01 -2.016158e+01 -4.558221e+00 2.105169e+00 -1.465192e+00 -3.565679e+00 9.352044e+00 4.841473e+00 -1.068602e-01 2.067122e-01 2.379915e-01 -1.447684e-01 -3.475913e-01 -1.657160e-01 5.505750e-01 1.660259e-01 -2.068080e-01 1.329167e-02 7.527742e-02 -9.027290e-02 -8.023039e-02
<VARIANCE> 25
 1.148116e+01 9.422058e+00 1.585228e+01 1.591839e+01 2.553637e+01 2.636277e+01 2.135570e+01 2.166824e+01 2.650831e+01 1.872735e+01 1.565621e+01 1.156509e+01 9.245972e-01 6.636787e-01 9.819890e-01 1.018435e+00 1.265422e+00 1.199295e+00 1.468691e+00 1.731639e+00 1.436471e+00 1.176804e+00 1.210913e+00 1.016704e+00 5.758761e-01
<GCONST> 8.126038e+01
~s "ST_o_2_1"
<MEAN> 25
 9.206023e+00 3.066540e+00 -1.657799e+01 -1.508919e+00 -4.313578e+00 5.937831e-01 5.623930e+00 -4.233083e-01 -2.757995e+00 -7.439106e+00 1.096653e+01 1.358748e+01 5.843686e-01 -1.770734e-01 -2.128115e+00 -3.913659e-01 1.942288e+00 -2.720629e+00 3.469274e+00 6.100151e-02 -1.278320e-01 1.226648e-01 9.732858e-01 1.052834e+00 1.628553e+00
<VARIANCE> 25
 2.269580e+01 8.802496e+00 1.998936e+01 1.284506e+01 9.504813e+01 8.202837e+01 7.739729e+01 3.578489e+01 5.666452e+01 4.922288e+01 2.252623e+01 4.921078e+01 3.305491e+00 1.358701e+00 1.953048e+00 1.492106e+00 2.799430e+00 1.029470e+01 3.502599e+00 1.491485e+00 3.069333e+00 2.620396e+00 4.098205e+00 3.561249e+00 3.770081e-01
<GCONST> 1.000005e+02
~s "ST_o_3_1"
<MEAN> 25
 8.465319e+00 3.057840e+00 -1.801548e+01 -6.120713e+00 4.232131e+00 -6.516594e+00 1.348118e+01 -5.114944e-01 -2.503561e+00 -6.183259e+00 1.258267e+01 1.493467e+01 -9.535531e-02 9.342003e-02 3.922832e-01 -1.908967e-01 1.423698e-01 -2.422427e-01 -1.685802e-02 1.422528e-01 -1.947812e-01 -9.419616e-03 -3.403342e-01 -4.125315e-01 -2.360177e-01
<VARIANCE> 25
 1.542334e+01 1.118558e+01 8.644695e+00 2.352705e+01 4.778050e+01 2.686290e+01 2.152778e+01 2.854191e+01 3.522538e+01 3.978017e+01 3.261287e+01 2.260462e+01 9.553431e-01 4.252176e-01 1.131215e+00 1.297845e+00 3.566340e+00 2.619319e+00 2.734067e+00 1.817482e+00 1.677238e+00 2.173512e+00 1.589099e+00 1.567096e+00 7.318553e-01
<GCONST> 8.905318e+01
~s "ST_o_4_1"
<MEAN> 25
 4.599947e+00 5.347864e+00 -2.190953e+00 -4.265650e+00 -4.161242e+00 9.974537e+00 6.752219e+00 -7.057715e-02 -6.475451e+00 -8.434426e+00 8.266935e-01 4.685333e+00 -1.311301e+00 -6.005949e-01 2.034421e+00 4.430254e-01 -6.436417e-01 1.653830e+00 -1.535853e+00 4.073264e-01 3.898260e-01 9.993201e-01 -1.338071e+00 -8.052825e-01 -1.863052e+00
<VARIANCE> 25
 2.643167e+01 2.178863e+01 7.234596e+01 1.268101e+01 3.820073e+01 1.077423e+02 5.022045e+01 3.019081e+01 1.840587e+01 5.728724e+01 6.474201e+01 3.275996e+01 1.651031e+00 2.404859e+00 4.062703e+00 1.096780e+00 4.070170e+00 8.046540e+00 3.891272e+00 3.330450e+00 2.721097e+00 4.062305e+00 6.039456e+00 2.461962e+00 9.358449e-01
<GCONST> 1.033510e+02
~s "ST_e_2_1"
<MEAN> 25
 -8.237590e-01 4.665042e-01 5.449438e+00 3.391112e+00 -5.650044e+00 -7.389117e+00 -2.294439e+00 1.461533e+00 -6.378691e-01 -1.756591e+00 1.074565e+00 2.275033e+00 7.766527e-01 -6.297159e-01 -2.704949e-01 2.477122e-01 -2.244807e-03 -3.462391e+00 1.153551e+00 1.067261e+00 9.641646e-01 -1.857748e-01 1.693517e+00 -2.302847e-01 1.720233e+00
<VARIANCE> 25
 2.058467e+01 1.722100e+01 5.847493e+01 2.028658e+01 4.725232e+01 1.777472e+02 3.895994e+01 2.887507e+01 3.015940e+01 2.710020e+01 5.931339e+01 2.344116e+01 3.288211e+00 2.561111e+00 2.024846e+00 2.403179e+00 2.544257e+00 9.614317e+00 3.128874e+00 5.125958e+00 3.179558e+00 3.905623e+00 4.840149e+00 2.730409e+00 4.357905e+00
<GCONST> 1.051586e+02
~s "ST_e_3_1"
<MEAN> 25
 1.168129e+00 -6.171920e-01 9.512410e-01 1.042049e+00 -2.239649e+00 -2.143218e+01 4.940008e+00 7.107718e+00 4.520879e+00 3.927125e+00 6.636935e+00 -1.687185e+00 1.012765e+00 -5.984501e-01 -8.379369e-02 -4.161370e-01 -4.213617e-01 -5.455139e+00 8.425593e-01 8.035080e-01 5.962898e-01 6.291266e-01 1.766173e+00 -9.377824e-01 4.681020e+00
<VARIANCE> 25
 2.352435e+01 1.889312e+01 4.381054e+01 2.323657e+01 5.817884e+01 1.075957e+02 7.162660e+01 5.033048e+01 2.962687e+01 4.182376e+01 4.300259e+01 3.819958e+01 1.420051e+00 1.254791e+00 3.732275e+00 1.780256e+00 4.439072e+00 1.757602e+01 5.521004e+00 6.341857e+00 2.990734e+00 4.259788e+00 5.928533e+00 3.426371e+00 6.131838e+00
<GCONST> 1.081812e+02
~s "ST_e_3_2"
<MEAN> 25
 3.409120e+00 3.752096e-01 7.681730e+00 9.967263e+00 -7.279056e+00 -1.412181e+01 -6.973203e-02 6.213379e+00 3.807462e-01 -4.360593e+00 2.197002e+00 3.278074e+00 -1.974221e-01 -1.303390e-01 -4.531852e-01 -2.471076e-01 5.869853e-01 1.384305e+00 -2.734809e-01 -1.910351e-01 2.945065e-01 -2.016997e-01 -7.234908e-01 -4.095378e-02 -1.463090e+00
<VARIANCE> 25
 1.410354e+01 2.035721e+01 4.402405e+01 2.857830e+01 4.616421e+01 1.273623e+02 5.472494e+01 3.992278e+01 3.026238e+01 3.881365e+01 8.845588e+01 4.126395e+01 1.247666e+00 8.528162e-01 1.965860e+00 3.291712e+00 3.161356e+00 8.318941e+00 4.248833e+00 3.134267e+00 2.265980e+00 3.033511e+00 5.532743e+00 2.347622e+00 2.288937e+00
<GCONST> 1.034917e+02
~s "ST_e_4_1"
<MEAN> 25
 3.142497e+00 -6.664418e-02 7.222963e+00 4.045176e+00 -8.256323e+00 -1.781335e+01 9.337785e-01 2.916862e+00 -1.178313e+00 -2.194629e+00 8.091777e+00 8.380314e-01 -1.584373e-02 1.367044e-01 -1.476116e-01 3.013253e-02 1.562241e-01 7.005463e-01 3.003107e-02 -3.169841e-02 -1.839928e-01 -4.428663e-02 -3.809993e-01 -3.453135e-02 -8.532638e-01
<VARIANCE> 25
 1.393108e+01 1.898509e+01 1.296003e+01 1.979649e+01 2.068766e+01 6.171909e+01 3.917556e+01 2.905884e+01 2.772161e+01 2.790854e+01 5.597781e+01 2.858542e+01 9.069667e-01 1.045707e+00 8.986760e-01 1.300120e+00 1.249940e+00 3.148867e+00 2.182292e+00 1.710579e+00 1.874401e+00 1.998986e+00 2.343742e+00 1.799587e+00 1.564529e+00
<GCONST> 9.128841e+01
~s "ST_e_4_2"
<MEAN> 25
 2.881263e+00 6.271023e-01 1.170933e+01 7.583709e+00 -1.095028e+01 -2.004557e+01 -2.928929e-01 3.532903e+00 -4.785544e+00 -3.833230e+00 8.482840e+00 3.696335e+00 1.090639e-01 4.712694e-02 -2.927730e-01 -1.439778e-01 2.936013e-01 5.486200e-01 1.842676e-01 1.111787e-01 1.485880e-01 7.922018e-02 -3.439463e-01 -9.345476e-02 -8.289902e-01
<VARIANCE> 25
 1.753231e+01 1.757080e+01 2.178934e+01 2.478086e+01 2.007508e+01 6.397778e+01 4.321653e+01 4.237925e+01 3.017687e+01 2.828517e+01 4.630428e+01 2.153598e+01 1.026437e+00 1.051978e+00 1.076062e+00 1.717347e+00 1.478010e+00 3.051354e+00 2.234007e+00 1.867825e+00 1.962064e+00 1.630255e+00 1.971427e+00 1.356045e+00 1.366550e+00
<GCONST> 9.237802e+01
~s "ST_e_4_3"
<MEAN> 25
 2.824690e+00 -4.742166e+00 1.011083e-01 -2.979361e+00 7.402263e-01 -2.344468e+01 5.030600e+00 8.405709e+00 5.347473e+00 1.902045e+00 4.157373e+00 -1.971257e+00 -4.337481e-02 -1.140581e-01 -7.811816e-02 3.005415e-02 2.166255e-01 3.943811e-01 1.122118e-01 2.097835e-01 -3.630081e-01 -2.936566e-01 -2.487140e-01 -1.021552e-01 1.151799e-01
<VARIANCE> 25
 8.689116e+00 8.249525e+00 2.150642e+01 9.677360e+00 2.689936e+01 3.970024e+01 3.795634e+01 3.863229e+01 2.615619e+01 3.768346e+01 3.267727e+01 2.253378e+01 9.311188e-01 8.491887e-01 1.504922e+00 1.173831e+00 2.060147e+00 2.028085e+00 2.533120e+00 1.695936e+00 2.110794e+00 2.178427e+00 2.213829e+00 1.616019e+00 1.423557e+00
<GCONST> 8.969152e+01
~s "ST_r_2_1"
<MEAN> 25
 -2.121987e+00 1.651041e+00 -3.321281e+00 1.897299e-02 4.155571e+00 8.486272e+00 -7.148058e+00 -5.335833e+00 -1.029729e-01 2.699777e+00 7.027808e+00 2.210178e+00 6.876089e-01 -1.001163e-02 -1.002124e+00 -2.102409e-01 9.553051e-02 -1.360878e-01 -1.888578e-01 1.031930e-01 4.816275e-01 -6.894754e-01 1.256032e+00 8.516135e-01 1.075863e+00
<VARIANCE> 25
 3.352225e+01 2.037138e+01 3.469118e+01 2.004553e+01 3.188628e+01 2.196502e+02 3.570504e+01 6.737271e+01 3.931100e+01 3.344537e+01 5.013171e+01 3.033418e+01 5.940935e+00 1.702246e+00 4.122934e+00 2.085344e+00 4.279717e+00 7.972908e+00 3.984797e+00 3.493166e+00 3.994363e+00 4.704792e+00 4.558713e+00 2.842908e+00 1.884889e+00
<GCONST> 1.069236e+02
~s "ST_r_3_1"
<MEAN> 25
 3.553409e+00 -5.273965e+00 -7.057389e+00 -1.446395e+00 4.230904e+00 -1.635965e+01 -1.513536e-01 3.498099e+00 6.411409e+00 1.924001e+00 4.700088e+00 2.026617e+00 3.943342e-01 -6.085858e-02 -7.955375e-01 1.004954e-01 1.983717e-01 1.181360e-01 5.675487e-01 -1.148214e-01 2.250748e-01 -6.442755e-01 -1.806310e-01 4.246000e-01 -1.187713e-01
<VARIANCE> 25
 1.715583e+01 2.302620e+01 2.074809e+01 1.450383e+01 1.772112e+01 1.078239e+02 4.834915e+01 3.388038e+01 2.169846e+01 3.272195e+01 1.151765e+02 2.015899e+01 1.581718e+00 6.695641e-01 6.808749e-01 8.702974e-01 1.787855e+00 9.808692e-01 1.180903e+00 1.558404e+00 1.483032e+00 2.888445e+00 2.146429e+00 1.720696e+00 7.651446e-01
<GCONST> 9.010407e+01
~s "ST_r_4_1"
<MEAN> 25
 3.236458e+00 -1.217909e+00 -1.152946e+01 3.867739e+00 3.626076e+00 -7.324323e+00 -2.779428e+00 -2.803188e-01 7.923304e+00 -3.162757e+00 1.273329e+00 4.060419e+00 5.591370e-02 2.168516e-01 2.354634e-01 3.168581e-01 -5.763573e-01 2.887256e-01 -1.129956e-01 -9.708790e-02 -3.240187e-01 -2.656876e-01 -5.044619e-01 2.700482e-01 -4.389714e-01
<VARIANCE> 25
 1.269038e+01 1.534432e+01 3.428693e+01 3.896667e+01 2.930128e+01 1.023501e+02 4.418325e+01 5.300029e+01 2.819147e+01 3.711488e+01 7.181951e+01 4.913560e+01 1.743567e+00 1.684729e+00 3.301726e+00 2.553884e+00 2.060249e+00 7.488126e+00 5.125506e+00 3.026754e+00 2.989593e+00 4.341309e+00 3.804507e+00 2.108406e+00 2.048078e+00
<GCONST> 1.033522e+02
~s "ST_h_2_1"
<MEAN> 25
 -4.411903e+00 -2.379261e+00 -3.773160e+00 -9.014742e-01 5.201966e+00 1.032169e+01 -6.100794e+00 -1.376989e-01 3.213741e+00 2.813702e+00 4.262928e+00 1.305898e+00 -7.664715e-01 -7.187411e-01 -7.900036e-02 2.809841e-02 3.967419e-02 -7.957895e-03 1.682177e-01 -7.794014e-02 7.123919e-01 9.100823e-01 1.866502e-01 -2.742288e-01 -1.548103e-01
<VARIANCE> 25
 1.286018e+01 1.673912e+01 5.148912e+01 3.084085e+01 4.842531e+01 4.884034e+01 3.378365e+01 6.360307e+01 5.551778e+01 5.786358e+01 1.130680e+02 4.046822e+01 1.993857e+00 1.134337e+00 2.054781e+00 2.163997e+00 6.672665e+00 3.223690e+00 2.741926e+00 3.117406e+00 4.492058e+00 4.084777e+00 7.359879e+00 2.187277e+00 4.085927e+00
<GCONST> 1.052518e+02
~s "ST_h_3_1"
<MEAN> 25
 -1.181885e+01 -7.896362e+00 -5.655406e+00 -1.491546e+00 1.170377e+01 1.156440e+01 3.354058e+00 3.389137e+00 7.488373e+00 7.371863e+00 8.293837e+00 -8.914425e-01 5.543086e-01 5.953918e-01 -5.251392e-01 -6.441447e-01 1.210951e-01 -3.991293e-01 1.055972e-01 1.144856e-01 -3.000498e-01 -5.898356e-01 -6.921010e-02 -2.359752e-01 1.267357e+00
<VARIANCE> 25
 3.267575e+01 2.309248e+01 1.927960e+01 2.753823e+01 4.682883e+01 3.339027e+01 3.755642e+01 4.621380e+01 3.486911e+01 3.553532e+01 3.626381e+01 2.979247e+01 3.647515e+00 3.515241e+00 1.926057e+00 4.018176e+00 2.574516e+00 3.236886e+00 3.625207e+00 4.398109e+00 2.622351e+00 3.821659e+00 2.798227e+00 2.784560e+00 2.200783e+00
<GCONST> 1.024023e+02
~s "ST_h_4_1"
<MEAN> 25
 1.171209e+00 8.572857e-01 -1.595302e+01 -1.584596e+01 1.677833e+01 4.406916e+00 1.704991e+00 -6.107385e-01 3.406141e+00 -1.352781e+00 1.180846e+01 -7.417284e+00 2.260206e-01 1.206155e-01 -2.325098e-01 1.245187e-02 1.346874e-01 -1.522845e-01 1.815937e-01 2.701854e-02 -1.294950e-01 -4.129341e-02 -3.150739e-02 -2.420214e-01 -4.369937e-01
<VARIANCE> 25
 1.698438e+01 7.319263e+00 2.733742e+01 3.242378e+01 3.983688e+01 1.639674e+01 2.741331e+01 3.590879e+01 4.838163e+01 2.965248e+01 3.725797e+01 3.353505e+01 8.944740e-01 5.541732e-01 1.061861e+00 1.446865e+00 1.300922e+00 1.092867e+00 1.449791e+00 1.656947e+00 1.582784e+00 1.663788e+00 1.801119e+00 1.502280e+00 7.458246e-01
<GCONST> 8.795620e+01
~s "ST_u_2_1"
<MEAN> 25
 1.384720e+00 3.423215e+00 -5.405865e-01 -8.532658e-01 1.271034e+00 -5.865302e-01 -7.504959e+00 -1.000807e+01 -1.687057e+00 3.132948e+00 1.111589e+01 2.086793e+00 2.309618e+00 2.048697e+00 -1.343267e+00 -1.080497e+00 -4.594821e-01 -1.121364e-01 2.483030e-01 -2.662649e+00 -2.743314e+00 -5.797646e-02 3.451017e+00 -9.702689e-02 1.820178e+00
<VARIANCE> 25
 8.445360e+01 3.928761e+01 3.048682e+01 5.628010e+01 4.603410e+01 5.412798e+01 8.614122e+01 9.247259e+01 9.329506e+01 5.460756e+01 8.954876e+01 4.724795e+01 8.222467e+00 2.220411e+00 2.615747e+00 4.596133e+00 6.279006e+00 9.463319e+00 9.001165e+00 6.520508e+00 1.121731e+01 6.787867e+00 6.979324e+00 4.915801e+00 7.283320e+00
<GCONST> 1.185933e+02
~s "ST_u_3_1"
<MEAN> 25
 9.762070e+00 1.198731e+01 -3.777229e+00 -9.621336e+00 -1.063819e+01 7.081438e+00 7.965094e-01 -1.087121e+01 -9.120301e+00 -2.489943e+00 1.145393e+01 2.657634e+00 4.889217e-02 3.773081e-01 8.555286e-02 -6.939089e-01 -3.693858e-01 4.364252e-01 5.989984e-01 4.653290e-01 9.917717e-02 -2.077291e-01 -4.718559e-01 -8.241826e-02 -5.135105e-01
<VARIANCE> 25
 2.117567e+01 1.974947e+01 2.125870e+01 3.753586e+01 5.571875e+01 4.242354e+01 2.573731e+01 5.095393e+01 6.635598e+01 5.692527e+01 8.908334e+01 3.849679e+01 7.493668e-01 1.181162e+00 1.200616e+00 2.431092e+00 2.394869e+00 2.746139e+00 2.478866e+00 3.123913e+00 3.150776e+00 2.665723e+00 3.974089e+00 1.811686e+00 9.287288e-01
<GCONST> 9.889658e+01
~s "ST_u_4_1"
<MEAN> 25
 6.390772e+00 6.516584e+00 -1.857215e+00 -6.751530e+00 -1.690998e+00 6.350713e+00 -2.468302e+00 -1.060670e+01 -5.948217e+00 1.585136e+00 1.331025e+01 7.842907e-01 -9.186863e-01 -1.430453e+00 2.222376e-01 1.307805e+00 1.367431e+00 -3.967177e-01 -9.007851e-01 5.194626e-01 1.105215e+00 7.606851e-01 -5.749502e-01 -4.149881e-01 -2.849495e-01
<VARIANCE> 25
 1.917745e+01 2.121698e+01 3.422371e+01 6.333174e+01 4.491797e+01 5.987709e+01 5.781332e+01 6.188992e+01 3.756382e+01 6.086452e+01 1.211581e+02 5.929094e+01 9.122140e-01 1.381292e+00 1.791817e+00 2.224692e+00 2.276531e+00 4.425325e+00 2.582182e+00 5.104062e+00 3.526713e+00 4.434246e+00 6.878580e+00 3.861229e+00 2.353026e+00
<GCONST> 1.057182e+02
~s "ST_k_2_1"
<MEAN> 25
 -3.963232e+00 -3.559785e+00 -3.127737e+00 -1.853929e+00 3.945218e+00 1.095588e+01 -7.624327e+00 4.764797e+00 4.040641e+00 5.074599e+00 5.968472e-02 -5.643496e-01 -6.555709e-01 -9.340464e-01 -3.530291e+00 -1.343590e+00 2.648594e+00 -5.558215e-01 -3.696672e+00 2.475629e+00 1.949507e+00 1.821977e+00 3.707140e+00 -1.306002e+00 4.566308e+00
<VARIANCE> 25
 8.266602e+00 1.567156e+01 6.134896e+01 3.805566e+01 6.546729e+01 4.829633e+01 7.957652e+01 3.802180e+01 4.698500e+01 4.331528e+01 6.511444e+01 3.378866e+01 1.261299e+00 2.713605e+00 4.028710e+00 3.051685e+00 4.971268e+00 6.933547e+00 6.026391e+00 3.929207e+00 3.780405e+00 4.247056e+00 3.434609e+00 4.202189e+00 4.379698e+00
<GCONST> 1.073218e+02
~s "ST_k_3_1"
<MEAN> 25
 -1.944238e+00 -9.123268e-01 -1.065170e+01 -2.939099e+00 8.190408e+00 -4.386208e+00 -1.344795e+01 9.175465e+00 5.252588e+00 1.868794e+00 1.004088e+01 -4.590872e+00 1.943180e+00 1.094060e+00 1.328656e-02 6.097869e-02 3.570190e-01 -5.062025e+00 2.232141e+00 -6.780024e-01 -9.244295e-01 -2.938436e+00 1.049943e+00 -5.454932e-01 2.321567e+00
<VARIANCE> 25
 3.555989e+01 3.021039e+01 3.347565e+01 2.782723e+01 3.334885e+01 1.665967e+02 5.393051e+01 7.826516e+01 3.680048e+01 7.334840e+01 4.114507e+01 2.855093e+01 2.756145e+00 3.069698e+00 5.136024e+00 2.791566e+00 3.150060e+00 7.739007e+00 5.807647e+00 4.409267e+00 2.966173e+00 4.698457e+00 4.585807e+00 3.112980e+00 3.501055e+00
<GCONST> 1.094841e+02
~s "ST_k_4_1"
<MEAN> 25
 7.794978e+00 1.764050e+00 -7.409157e+00 -1.962912e+00 5.455347e+00 -9.157423e+00 -7.857264e-01 -8.716277e+00 9.340158e+00 1.801115e+00 1.441115e+01 -7.895095e+00 3.534487e-02 1.281573e-01 3.694642e-02 1.986473e-02 5.059926e-02 4.844524e-01 5.707140e-01 -4.026117e-01 1.303525e-01 1.451964e-01 -5.357034e-01 -3.268608e-02 -3.478080e-01
<VARIANCE> 25
 1.335246e+01 2.137772e+01 1.806739e+01 2.784184e+01 2.566593e+01 6.031878e+01 2.848040e+01 7.106522e+01 3.300556e+01 6.047937e+01 4.476239e+01 1.492216e+01 5.512509e-01 1.027671e+00 1.083517e+00 1.519099e+00 1.199160e+00 1.865534e+00 2.218370e+00 2.395842e+00 1.967681e+00 2.495729e+00 2.061042e+00 1.291839e+00 1.338786e+00
<GCONST> 9.215065e+01
~s "ST_a_2_1"
<MEAN> 25
 -1.463212e+00 -1.077312e-01 -1.006613e+01 -9.485445e+00 1.289364e+01 7.791847e-01 3.408478e+00 2.219878e+00 5.284715e+00 8.051717e-01 3.188335e+00 -5.378445e+00 5.553631e-01 -1.800273e-01 -2.190451e+00 -2.100725e+00 2.347868e+00 -1.344123e+00 1.060923e-01 5.843406e-01 4.648028e-01 -2.286456e-01 1.270067e+00 -1.006529e+00 3.624693e+00
<VARIANCE> 25
 2.454614e+01 2.378724e+01 9.334586e+01 7.470123e+01 9.666349e+01 5.510093e+01 3.761204e+01 6.413023e+01 4.389970e+01 4.435932e+01 9.096124e+01 3.636761e+01 2.380494e+00 3.159541e+00 7.521398e+00 8.179813e+00 9.626854e+00 3.330259e+00 4.571070e+00 5.529210e+00 5.755976e+00 3.491154e+00 7.797471e+00 3.032375e+00 8.732430e+00
<GCONST> 1.143786e+02
~s "ST_a_2_2"
<MEAN> 25
 6.171987e+00 -5.109164e+00 -9.276922e+00 -1.126393e+01 8.607163e+00 -7.450213e+00 6.330590e+00 -3.981006e-02 6.148906e-01 4.959042e+00 1.237467e+01 -4.823366e+00 -1.419785e+00 -6.199404e-01 -2.585239e+00 -2.765342e+00 4.827820e+00 -1.828661e+00 4.509485e-01 2.305653e+00 1.833375e+00 5.687369e-01 -1.335022e-01 -1.826445e+00 2.842682e+00
<VARIANCE> 25
 1.660640e+01 1.106540e+01 5.672680e+01 6.353302e+01 8.247424e+01 5.460603e+01 5.752476e+01 4.128904e+01 6.587266e+01 5.379257e+01 4.042097e+01 3.824969e+01 2.141779e+00 1.704779e+00 2.710666e+00 7.889787e+00 7.064548e+00 5.516063e+00 8.551356e+00 5.175898e+00 8.195522e+00 4.083488e+00 5.624218e+00 4.589146e+00 3.167325e+00
<GCONST> 1.107770e+02
~s "ST_a_2_3"
<MEAN> 25
 1.016658e+00 -3.383496e+00 -6.104055e+00 -3.183289e+00 6.218641e+00 -1.898520e+01 -2.140422e+00 5.754062e+00 7.578583e+00 3.015648e-01 8.930044e+00 -1.934042e+00 2.022504e-01 -7.919984e-01 -8.574231e-01 -1.590612e+00 9.644411e-01 3.749875e-01 1.961148e+00 5.009306e-02 1.200760e+00 5.722818e-01 -1.138445e-01 -8.230509e-01 2.858666e-01
<VARIANCE> 25
 8.488349e+00 8.492426e+00 4.317776e+01 3.516907e+01 5.560961e+01 2.738044e+01 3.869664e+01 5.863569e+01 3.835253e+01 5.113110e+01 2.487706e+01 2.053149e+01 1.142845e+00 4.569439e-01 1.281224e+00 9.595978e-01 1.057845e+00 2.543016e+00 2.087696e+00 1.660259e+00 3.916442e+00 1.871062e+00 2.204092e+00 2.848772e+00 7.736744e-01
<GCONST> 9.178448e+01
~s "ST_a_3_1"
<MEAN> 25
 1.159847e+00 -1.524064e+00 -1.598001e+01 -1.236561e+01 1.584121e+01 -7.476989e-01 3.108414e+00 4.204251e+00 1.422931e+00 -7.238348e-01 9.029179e+00 -7.312234e+00 3.057199e-01 1.368157e-01 2.882646e-02 5.129688e-01 -2.446405e-01 -1.325476e-01 1.153584e-01 -1.532364e-01 -4.554062e-01 7.950384e-03 -9.217888e-02 -2.013292e-01 -3.972110e-01
<VARIANCE> 25
 1.348051e+01 1.185616e+01 1.268902e+01 2.225142e+01 1.536285e+01 2.213663e+01 2.761278e+01 2.105008e+01 3.697562e+01 3.369565e+01 1.392354e+01 3.905105e+01 7.218333e-01 7.678953e-01 6.777239e-01 9.787970e-01 9.111885e-01 1.387891e+00 8.967276e-01 1.346630e+00 1.705825e+00 1.402721e+00 1.320226e+00 1.320838e+00 7.642779e-01
<GCONST> 8.286721e+01
~s "ST_a_3_2"
<MEAN> 25
 3.837058e+00 -5.270698e+00 -1.057399e+01 -6.422005e+00 9.285439e+00 -1.297631e+01 6.556947e+00 5.160062e-01 8.149864e+00 5.043430e+00 4.808694e+00 -8.218781e+00 8.190087e-03 1.611915e-01 -4.888012e-01 2.887095e-01 4.200768e-01 -8.451183e-02 2.527775e-01 1.789053e-01 -3.651206e-01 -1.971202e-01 -4.989706e-01 2.439438e-02 -5.731452e-01
<VARIANCE> 25
 1.895717e+01 1.108146e+01 2.061602e+01 1.711753e+01 2.431963e+01 3.412929e+01 2.736989e+01 3.768796e+01 4.395305e+01 3.302217e+01 4.322976e+01 3.864221e+01 7.270234e-01 7.624403e-01 1.060042e+00 1.271099e+00 1.390980e+00 1.855815e+00 1.452493e+00 1.612191e+00 1.703509e+00 1.389350e+00 1.941022e+00 1.394840e+00 6.224367e-01
<GCONST> 8.841273e+01
~s "ST_a_3_3"
<MEAN> 25
 3.691531e+00 -6.365865e+00 -1.337362e+01 -8.733638e+00 1.530623e+01 -1.538245e+01 1.047205e+01 3.953808e+00 4.766857e+00 1.481013e+00 6.334361e+00 -6.642623e+00 1.030067e-01 2.308512e-01 -6.372484e-02 3.717145e-01 -9.687261e-02 -4.936177e-02 5.884999e-02 -6.853733e-02 -1.068119e-01 -6.127424e-02 -5.021635e-01 -4.389636e-02 -5.164531e-01
<VARIANCE> 25
 8.628294e+00 1.468423e+01 8.482188e+00 1.106619e+01 1.125823e+01 1.712459e+01 2.799476e+01 3.899198e+01 2.839207e+01 1.905467e+01 3.505061e+01 1.146555e+01 7.028502e-01 5.305910e-01 5.995505e-01 8.790789e-01 1.070388e+00 9.197124e-01 8.982123e-01 1.756556e+00 1.508219e+00 1.294162e+00 2.013870e+00 8.722270e-01 4.629898e-01
<GCONST> 7.915276e+01
~s "ST_a_3_4"
<MEAN> 25
 1.637636e+00 -4.274007e+00 -1.304157e+01 -1.392712e+01 1.596788e+01 -7.173910e+00 5.395522e+00 1.764090e+00 4.648077e+00 5.621282e+00 4.743279e+00 -5.828781e+00 1.935400e-01 2.600063e-01 -4.959709e-01 1.672218e-01 -5.895513e-02 1.980112e-01 3.763381e-01 -2.186874e-01 -4.003355e-01 -6.323448e-02 2.072088e-01 1.269179e-01 -4.098540e-01
<VARIANCE> 25
 1.665002e+01 8.873866e+00 1.657824e+01 1.879062e+01 1.110750e+01 3.808731e+01 4.477529e+01 3.091241e+01 4.021561e+01 3.659970e+01 2.301202e+01 1.977984e+01 8.512338e-01 5.891684e-01 7.810477e-01 6.914827e-01 1.180901e+00 1.217094e+00 1.093958e+00 1.460514e+00 2.267624e+00 1.909610e+00 1.799504e+00 1.601341e+00 6.250076e-01
<GCONST> 8.495835e+01
~s "ST_a_3_5"
<MEAN> 25
 8.355580e-01 -3.992591e+00 -1.540676e+01 -7.759027e+00 1.446871e+01 -1.256167e+01 4.041792e+00 8.621646e+00 7.708852e-01 -1.277441e+00 6.939958e+00 -8.192050e+00 2.152085e-01 -1.229344e-02 1.691122e-01 7.134320e-03 -1.909122e-01 2.590750e-01 2.217655e-01 -4.837796e-01 1.071495e-01 7.724414e-01 -4.890325e-01 -1.649646e-01 -3.314365e-01
<VARIANCE> 25
 1.311047e+01 4.961580e+00 1.125737e+01 1.622319e+01 1.123213e+01 1.970920e+01 1.887352e+01 2.089168e+01 2.103071e+01 3.678070e+01 2.970062e+01 2.002845e+01 6.598838e-01 4.286803e-01 8.173248e-01 6.725686e-01 7.609629e-01 1.275643e+00 1.345050e+00 1.223152e+00 1.315212e+00 1.262353e+00 1.144900e+00 9.007073e-01 1.908329e-01
<GCONST> 7.723415e+01
~s "ST_a_3_6"
<MEAN> 25
 1.651166e+00 -4.390901e+00 -1.815113e+01 -1.171312e+01 1.728188e+01 -6.204998e+00 8.057929e+00 5.905064e+00 2.195795e+00 5.385208e+00 6.950579e+00 -1.027677e+01 -1.239419e-01 -1.478869e-01 2.413290e-01 4.833339e-01 2.795509e-01 -1.171292e+00 -2.704279e-01 2.714425e-01 5.136912e-01 5.264251e-02 -8.792108e-01 -2.164450e-01 -1.335485e-01
<VARIANCE> 25
 1.389606e+01 8.661292e+00 1.987777e+01 1.573912e+01 1.882953e+01 3.184324e+01 3.130730e+01 2.043698e+01 2.158316e+01 1.899280e+01 3.501309e+01 2.508279e+01 7.662471e-01 6.200637e-01 1.008649e+00 1.340566e+00 1.453890e+00 2.474492e+00 1.970789e+00 1.821136e+00 1.475202e+00 1.531650e+00 1.404909e+00 1.873645e+00 5.778864e-01
<GCONST> 8.548480e+01
~s "ST_a_4_1"
<MEAN> 25
 3.141745e+00 1.091168e-01 -8.596869e+00 6.582018e-01 9.107311e+00 4.082679e-01 8.127952e-01 1.660167e+00 3.036516e+00 6.841761e-01 -3.602387e+00 -4.045864e+00 -4.398133e-01 -1.537576e-01 1.262969e+00 6.114905e-01 -9.953747e-01 1.605292e+00 -8.353361e-01 1.166621e-02 7.363593e-02 1.738450e-02 -8.800527e-01 5.758839e-01 -1.787753e+00
<VARIANCE> 25
 1.146605e+01 2.029937e+01 4.861589e+01 2.868637e+01 4.346011e+01 1.096103e+02 5.995576e+01 5.007145e+01 4.865926e+01 4.967336e+01 4.703134e+01 4.092738e+01 9.471083e-01 1.515995e+00 1.515398e+00 2.515784e+00 2.517495e+00 4.585737e+00 3.336429e+00 3.275935e+00 3.559148e+00 3.392601e+00 3.186906e+00 2.754901e+00 1.187490e+00
<GCONST> 1.018391e+02
~s "ST_a_4_2"
<MEAN> 25
 5.668220e+00 -2.181994e+00 -1.237037e+01 -8.830391e+00 1.181505e+01 -1.011506e+01 3.310927e+00 3.487773e+00 9.114212e-01 6.144098e+00 2.209944e+00 -6.218863e+00 1.548147e+00 9.506896e-01 1.525823e+00 9.592367e-01 -1.931770e+00 9.486758e-01 -1.174786e+00 -4.360692e-01 -9.137120e-01 1.259320e-01 -1.013628e+00 8.449800e-01 -2.969970e+00
<VARIANCE> 25
 2.532888e+01 1.504059e+01 3.011592e+01 2.768475e+01 3.362316e+01 5.416802e+01 5.396843e+01 3.807396e+01 3.843093e+01 4.026958e+01 3.012046e+01 2.723457e+01 8.374390e-01 1.266356e+00 1.953034e+00 1.914657e+00 2.222773e+00 4.901083e+00 3.432969e+00 2.424333e+00 3.063677e+00 3.666016e+00 3.517990e+00 2.451436e+00 2.227223e+00
<GCONST> 9.906385e+01
~s "ST_n_2_1"
<MEAN> 25
 1.033188e+01 -1.939288e+00 -6.351843e-01 1.098545e+00 -2.988653e+00 -8.856850e+00 2.138617e+00 -6.583731e-01 -5.752421e+00 4.437836e+00 9.113511e-01 -6.126959e+00 1.606513e+00 9.566497e-01 2.451518e+00 3.579818e+00 -5.196404e+00 3.029656e+00 6.442376e-01 -3.148823e+00 -2.473738e+00 -9.307837e-01 -8.520681e-01 1.035907e+00 -2.487550e+00
<VARIANCE> 25
 1.229284e+01 1.485887e+01 4.264371e+01 4.497441e+01 9.011948e+01 5.322779e+01 3.654152e+01 6.526826e+01 4.082677e+01 3.903805e+01 4.763991e+01 3.718053e+01 1.039766e+00 1.201040e+00 2.796469e+00 2.059077e+00 3.766391e+00 3.926279e+00 4.078425e+00 3.189454e+00 5.326264e+00 4.345159e+00 2.529080e+00 2.973027e+00 1.204633e+00
<GCONST> 1.023970e+02
~s "ST_n_3_1"
<MEAN> 25
 1.206238e+01 3.823150e-01 4.814022e+00 8.976779e+00 -1.712808e+01 -1.366322e+00 3.983515e+00 -7.968231e+00 -9.141311e+00 4.452789e-01 -1.856423e+00 -1.296486e-01 -2.634738e-01 4.864328e-01 5.262263e-01 7.661621e-02 -2.149734e-01 5.169934e-01 -6.076977e-01 8.375295e-02 2.430123e-01 -3.947369e-01 -3.285063e-01 3.882560e-01 -7.431496e-01
<VARIANCE> 25
 5.042482e+00 2.120805e+01 1.736454e+01 2.756750e+01 3.301058e+01 2.751629e+01 3.703701e+01 5.088232e+01 3.224475e+01 5.125451e+01 4.730315e+01 3.568441e+01 5.275632e-01 9.220937e-01 1.013917e+00 2.357351e+00 3.939342e+00 2.073907e+00 3.505619e+00 3.963347e+00 2.744990e+00 2.234944e+00 2.208913e+00 2.634337e+00 3.859528e-01
<GCONST> 9.349052e+01
~s "ST_n_4_1"
<MEAN> 25
 4.291832e+00 2.125822e+00 5.903649e+00 6.761821e+00 -3.429020e+00 4.376654e+00 -5.018007e+00 -1.327731e+00 -6.770875e-02 1.333838e+00 -5.638235e+00 2.392548e+00 -1.224430e+00 -2.996582e-01 -4.163878e-02 -4.989921e-01 1.310555e+00 9.292503e-01 -9.984678e-02 7.166858e-01 8.159741e-01 6.376423e-02 -3.123406e-01 -3.673934e-02 -6.093856e-01
<VARIANCE> 25
 2.202467e+01 1.991715e+01 2.117206e+01 2.219657e+01 5.948611e+01 5.489357e+01 4.396059e+01 3.495180e+01 4.612599e+01 2.926136e+01 3.540756e+01 2.485870e+01 6.079174e-01 1.252390e+00 1.705000e+00 2.624705e+00 4.156914e+00 3.719650e+00 4.936278e+00 3.597680e+00 3.852751e+00 3.707552e+00 2.547548e+00 2.306990e+00 7.699174e-01
<GCONST> 9.860940e+01
~s "ST_d_2_1"
<MEAN> 25
 3.195330e+00 4.642877e+00 7.919889e+00 5.980106e+00 -1.683372e+00 6.007864e+00 -4.582073e+00 -4.138551e-01 -2.458236e+00 -2.339186e+00 -7.552025e+00 1.433681e+00 -4.841876e-01 -1.982880e-01 7.008770e-01 1.318610e-01 4.857575e-01 4.678146e-01 8.193785e-02 6.478401e-01 9.308188e-01 -1.839413e-01 6.644059e-02 4.578574e-01 3.715544e-01
<VARIANCE> 25
 2.960757e+01 2.071779e+01 1.681682e+01 1.608000e+01 1.821270e+01 4.236925e+01 4.101783e+01 4.033980e+01 3.845882e+01 2.284017e+01 2.961270e+01 1.892975e+01 2.247963e+00 3.099299e+00 2.066357e+00 2.881271e+00 2.955196e+00 3.628094e+00 3.794473e+00 4.219786e+00 5.076362e+00 3.949599e+00 3.875395e+00 2.270911e+00 4.426355e+00
<GCONST> 1.006643e+02
~s "ST_d_3_1"
<MEAN> 25
 -6.232808e-01 -3.219491e+00 9.573475e+00 9.840950e-01 -2.005368e+00 -1.352914e+00 -7.604304e+00 3.664098e+00 5.550580e+00 -1.037441e+00 -9.107315e-01 3.960133e+00 -9.270462e-02 -1.345910e+00 -5.172722e-01 -6.795871e-01 -4.793348e-01 -4.366448e+00 -1.263472e+00 -6.811479e-01 1.316117e+00 9.482164e-01 2.010402e+00 -3.203579e-01 4.814525e+00
<VARIANCE> 25
 2.430026e+01 2.792937e+01 3.570351e+01 3.417518e+01 4.125698e+01 1.222757e+02 5.756177e+01 4.732536e+01 6.317082e+01 5.037141e+01 4.270487e+01 3.572283e+01 4.350085e+00 4.461804e+00 5.250657e+00 5.564504e+00 5.916455e+00 7.140515e+00 8.504566e+00 6.362275e+00 1.063770e+01 4.987788e+00 5.245131e+00 5.241261e+00 5.819376e+00
<GCONST> 1.145267e+02
~s "ST_d_4_1"
<MEAN> 25
 6.317352e-01 -3.203374e+00 3.627342e+00 -1.453516e+00 -2.109808e+00 -1.263955e+01 -3.810749e+00 -2.789704e+00 7.647418e+00 5.476888e+00 1.066594e+00 -1.211214e+00 1.576395e-01 1.396291e-01 -6.612852e-01 -6.090140e-02 1.153338e-01 -1.315725e-03 3.686554e-01 -1.190851e-01 2.737554e-01 3.135563e-01 3.549310e-01 -1.997943e-01 2.253251e-01
<VARIANCE> 25
 2.007479e+01 1.527964e+01 2.622420e+01 2.565209e+01 2.031657e+01 6.915442e+01 4.264708e+01 4.441967e+01 5.427675e+01 3.874992e+01 3.193384e+01 2.269421e+01 1.097237e+00 6.608929e-01 1.737116e+00 8.368572e-01 1.201245e+00 2.078122e+00 4.413477e+00 2.120729e+00 2.251015e+00 1.698870e+00 1.704548e+00 1.210749e+00 2.105111e+00
<GCONST> 9.322990e+01
~s "ST_@_2_1"
<MEAN> 25
 3.083713e+00 3.069251e+00 7.876409e-01 2.057771e+00 1.768776e+00 3.246312e+00 -1.589361e+00 -4.219212e+00 6.311654e+00 1.732842e+00 -6.644775e-01 -2.587384e+00 -7.646906e-01 -8.376344e-01 2.650287e-01 -3.802341e-01 -5.615056e-02 8.872053e-01 -1.496261e-02 1.691639e+00 5.241601e-01 9.879564e-01 -3.388667e-01 4.797259e-01 -4.891678e-01
<VARIANCE> 25
 2.681013e+01 2.659344e+01 2.439865e+01 2.130305e+01 2.887733e+01 5.229124e+01 2.728855e+01 5.856483e+01 6.231324e+01 4.574614e+01 4.770390e+01 3.206836e+01 2.160491e+00 2.180007e+00 6.714703e+00 2.976076e+00 5.852859e+00 6.540176e+00 2.905458e+00 4.904557e+00 7.130884e+00 3.043257e+00 6.301624e+00 4.357649e+00 7.266069e+00
<GCONST> 1.079739e+02
~s "ST_@_3_1"
<MEAN> 25
 1.675248e-01 -1.451483e+00 -3.804807e+00 -4.161030e+00 5.292166e+00 -6.498761e-01 1.615983e+00 7.794613e-01 6.494973e+00 6.719263e+00 2.227382e+00 -2.972790e+00 7.543032e-01 -5.275072e-01 -2.409055e+00 -2.096422e+00 2.175506e+00 -3.232090e+00 6.039516e-01 7.763514e-02 8.663086e-01 1.491776e+00 2.081445e+00 -1.670606e+00 3.591553e+00
<VARIANCE> 25
 2.897532e+01 1.395481e+01 4.937395e+01 4.003065e+01 6.909541e+01 9.648039e+01 5.719588e+01 4.631829e+01 4.739852e+01 4.120254e+01 5.514496e+01 4.592180e+01 4.931026e+00 1.969865e+00 4.497837e+00 2.101331e+00 8.007997e+00 8.287900e+00 4.304348e+00 6.842690e+00 1.022089e+01 4.226740e+00 6.173130e+00 6.157629e+00 7.736218e+00
<GCONST> 1.131865e+02
~s "ST_@_4_1"
<MEAN> 25
 2.423188e+00 -6.708600e-01 -4.531620e+00 -6.059988e+00 5.622929e+00 -9.397128e+00 1.572647e+00 -3.982824e+00 8.199656e+00 7.079996e+00 3.120356e+00 -6.231826e+00 3.684991e-01 -2.835816e-01 3.424845e-01 5.604591e-01 -7.157508e-01 1.511848e-01 -3.869374e-01 8.478794e-02 -1.161292e+00 -5.271604e-01 -9.258115e-02 2.320847e-01 -1.017781e-01
<VARIANCE> 25
 1.924415e+01 2.929080e+01 5.243176e+01 4.845558e+01 6.450289e+01 7.336302e+01 5.556766e+01 4.648164e+01 5.218452e+01 3.543397e+01 5.696850e+01 4.100969e+01 2.014648e+00 1.409535e+00 2.301399e+00 2.528365e+00 2.729463e+00 4.425487e+00 2.945365e+00 3.239070e+00 4.187197e+00 3.343244e+00 3.127761e+00 2.886227e+00 3.311359e+00
<GCONST> 1.053075e+02
~s "ST_g_2_1"
<MEAN> 25
 -7.225456e-01 2.251246e+00 6.961222e+00 4.895478e+00 -2.623667e+00 7.781394e+00 -1.020801e+00 -5.792041e-01 -2.095700e+00 -1.321029e+00 -7.745263e+00 2.436606e+00 1.063667e+00 1.130549e+00 1.356688e+00 1.008253e+00 1.494634e-01 -5.284976e-02 -5.305481e-01 -3.819909e-01 -4.621061e-01 -2.376173e-01 -2.061202e-01 5.819572e-02 5.133401e-01
<VARIANCE> 25
 1.575484e+01 1.879483e+01 2.190322e+01 1.439587e+01 1.489580e+01 3.196891e+01 1.724842e+01 2.236564e+01 2.991422e+01 1.726524e+01 2.577453e+01 1.707836e+01 1.718335e+00 2.856185e+00 2.614946e+00 2.178654e+00 1.967382e+00 3.557126e+00 2.627710e+00 2.563403e+00 2.784480e+00 1.913018e+00 2.298349e+00 2.236366e+00 6.687208e-01
<GCONST> 9.193786e+01
~s "ST_g_3_1"
<MEAN> 25
 5.523404e+00 8.258506e+00 1.217966e+01 6.117929e+00 -3.752872e+00 6.147526e+00 -3.765717e+00 -1.683411e+00 -4.937115e+00 -1.429750e+00 -6.146183e+00 2.743469e+00 -5.704933e-01 -3.748307e-01 1.303234e-01 4.570617e-02 4.020600e-01 2.360031e-01 -3.943553e-01 1.536214e-01 1.823266e-01 4.260868e-01 2.208587e-01 8.665323e-02 8.502059e-01
<VARIANCE> 25
 1.475908e+01 1.026284e+01 1.124769e+01 8.810575e+00 2.731045e+01 2.845346e+01 2.158493e+01 2.648593e+01 2.997332e+01 2.424413e+01 3.828146e+01 2.427155e+01 3.996432e+00 2.924368e+00 1.818430e+00 1.314339e+00 3.515773e+00 2.921200e+00 2.659027e+00 3.582982e+00 3.937019e+00 4.358636e+00 3.428243e+00 2.373148e+00 2.334485e+00
<GCONST> 9.569016e+01
~s "ST_g_4_1"
<MEAN> 25
 -7.520779e+00 1.858619e+00 9.506226e+00 5.452537e+00 -5.413949e+00 -3.645042e-01 -7.600947e+00 -1.120375e+00 -7.325836e-01 4.630362e+00 -1.971483e+00 1.843377e+00 -4.345349e-01 -2.101897e-01 -8.973621e-02 6.058906e-02 -8.190969e-01 -3.627088e+00 -4.808801e-01 1.450844e-01 1.109686e-01 1.011633e-01 2.053514e+00 1.603496e-02 3.445845e+00
<VARIANCE> 25
 3.623558e+01 2.805892e+01 4.092670e+01 3.277102e+01 3.921945e+01 1.187090e+02 5.186398e+01 4.075583e+01 4.200378e+01 4.420193e+01 4.786358e+01 3.795910e+01 9.695560e+00 5.395516e+00 5.193288e+00 4.231113e+00 4.151121e+00 5.865662e+00 4.199106e+00 4.805771e+00 7.092246e+00 1.041284e+01 4.293280e+00 4.366561e+00 5.187515e+00
<GCONST> 1.133296e+02
~s "ST_t_2_1"
<MEAN> 25
 4.380359e+00 4.670606e+00 -8.524750e-01 -2.110387e+00 3.924344e+00 -1.208911e+00 -3.128203e+00 1.650534e+00 3.465072e-01 1.569981e-01 -5.330110e+00 -4.787893e+00 -1.952887e-01 -4.268462e-01 1.300971e+00 1.431827e+00 -1.470438e+00 2.561828e+00 -6.581974e-01 -3.211942e-01 -1.406374e-01 -1.392647e+00 -1.779278e+00 6.415408e-01 -2.805329e+00
<VARIANCE> 25
 1.924365e+01 1.914398e+01 7.253978e+01 8.099420e+01 7.174883e+01 4.899017e+01 4.233485e+01 3.484159e+01 4.115408e+01 7.481287e+01 3.630215e+01 3.855690e+01 1.360190e+00 1.382219e+00 1.666266e+00 2.508892e+00 5.737586e+00 5.489514e+00 4.463004e+00 3.982241e+00 4.872761e+00 5.669249e+00 4.142662e+00 3.715743e+00 2.871519e+00
<GCONST> 1.067689e+02
~s "ST_t_3_1"
<MEAN> 25
 1.090380e+00 1.211897e+00 2.110031e+00 1.034076e+00 -1.497806e+00 6.848759e+00 -3.537242e+00 -4.764906e-01 6.437852e-01 -1.013537e+00 -8.724778e+00 -1.755619e+00 -1.197072e+00 -9.483674e-01 -2.201751e-02 -2.013004e-01 -6.799071e-01 1.214902e+00 4.663267e-01 -8.615199e-02 2.796584e-01 4.247003e-01 1.892532e-01 4.171096e-01 -8.619186e-01
<VARIANCE> 25
 1.145015e+01 1.396253e+01 5.281894e+01 3.914151e+01 5.097414e+01 2.829851e+01 2.170407e+01 2.869406e+01 3.248862e+01 4.323840e+01 2.380358e+01 2.948368e+01 7.839986e-01 1.056912e+00 1.402561e+00 1.792850e+00 2.871680e+00 2.973053e+00 2.039071e+00 2.747944e+00 2.843271e+00 2.406288e+00 1.463895e+00 2.477505e+00 6.012702e-01
<GCONST> 9.346960e+01
~s "ST_t_4_1"
<MEAN> 25
 -3.272979e+00 -1.873860e+00 2.178437e+00 3.308867e-01 -2.456421e+00 9.387811e+00 -1.046082e+00 -1.176282e-01 8.755234e-01 3.989822e-01 -7.397784e+00 8.117157e-01 -8.720483e-01 -2.767809e-01 9.432381e-02 -5.460342e-02 4.192095e-01 -6.499235e-01 1.809919e-01 1.388341e-01 5.165177e-01 2.645428e-01 7.887643e-01 6.151024e-01 1.027846e+00
<VARIANCE> 25
 2.899057e+00 3.931365e+00 1.676737e+01 1.413787e+01 1.535003e+01 1.878215e+01 1.594796e+01 1.612159e+01 2.629906e+01 2.409419e+01 1.885523e+01 1.601031e+01 1.019253e+00 7.022555e-01 8.942379e-01 1.969160e+00 2.853508e+00 3.585383e+00 2.924572e+00 3.082911e+00 2.844149e+00 3.042459e+00 3.217546e+00 2.174237e+00 4.520013e+00
<GCONST> 8.759124e+01
~s "ST_sil_2_1"
<MEAN> 25
 -2.073936e+00 -2.385619e-01 -1.368531e+00 -1.046324e+00 8.720807e-01 1.031255e+01 6.169125e-01 -2.894429e+00 -6.000478e-01 2.370055e-01 -5.895599e+00 1.154508e-01 -1.431472e-02 1.754467e-03 4.418257e-03 -2.111922e-02 -5.559732e-02 -1.784611e-02 3.461498e-03 -6.322672e-02 -4.569695e-02 -5.737810e-02 -4.588437e-02 3.441327e-03 -1.751775e-02
<VARIANCE> 25
 7.844188e+00 9.352392e+00 1.110342e+01 8.500565e+00 1.275711e+01 1.434503e+01 1.406836e+01 1.619026e+01 1.777755e+01 1.600096e+01 1.413301e+01 1.345294e+01 1.934001e-01 3.102851e-01 5.969707e-01 7.351290e-01 9.619302e-01 1.383067e+00 1.616427e+00 1.774370e+00 1.839485e+00 1.837378e+00 1.634861e+00 1.467023e+00 6.618015e-02
<GCONST> 7.340538e+01
~s "silst"
<MEAN> 25
 -3.656442e+00 -1.193767e+00 3.004222e+00 1.099785e+00 -2.509609e+00 8.364035e+00 -7.233426e-01 -8.095910e-02 -1.220817e+00 -1.201472e+00 -7.349977e+00 2.098055e+00 -4.016356e-02 1.300943e-02 1.440050e-02 -2.080548e-02 -2.092530e-02 2.115291e-02 4.370103e-02 -3.336377e-02 -5.782240e-02 -3.706796e-02 -3.665390e-02 1.836625e-02 -2.189185e-02
<VARIANCE> 25
 3.771149e+00 3.843096e+00 7.442359e+00 8.424103e+00 1.083868e+01 1.668797e+01 1.475158e+01 1.517498e+01 1.724037e+01 1.464701e+01 1.583437e+01 1.366990e+01 1.996289e-01 3.297659e-01 5.793821e-01 8.011117e-01 1.062235e+00 1.363198e+00 1.471953e+00 1.528852e+00 1.575758e+00 1.503081e+00 1.484633e+00 1.318449e+00 8.123700e-02
<GCONST> 7.099312e+01
~s "ST_sil_3_1"
<MEAN> 25
 -3.641725e+00 -1.201550e+00 2.985500e+00 1.117689e+00 -2.479983e+00 8.360172e+00 -7.488309e-01 -7.861387e-02 -1.178707e+00 -1.164644e+00 -7.342391e+00 2.084709e+00 -4.333515e-02 1.368221e-02 1.883562e-02 -2.123706e-02 -2.481434e-02 2.142233e-02 4.984914e-02 -3.197012e-02 -5.956659e-02 -3.732790e-02 -4.223556e-02 1.976890e-02 -2.520142e-02
<VARIANCE> 25
 3.776421e+00 3.875295e+00 7.554899e+00 8.492185e+00 1.090943e+01 1.674735e+01 1.485619e+01 1.516088e+01 1.742859e+01 1.476630e+01 1.573630e+01 1.370342e+01 2.059176e-01 3.331845e-01 5.826421e-01 8.051918e-01 1.073018e+00 1.367426e+00 1.478631e+00 1.533775e+00 1.585996e+00 1.501521e+00 1.502183e+00 1.321191e+00 8.448452e-02
<GCONST> 7.118876e+01
~s "ST_sil_4_1"
<MEAN> 25
 -2.179931e+00 -1.356065e+00 2.558675e+00 1.201887e+00 -2.220173e+00 -1.904424e+00 1.996672e+00 3.343393e+00 6.541321e-01 -1.386232e+00 6.396139e-01 4.851993e-01 1.955104e-02 2.474350e-02 5.763467e-02 6.649278e-02 6.342003e-02 -1.577660e-01 3.174730e-02 9.920854e-02 3.377886e-02 -9.520060e-03 1.927624e-01 6.950744e-02 1.614711e-01
<VARIANCE> 25
 7.207567e+01 3.565897e+01 2.347160e+01 2.525215e+01 3.246851e+01 1.998255e+02 3.206873e+01 4.025789e+01 3.237327e+01 4.026203e+01 7.884009e+01 3.357639e+01 3.419524e+00 2.926553e+00 1.709127e+00 1.747079e+00 2.765068e+00 4.220738e+00 2.690777e+00 3.224996e+00 2.649807e+00 3.324541e+00 3.097377e+00 2.214163e+00 2.675434e+00
<GCONST> 1.042787e+02
~s "ST_j_2_1"
<MEAN> 25
 -5.725893e-01 1.576221e+01 4.343508e+00 5.557551e+00 3.391858e+00 -5.287699e+00 -6.760541e+00 -5.589176e+00 -2.034349e+00 4.496155e-01 -1.203639e+00 -1.325460e+00 -2.793354e+00 2.588174e+00 8.324900e-01 -2.867646e-01 1.447216e+00 8.493230e-01 7.773733e-01 1.309122e+00 2.783193e-01 -8.422129e-01 -2.097821e+00 1.451247e+00 -8.061507e-01
<VARIANCE> 25
 5.331616e+01 6.104160e+01 2.361072e+01 3.500899e+01 3.806116e+01 5.662758e+01 3.207519e+01 5.516138e+01 4.151005e+01 3.780653e+01 8.531441e+01 3.611366e+01 9.397692e+00 2.411870e+00 2.008133e+00 3.671545e+00 5.449982e+00 4.315350e+00 3.392581e+00 4.699067e+00 4.388015e+00 3.603448e+00 7.232713e+00 3.100058e+00 6.769935e+00
<GCONST> 1.101262e+02
~s "ST_j_3_1"
<MEAN> 25
 -2.117905e+01 1.857333e+01 1.279128e+01 1.476529e+00 6.459911e+00 2.626323e-01 -6.538438e+00 3.337358e+00 1.062068e+00 -3.483932e+00 -1.525652e+00 5.288002e+00 5.717856e-01 -2.598842e+00 7.920445e-01 6.513544e-01 -1.249007e+00 -1.653654e+00 -1.760165e+00 -1.951278e-01 5.959986e-01 -4.518040e-02 1.310000e+00 3.980592e-01 1.909638e+00
<VARIANCE> 25
 3.003208e+01 3.958688e+01 3.004512e+01 2.612643e+01 3.082947e+01 5.695641e+01 8.678933e+01 5.540026e+01 3.208818e+01 3.300189e+01 2.735586e+01 1.959373e+01 1.593089e+01 2.302971e+00 4.732435e+00 4.375154e+00 3.664847e+00 9.182515e+00 6.702117e+00 8.730712e+00 3.334934e+00 3.166981e+00 2.601783e+00 2.861248e+00 9.554901e-01
<GCONST> 1.074287e+02
~s "ST_j_4_1"
<MEAN> 25
 -1.476687e+00 2.945415e+00 5.373639e+00 4.717367e+00 3.117534e-01 -1.126807e+01 -1.372413e+01 -6.189960e+00 -5.791898e-01 -3.681608e-01 9.036467e+00 1.751037e+00 3.148552e+00 -1.768618e+00 -2.748357e+00 -1.046202e+00 -1.507424e-01 1.618631e-01 1.283260e+00 -1.733214e+00 -8.994836e-01 9.844420e-01 2.356515e+00 -1.576265e+00 3.478614e-01
<VARIANCE> 25
 2.632006e+01 1.236736e+01 1.738574e+01 1.220553e+01 1.351414e+01 2.338392e+01 3.246378e+01 2.601242e+01 2.251463e+01 2.392906e+01 6.133433e+01 2.215112e+01 3.270673e+00 3.900764e+00 1.006526e+00 9.877419e-01 1.420097e+00 3.956098e+00 3.127142e+00 1.870890e+00 6.173603e+00 2.476672e+00 2.864908e+00 2.106359e+00 1.330418e+00
<GCONST> 9.393087e+01
~s "ST_ng_2_1"
<MEAN> 25
 6.529008e+00 -2.939024e+00 -7.067191e+00 1.383595e+00 -2.040595e+00 -1.401205e+01 1.153943e+01 -1.200463e+00 -4.581537e+00 3.711044e+00 1.154383e+01 -6.992478e+00 1.468008e+00 6.452687e-02 9.543834e-01 1.687624e+00 -3.758300e+00 1.517814e+00 1.783929e+00 -9.138213e-01 -1.659094e+00 -4.546270e-01 -4.106034e-01 7.575969e-01 -1.599969e+00
<VARIANCE> 25
 1.326118e+01 8.535199e+00 2.229299e+01 2.422122e+01 8.297401e+01 3.940087e+01 3.995655e+01 6.859427e+01 4.624934e+01 1.753849e+01 2.550157e+01 2.203346e+01 7.286219e-01 5.217238e-01 7.006945e-01 2.125737e+00 5.066928e+00 4.983633e+00 2.612508e+00 3.420802e+00 2.995680e+00 4.381120e+00 3.757695e+00 3.608135e+00 7.915292e-01
<GCONST> 9.580350e+01
~s "ST_ng_3_1"
<MEAN> 25
 1.218001e+01 -4.356162e+00 -2.093581e+00 8.370319e+00 -1.644745e+01 -3.982661e+00 1.300901e+01 -6.366788e-01 -1.096627e+01 -3.773357e+00 7.536969e+00 2.304857e+00 3.195923e-02 4.314445e-01 6.926209e-01 1.036721e-01 -7.711373e-01 1.038691e+00 -1.033164e+00 -1.366757e-01 1.909706e-01 -5.015801e-01 -2.868933e-01 8.676196e-01 -9.362663e-01
<VARIANCE> 25
 2.711195e+00 1.462901e+01 1.608495e+01 1.234853e+01 4.052593e+01 8.728630e+01 2.040105e+01 3.079271e+01 4.401021e+01 1.397794e+01 4.059661e+01 2.783435e+01 2.830222e-01 1.190924e+00 9.279042e-01 1.774950e+00 3.093621e+00 4.075782e+00 2.815679e+00 3.173090e+00 3.154470e+00 1.755983e+00 1.860267e+00 2.132895e+00 5.777125e-01
<GCONST> 8.966172e+01
~s "ST_m_2_1"
<MEAN> 25
 1.167962e+01 -1.637262e+00 -3.168142e+00 1.643209e+00 -6.159785e+00 -2.833605e+00 6.121561e+00 -4.601982e+00 -1.173875e+01 -1.476438e+00 6.729988e+00 3.113771e+00 1.309701e+00 -3.667390e-01 1.677938e+00 3.123780e+00 -2.503747e+00 1.510231e+00 5.814598e-01 -1.707093e+00 -2.547553e+00 -2.158630e+00 -9.871566e-01 7.077001e-01 -9.585590e-01
<VARIANCE> 25
 2.013751e+01 1.968293e+01 5.520776e+01 5.852095e+01 5.760944e+01 6.855303e+01 6.863295e+01 6.968990e+01 3.969709e+01 5.221490e+01 5.443111e+01 3.898846e+01 2.003206e+00 1.809071e+00 3.468313e+00 3.529044e+00 3.746179e+00 4.945957e+00 6.282971e+00 4.971992e+00 2.961978e+00 2.803995e+00 5.297933e+00 3.782960e+00 3.050133e+00
<GCONST> 1.084439e+02
~s "ST_ng_4_1"
<MEAN> 25
 4.826931e+00 2.606966e+00 4.922227e+00 2.844090e+00 -7.484983e+00 4.550168e+00 2.639677e-01 -2.551191e+00 -3.715732e+00 -2.758151e+00 -1.631613e+00 4.212641e+00 -1.415479e+00 4.472324e-01 4.769312e-01 -5.126853e-01 2.102648e+00 1.690769e+00 -1.429156e+00 -5.573032e-01 7.844386e-01 4.565508e-01 -1.118673e+00 -4.580227e-03 -1.133875e+00
<VARIANCE> 25
 3.901398e+01 2.432959e+01 1.549219e+01 1.871192e+01 5.537927e+01 6.193975e+01 3.136116e+01 4.278614e+01 4.564616e+01 2.271733e+01 4.026325e+01 4.618340e+01 1.694691e+00 2.277881e+00 2.063296e+00 1.576905e+00 2.811609e+00 2.314301e+00 2.393042e+00 2.772811e+00 4.122102e+00 3.233001e+00 3.731951e+00 1.855263e+00 1.251253e+00
<GCONST> 9.933100e+01
~s "ST_m_3_1"
<MEAN> 25
 1.263318e+01 -4.469414e+00 1.101193e+00 1.205927e+01 -1.318881e+01 -6.876535e-01 1.001898e+01 -8.962769e+00 -1.685101e+01 -7.667824e+00 4.204188e+00 3.136681e+00 -2.971941e-01 2.515858e-01 1.611392e-01 2.988942e-02 7.669020e-02 1.804204e-01 -7.414626e-02 -2.688019e-01 1.185582e-01 -9.077518e-02 5.331757e-01 3.185499e-01 -2.895612e-01
<VARIANCE> 25
 4.717147e+00 1.895699e+01 1.867758e+01 2.163396e+01 2.046383e+01 2.542332e+01 5.676488e+01 8.139278e+01 3.348399e+01 3.747531e+01 2.174769e+01 3.870325e+01 8.146346e-01 1.553609e+00 2.020376e+00 2.815283e+00 2.348262e+00 2.785123e+00 3.771682e+00 2.330331e+00 2.290300e+00 2.609437e+00 2.722289e+00 1.952322e+00 1.259237e+00
<GCONST> 9.471883e+01
~s "ST_m_4_1"
<MEAN> 25
 6.174777e+00 3.313741e+00 6.302549e+00 6.160932e+00 -5.217235e+00 5.171679e+00 -9.867040e-02 -5.229570e+00 -8.788170e+00 -3.179155e+00 2.154109e-01 5.813803e+00 -1.421696e+00 3.154992e-01 3.598579e-02 -1.506666e+00 1.287217e+00 5.009307e-01 -7.101462e-01 1.022652e+00 1.881549e+00 8.626596e-01 -9.737489e-01 -4.734501e-01 -7.494746e-01
<VARIANCE> 25
 2.461179e+01 1.533184e+01 2.442362e+01 1.909951e+01 3.363321e+01 4.443320e+01 5.704472e+01 3.980220e+01 5.185538e+01 2.706957e+01 4.873140e+01 4.223940e+01 8.143928e-01 2.156533e+00 3.579578e+00 3.141071e+00 3.334877e+00 3.718137e+00 4.707997e+00 3.862687e+00 4.358349e+00 2.651188e+00 5.200743e+00 3.402330e+00 2.203899e+00
<GCONST> 1.024510e+02
~s "ST_c_2_1"
<MEAN> 25
 -3.071712e+00 1.289586e+00 -2.440664e+00 -1.076013e+00 2.106410e+00 8.386724e+00 4.216909e-01 -2.768120e+00 -2.641913e-01 3.742309e-01 -5.447476e+00 2.635626e-01 -2.015110e-01 -1.215689e-02 -2.218145e-01 -1.271410e-01 1.291467e-02 1.394411e-01 1.061728e-02 -7.926937e-02 4.520754e-02 -3.186090e-02 -9.419397e-02 -6.065034e-02 1.821603e-03
<VARIANCE> 25
 1.795759e+01 1.685257e+01 1.396995e+01 7.994112e+00 1.504963e+01 1.885091e+01 1.580971e+01 1.332661e+01 1.215080e+01 1.492664e+01 1.510487e+01 1.703474e+01 8.207827e-01 5.985299e-01 7.882400e-01 1.000676e+00 1.726622e+00 2.443856e+00 1.839235e+00 1.586673e+00 1.530568e+00 1.548018e+00 1.759207e+00 2.614755e+00 2.332817e-01
<GCONST> 8.062001e+01
~s "ST_c_3_1"
<MEAN> 25
 -1.613794e+01 1.077898e+01 3.618994e-01 2.119885e+00 5.793494e+00 1.130012e+01 4.620046e+00 3.576254e+00 4.058658e+00 2.818737e+00 -3.036529e+00 6.501861e+00 -2.356045e+00 7.286144e-01 1.054984e+00 5.567326e-02 5.036508e-01 -9.301337e-01 6.081882e-01 2.043965e+00 6.863011e-01 8.910963e-01 1.491603e+00 1.069502e+00 3.613237e+00
<VARIANCE> 25
 1.014877e+02 9.149750e+01 2.892347e+01 1.859658e+01 4.083350e+01 2.265347e+01 3.592260e+01 4.692886e+01 2.042885e+01 1.770283e+01 1.436631e+01 2.009649e+01 5.150530e+00 1.489929e+01 3.495522e+00 3.063823e+00 8.996135e+00 7.459666e+00 5.806168e+00 3.401761e+00 2.474726e+00 2.502030e+00 3.064235e+00 1.745193e+00 1.903814e+00
<GCONST> 1.052316e+02
~s "ST_c_4_1"
<MEAN> 25
 -1.119613e+01 3.040393e+00 4.377158e+00 2.176842e-01 -1.359981e+00 -5.585110e+00 -1.282642e+00 9.050710e+00 2.953865e+00 4.262179e+00 4.463844e+00 6.847310e+00 5.154952e+00 -1.707567e+00 5.519319e-01 1.099870e+00 -1.821975e+00 -5.455827e+00 -3.043383e+00 -1.533331e+00 -1.283620e+00 -8.232718e-01 6.945017e-01 -1.275380e+00 2.469933e+00
<VARIANCE> 25
 7.697706e+01 3.725042e+01 2.297818e+01 4.071009e+01 2.223939e+01 5.292167e+01 6.062550e+01 4.424749e+01 4.109432e+01 3.378422e+01 2.509097e+01 1.678759e+01 3.719539e+00 2.824891e+00 4.118537e+00 2.293836e+00 2.198833e+00 2.634155e+00 1.974469e+00 6.710946e+00 2.091125e+00 2.010360e+00 2.436641e+00 2.922778e+00 3.908244e+00
<GCONST> 1.026939e+02
~s "ST_p_2_1"
<MEAN> 25
 3.191154e+00 1.814256e+00 -6.322427e-01 -1.160980e+00 -1.205645e+00 1.013237e+01 -1.908240e+00 -1.273704e+00 1.449882e+00 1.688560e+00 -6.424390e+00 -1.071015e+00 -1.621522e+00 -4.576209e-01 9.648935e-01 3.322223e-01 -1.083170e+00 1.108873e+00 -1.517341e-01 4.686595e-01 -1.088589e-01 -2.722408e-01 -7.660174e-01 3.663576e-03 -1.375435e+00
<VARIANCE> 25
 2.285116e+01 5.236389e+00 3.213944e+01 2.139614e+01 1.460940e+01 1.651557e+01 2.227171e+01 1.677604e+01 3.516759e+01 2.475387e+01 2.445473e+01 1.683175e+01 9.796263e-01 6.184924e-01 1.472953e+00 1.193255e+00 2.632657e+00 2.780285e+00 1.919493e+00 2.415064e+00 4.084759e+00 2.860550e+00 2.627192e+00 1.800411e+00 1.066533e+00
<GCONST> 8.912714e+01
~s "ST_p_3_1"
<MEAN> 25
 -4.942665e+00 -1.350447e+00 4.756393e+00 2.524404e+00 -2.094611e+00 1.251426e+01 -8.460507e-01 -1.999452e-01 -2.817107e+00 -1.595922e+00 -7.490543e+00 5.979163e-01 -1.450260e-01 -7.059119e-02 -8.728582e-02 -4.686839e-02 5.487479e-02 4.295589e-03 1.085135e-01 4.341114e-02 3.129846e-02 5.753738e-02 1.014964e-01 1.062244e-01 4.322092e-02
<VARIANCE> 25
 3.368000e+00 3.179975e+00 8.874056e+00 1.134537e+01 9.616529e+00 1.471394e+01 1.318160e+01 1.658864e+01 2.580350e+01 1.472098e+01 1.859454e+01 1.580302e+01 4.424626e-01 3.160728e-01 7.131494e-01 1.144018e+00 1.056343e+00 1.444483e+00 1.583881e+00 1.587875e+00 1.892124e+00 1.401380e+00 1.748046e+00 1.439615e+00 2.518606e-01
<GCONST> 7.458602e+01
~s "ST_p_4_1"
<MEAN> 25
 -2.025361e+00 5.777775e-01 -1.321671e+00 -2.594644e+00 5.537180e-01 9.532043e+00 1.918142e+00 9.780006e-01 1.767192e+00 2.189330e+00 -6.622741e-01 3.789612e+00 1.456653e+00 -1.967561e-01 -3.780638e+00 -2.593731e+00 2.495267e+00 -2.265267e+00 1.218306e+00 8.085860e-01 1.001548e+00 1.558796e+00 4.180634e+00 -8.568311e-02 5.613712e+00
<VARIANCE> 25
 3.731856e+01 9.889836e+00 4.602768e+01 3.666541e+01 2.225380e+01 2.617852e+01 2.611785e+01 2.350581e+01 3.922773e+01 2.876191e+01 6.190168e+01 1.822115e+01 4.074702e+00 1.880024e+00 6.439116e+00 6.938025e+00 2.744474e+00 6.116656e+00 5.254728e+00 3.135349e+00 7.329671e+00 3.154243e+00 3.339255e+00 5.414769e+00 3.681481e+00
<GCONST> 1.049297e+02
~h "@"
<BEGINHMM>
<NUMSTATES> 5
<STATE> 2
~s "ST_@_2_1"
<STATE> 3
~s "ST_@_3_1"
<STATE> 4
~s "ST_@_4_1"
~t "T_@"
<ENDHMM>
~h "a"
<BEGINHMM>
<NUMSTATES> 5
<STATE> 2
~s "ST_a_2_1"
<STATE> 3
~s "ST_a_3_1"
<STATE> 4
~s "ST_a_4_1"
<TRANSP> 5
 0.000000e+00 1.000000e+00 0.000000e+00 0.000000e+00 0.000000e+00
 0.000000e+00 8.517879e-01 1.482122e-01 0.000000e+00 0.000000e+00
 0.000000e+00 0.000000e+00 9.565194e-01 4.348065e-02 0.000000e+00
 0.000000e+00 0.000000e+00 0.000000e+00 9.316915e-01 6.830847e-02
 0.000000e+00 0.000000e+00 0.000000e+00 0.000000e+00 0.000000e+00
<ENDHMM>
~h "b"
<BEGINHMM>
<NUMSTATES> 5
<STATE> 2
~s "ST_b_2_1"
<STATE> 3
~s "ST_b_3_1"
<STATE> 4
~s "ST_b_4_1"
~t "T_b"
<ENDHMM>
~h "c"
<BEGINHMM>
<NUMSTATES> 5
<STATE> 2
~s "ST_c_2_1"
<STATE> 3
~s "ST_c_3_1"
<STATE> 4
~s "ST_c_4_1"
~t "T_c"
<ENDHMM>
~h "d"
<BEGINHMM>
<NUMSTATES> 5
<STATE> 2
~s "ST_d_2_1"
<STATE> 3
~s "ST_d_3_1"
<STATE> 4
~s "ST_d_4_1"
~t "T_d"
<ENDHMM>
~h "e"
<BEGINHMM>
<NUMSTATES> 5
<STATE> 2
~s "ST_e_2_1"
<STATE> 3
~s "ST_e_3_1"
<STATE> 4
~s "ST_e_4_1"
<TRANSP> 5
 0.000000e+00 1.000000e+00 0.000000e+00 0.000000e+00 0.000000e+00
 0.000000e+00 4.288862e-01 5.711138e-01 0.000000e+00 0.000000e+00
 0.000000e+00 0.000000e+00 7.469797e-01 2.530204e-01 0.000000e+00
 0.000000e+00 0.000000e+00 0.000000e+00 9.694318e-01 3.056826e-02
 0.000000e+00 0.000000e+00 0.000000e+00 0.000000e+00 0.000000e+00
<ENDHMM>
~h "f"
<BEGINHMM>
<NUMSTATES> 5
<STATE> 2
~s "ST_f_2_1"
<STATE> 3
~s "ST_f_3_1"
<STATE> 4
~s "ST_f_4_1"
~t "T_f"
<ENDHMM>
~h "g"
<BEGINHMM>
<NUMSTATES> 5
<STATE> 2
~s "ST_g_2_1"
<STATE> 3
~s "ST_g_3_1"
<STATE> 4
~s "ST_g_4_1"
~t "T_g"
<ENDHMM>
~h "h"
<BEGINHMM>
<NUMSTATES> 5
<STATE> 2
~s "ST_h_2_1"
<STATE> 3
~s "ST_h_3_1"
<STATE> 4
~s "ST_h_4_1"
~t "T_h"
<ENDHMM>
~h "i"
<BEGINHMM>
<NUMSTATES> 5
<STATE> 2
~s "ST_i_2_1"
<STATE> 3
~s "ST_i_3_1"
<STATE> 4
~s "ST_i_4_1"
~t "T_i"
<ENDHMM>
~h "j"
<BEGINHMM>
<NUMSTATES> 5
<STATE> 2
~s "ST_j_2_1"
<STATE> 3
~s "ST_j_3_1"
<STATE> 4
~s "ST_j_4_1"
~t "T_j"
<ENDHMM>
~h "k"
<BEGINHMM>
<NUMSTATES> 5
<STATE> 2
~s "ST_k_2_1"
<STATE> 3
~s "ST_k_3_1"
<STATE> 4
~s "ST_k_4_1"
~t "T_k"
<ENDHMM>
~h "l"
<BEGINHMM>
<NUMSTATES> 5
<STATE> 2
~s "ST_l_2_1"
<STATE> 3
~s "ST_l_3_1"
<STATE> 4
~s "ST_l_4_1"
~t "T_l"
<ENDHMM>
~h "m"
<BEGINHMM>
<NUMSTATES> 5
<STATE> 2
~s "ST_m_2_1"
<STATE> 3
~s "ST_m_3_1"
<STATE> 4
~s "ST_m_4_1"
~t "T_m"
<ENDHMM>
~h "n"
<BEGINHMM>
<NUMSTATES> 5
<STATE> 2
~s "ST_n_2_1"
<STATE> 3
~s "ST_n_3_1"
<STATE> 4
~s "ST_n_4_1"
~t "T_n"
<ENDHMM>
~h "o"
<BEGINHMM>
<NUMSTATES> 5
<STATE> 2
~s "ST_o_2_1"
<STATE> 3
~s "ST_o_3_1"
<STATE> 4
~s "ST_o_4_1"
~t "T_o"
<ENDHMM>
~h "p"
<BEGINHMM>
<NUMSTATES> 5
<STATE> 2
~s "ST_p_2_1"
<STATE> 3
~s "ST_p_3_1"
<STATE> 4
~s "ST_p_4_1"
~t "T_p"
<ENDHMM>
~h "r"
<BEGINHMM>
<NUMSTATES> 5
<STATE> 2
~s "ST_r_2_1"
<STATE> 3
~s "ST_r_3_1"
<STATE> 4
~s "ST_r_4_1"
~t "T_r"
<ENDHMM>
~h "s"
<BEGINHMM>
<NUMSTATES> 5
<STATE> 2
~s "ST_s_2_1"
<STATE> 3
~s "ST_s_3_1"
<STATE> 4
~s "ST_s_4_1"
~t "T_s"
<ENDHMM>
~h "t"
<BEGINHMM>
<NUMSTATES> 5
<STATE> 2
~s "ST_t_2_1"
<STATE> 3
~s "ST_t_3_1"
<STATE> 4
~s "ST_t_4_1"
~t "T_t"
<ENDHMM>
~h "u"
<BEGINHMM>
<NUMSTATES> 5
<STATE> 2
~s "ST_u_2_1"
<STATE> 3
~s "ST_u_3_1"
<STATE> 4
~s "ST_u_4_1"
~t "T_u"
<ENDHMM>
~h "ng"
<BEGINHMM>
<NUMSTATES> 5
<STATE> 2
~s "ST_ng_2_1"
<STATE> 3
~s "ST_ng_3_1"
<STATE> 4
~s "ST_ng_4_1"
~t "T_ng"
<ENDHMM>
~h "sp"
<BEGINHMM>
<NUMSTATES> 3
<STATE> 2
~s "ST_sil_3_1"
<TRANSP> 3
 0.000000e+00 7.320601e-01 2.679399e-01
 0.000000e+00 9.519975e-01 4.800251e-02
 0.000000e+00 0.000000e+00 0.000000e+00
<ENDHMM>
~h "n-a+m"
<BEGINHMM>
<NUMSTATES> 5
<STATE> 2
~s "ST_a_2_2"
<STATE> 3
~s "ST_a_3_4"
<STATE> 4
~s "ST_a_4_2"
~t "T_a"
<ENDHMM>
~h "d-a+h"
<BEGINHMM>
<NUMSTATES> 5
<STATE> 2
~s "ST_a_2_2"
<STATE> 3
~s "ST_a_3_2"
<STATE> 4
~s "ST_a_4_1"
~t "T_a"
<ENDHMM>
~h "d-e+k"
<BEGINHMM>
<NUMSTATES> 5
<STATE> 2
~s "ST_e_2_1"
<STATE> 3
~s "ST_e_3_2"
<STATE> 4
~s "ST_e_4_3"
~t "T_e"
<ENDHMM>
~h "g-a+j"
<BEGINHMM>
<NUMSTATES> 5
<STATE> 2
~s "ST_a_2_3"
<STATE> 3
~s "ST_a_3_2"
<STATE> 4
~s "ST_a_4_1"
~t "T_a"
<ENDHMM>
~h "j-a+h"
<BEGINHMM>
<NUMSTATES> 5
<STATE> 2
~s "ST_a_2_1"
<STATE> 3
~s "ST_a_3_2"
<STATE> 4
~s "ST_a_4_1"
~t "T_a"
<ENDHMM>
~h "b-e"
<BEGINHMM>
<NUMSTATES> 5
<STATE> 2
~s "ST_e_2_1"
<STATE> 3
~s "ST_e_3_2"
<STATE> 4
~s "ST_e_4_1"
~t "T_e"
<ENDHMM>
~h "c-e"
<BEGINHMM>
<NUMSTATES> 5
<STATE> 2
~s "ST_e_2_1"
<STATE> 3
~s "ST_e_3_1"
<STATE> 4
~s "ST_e_4_1"
~t "T_e"
<ENDHMM>
~h "e+f"
<BEGINHMM>
<NUMSTATES> 5
<STATE> 2
~s "ST_e_2_1"
<STATE> 3
~s "ST_e_3_1"
<STATE> 4
~s "ST_e_4_3"
~t "T_e"
<ENDHMM>
~h "g-e"
<BEGINHMM>
<NUMSTATES> 5
<STATE> 2
~s "ST_e_2_1"
<STATE> 3
~s "ST_e_3_2"
<STATE> 4
~s "ST_e_4_2"
~t "T_e"
<ENDHMM>
~h "m-a"
<BEGINHMM>
<NUMSTATES> 5
<STATE> 2
~s "ST_a_2_2"
<STATE> 3
~s "ST_a_3_3"
<STATE> 4
~s "ST_a_4_1"
~t "T_a"
<ENDHMM>
~h "s-e"
<BEGINHMM>
<NUMSTATES> 5
<STATE> 2
~s "ST_e_2_1"
<STATE> 3
~s "ST_e_3_1"
<STATE> 4
~s "ST_e_4_1"
<TRANSP> 5
 0.000000e+00 1.000000e+00 0.000000e+00 0.000000e+00 0.000000e+00
 0.000000e+00 4.751942e-01 5.248058e-01 0.000000e+00 0.000000e+00
 0.000000e+00 0.000000e+00 7.408632e-01 2.591368e-01 0.000000e+00
 0.000000e+00 0.000000e+00 0.000000e+00 9.694426e-01 3.055738e-02
 0.000000e+00 0.000000e+00 0.000000e+00 0.000000e+00 0.000000e+00
<ENDHMM>
~h "sil"
<BEGINHMM>
<NUMSTATES> 5
<STATE> 2
~s "ST_sil_2_1"
<STATE> 3
~s "ST_sil_3_1"
<STATE> 4
~s "ST_sil_4_1"
<TRANSP> 5
 0.000000e+00 1.000000e+00 0.000000e+00 0.000000e+00 0.000000e+00
 0.000000e+00 8.935082e-01 8.293365e-02 2.355814e-02 0.000000e+00
 0.000000e+00 0.000000e+00 9.685071e-01 3.149288e-02 0.000000e+00
 0.000000e+00 3.940347e-02 0.000000e+00 7.901052e-01 1.704914e-01
 0.000000e+00 0.000000e+00 0.000000e+00 0.000000e+00 0.000000e+00
<ENDHMM>
~h "p-a+n"
<BEGINHMM>
<NUMSTATES> 5
<STATE> 2
~s "ST_a_2_2"
<STATE> 3
~s "ST_a_3_6"
<STATE> 4
~s "ST_a_4_2"
~t "T_a"
<ENDHMM>
~h "s-a+t"
<BEGINHMM>
<NUMSTATES> 5
<STATE> 2
~s "ST_a_2_1"
<STATE> 3
~s "ST_a_3_4"
<STATE> 4
~s "ST_a_4_2"
~t "T_a"
<ENDHMM>
~h "a+ng"
<BEGINHMM>
<NUMSTATES> 5
<STATE> 2
~s "ST_a_2_1"
<STATE> 3
~s "ST_a_3_1"
<STATE> 4
~s "ST_a_4_1"
~t "T_a"
<ENDHMM>
~h "k-a+d"
<BEGINHMM>
<NUMSTATES> 5
<STATE> 2
~s "ST_a_2_3"
<STATE> 3
~s "ST_a_3_5"
<STATE> 4
~s "ST_a_4_2"
~t "T_a"
<ENDHMM>
