~o
<STREAMINFO> 1 25
<VECSIZE> 25<NULLD><MFCC_D_N_Z_0><DIAGC>
~t "T_@"
<TRANSP> 5
 0.000000e+000 1.000000e+000 0.000000e+000 0.000000e+000 0.000000e+000
 0.000000e+000 4.679550e-001 5.320450e-001 0.000000e+000 0.000000e+000
 0.000000e+000 0.000000e+000 5.114874e-001 4.885127e-001 0.000000e+000
 0.000000e+000 0.000000e+000 0.000000e+000 6.854759e-001 3.145241e-001
 0.000000e+000 0.000000e+000 0.000000e+000 0.000000e+000 0.000000e+000
~t "T_a"
<TRANSP> 5
 0.000000e+000 1.000000e+000 0.000000e+000 0.000000e+000 0.000000e+000
 0.000000e+000 6.204698e-001 3.795302e-001 0.000000e+000 0.000000e+000
 0.000000e+000 0.000000e+000 9.086880e-001 9.131200e-002 0.000000e+000
 0.000000e+000 0.000000e+000 0.000000e+000 8.423133e-001 1.576868e-001
 0.000000e+000 0.000000e+000 0.000000e+000 0.000000e+000 0.000000e+000
~t "T_b"
<TRANSP> 5
 0.000000e+000 1.000000e+000 0.000000e+000 0.000000e+000 0.000000e+000
 0.000000e+000 8.538598e-001 1.461402e-001 0.000000e+000 0.000000e+000
 0.000000e+000 0.000000e+000 8.101647e-001 1.898353e-001 0.000000e+000
 0.000000e+000 0.000000e+000 0.000000e+000 9.467235e-001 5.327654e-002
 0.000000e+000 0.000000e+000 0.000000e+000 0.000000e+000 0.000000e+000
~t "T_c"
<TRANSP> 5
 0.000000e+000 1.000000e+000 0.000000e+000 0.000000e+000 0.000000e+000
 0.000000e+000 9.368886e-001 6.311147e-002 0.000000e+000 0.000000e+000
 0.000000e+000 0.000000e+000 8.113577e-001 1.886423e-001 0.000000e+000
 0.000000e+000 0.000000e+000 0.000000e+000 6.797711e-001 3.202289e-001
 0.000000e+000 0.000000e+000 0.000000e+000 0.000000e+000 0.000000e+000
~t "T_d"
<TRANSP> 5
 0.000000e+000 1.000000e+000 0.000000e+000 0.000000e+000 0.000000e+000
 0.000000e+000 7.500538e-001 2.499462e-001 0.000000e+000 0.000000e+000
 0.000000e+000 0.000000e+000 6.815100e-001 3.184899e-001 0.000000e+000
 0.000000e+000 0.000000e+000 0.000000e+000 7.754425e-001 2.245574e-001
 0.000000e+000 0.000000e+000 0.000000e+000 0.000000e+000 0.000000e+000
~t "T_e"
<TRANSP> 5
 0.000000e+000 1.000000e+000 0.000000e+000 0.000000e+000 0.000000e+000
 0.000000e+000 3.517398e-001 6.482602e-001 0.000000e+000 0.000000e+000
 0.000000e+000 0.000000e+000 6.760800e-001 3.239201e-001 0.000000e+000
 0.000000e+000 0.000000e+000 0.000000e+000 9.328677e-001 6.713234e-002
 0.000000e+000 0.000000e+000 0.000000e+000 0.000000e+000 0.000000e+000
~t "T_f"
<TRANSP> 5
 0.000000e+000 1.000000e+000 0.000000e+000 0.000000e+000 0.000000e+000
 0.000000e+000 9.080158e-001 9.198419e-002 0.000000e+000 0.000000e+000
 0.000000e+000 0.000000e+000 9.544150e-001 4.558504e-002 0.000000e+000
 0.000000e+000 0.000000e+000 0.000000e+000 9.529507e-001 4.704938e-002
 0.000000e+000 0.000000e+000 0.000000e+000 0.000000e+000 0.000000e+000
~t "T_g"
<TRANSP> 5
 0.000000e+000 1.000000e+000 0.000000e+000 0.000000e+000 0.000000e+000
 0.000000e+000 6.173513e-001 3.826487e-001 0.000000e+000 0.000000e+000
 0.000000e+000 0.000000e+000 7.646326e-001 2.353674e-001 0.000000e+000
 0.000000e+000 0.000000e+000 0.000000e+000 8.257366e-001 1.742634e-001
 0.000000e+000 0.000000e+000 0.000000e+000 0.000000e+000 0.000000e+000
~t "T_h"
<TRANSP> 5
 0.000000e+000 1.000000e+000 0.000000e+000 0.000000e+000 0.000000e+000
 0.000000e+000 8.463464e-001 1.536536e-001 0.000000e+000 0.000000e+000
 0.000000e+000 0.000000e+000 8.444743e-001 1.555257e-001 0.000000e+000
 0.000000e+000 0.000000e+000 0.000000e+000 9.077458e-001 9.225421e-002
 0.000000e+000 0.000000e+000 0.000000e+000 0.000000e+000 0.000000e+000
~t "T_i"
<TRANSP> 5
 0.000000e+000 1.000000e+000 0.000000e+000 0.000000e+000 0.000000e+000
 0.000000e+000 7.386685e-001 2.613315e-001 0.000000e+000 0.000000e+000
 0.000000e+000 0.000000e+000 8.541461e-001 1.458539e-001 0.000000e+000
 0.000000e+000 0.000000e+000 0.000000e+000 8.153141e-001 1.846859e-001
 0.000000e+000 0.000000e+000 0.000000e+000 0.000000e+000 0.000000e+000
~t "T_j"
<TRANSP> 5
 0.000000e+000 1.000000e+000 0.000000e+000 0.000000e+000 0.000000e+000
 0.000000e+000 8.466573e-001 1.533428e-001 0.000000e+000 0.000000e+000
 0.000000e+000 0.000000e+000 8.320938e-001 1.679062e-001 0.000000e+000
 0.000000e+000 0.000000e+000 0.000000e+000 7.709727e-001 2.290272e-001
 0.000000e+000 0.000000e+000 0.000000e+000 0.000000e+000 0.000000e+000
~t "T_k"
<TRANSP> 5
 0.000000e+000 1.000000e+000 0.000000e+000 0.000000e+000 0.000000e+000
 0.000000e+000 7.173846e-001 2.826154e-001 0.000000e+000 0.000000e+000
 0.000000e+000 0.000000e+000 7.459390e-001 2.540611e-001 0.000000e+000
 0.000000e+000 0.000000e+000 0.000000e+000 8.725669e-001 1.274331e-001
 0.000000e+000 0.000000e+000 0.000000e+000 0.000000e+000 0.000000e+000
~t "T_l"
<TRANSP> 5
 0.000000e+000 1.000000e+000 0.000000e+000 0.000000e+000 0.000000e+000
 0.000000e+000 8.329212e-001 1.670788e-001 0.000000e+000 0.000000e+000
 0.000000e+000 0.000000e+000 6.481770e-001 3.518230e-001 0.000000e+000
 0.000000e+000 0.000000e+000 0.000000e+000 7.217663e-001 2.782337e-001
 0.000000e+000 0.000000e+000 0.000000e+000 0.000000e+000 0.000000e+000
~t "T_m"
<TRANSP> 5
 0.000000e+000 1.000000e+000 0.000000e+000 0.000000e+000 0.000000e+000
 0.000000e+000 7.229322e-001 2.770678e-001 0.000000e+000 0.000000e+000
 0.000000e+000 0.000000e+000 8.041067e-001 1.958932e-001 0.000000e+000
 0.000000e+000 0.000000e+000 0.000000e+000 7.495695e-001 2.504305e-001
 0.000000e+000 0.000000e+000 0.000000e+000 0.000000e+000 0.000000e+000
~t "T_n"
<TRANSP> 5
 0.000000e+000 1.000000e+000 0.000000e+000 0.000000e+000 0.000000e+000
 0.000000e+000 6.980615e-001 3.019385e-001 0.000000e+000 0.000000e+000
 0.000000e+000 0.000000e+000 8.570759e-001 1.429241e-001 0.000000e+000
 0.000000e+000 0.000000e+000 0.000000e+000 8.158292e-001 1.841708e-001
 0.000000e+000 0.000000e+000 0.000000e+000 0.000000e+000 0.000000e+000
~t "T_o"
<TRANSP> 5
 0.000000e+000 1.000000e+000 0.000000e+000 0.000000e+000 0.000000e+000
 0.000000e+000 7.178728e-001 2.821272e-001 0.000000e+000 0.000000e+000
 0.000000e+000 0.000000e+000 9.130837e-001 8.691632e-002 0.000000e+000
 0.000000e+000 0.000000e+000 0.000000e+000 8.032707e-001 1.967293e-001
 0.000000e+000 0.000000e+000 0.000000e+000 0.000000e+000 0.000000e+000
~t "T_p"
<TRANSP> 5
 0.000000e+000 1.000000e+000 0.000000e+000 0.000000e+000 0.000000e+000
 0.000000e+000 6.712792e-001 3.287207e-001 0.000000e+000 0.000000e+000
 0.000000e+000 0.000000e+000 9.006451e-001 9.935489e-002 0.000000e+000
 0.000000e+000 0.000000e+000 0.000000e+000 6.560332e-001 3.439668e-001
 0.000000e+000 0.000000e+000 0.000000e+000 0.000000e+000 0.000000e+000
~t "T_r"
<TRANSP> 5
 0.000000e+000 1.000000e+000 0.000000e+000 0.000000e+000 0.000000e+000
 0.000000e+000 7.887622e-001 2.112378e-001 0.000000e+000 0.000000e+000
 0.000000e+000 0.000000e+000 8.162606e-001 1.837395e-001 0.000000e+000
 0.000000e+000 0.000000e+000 0.000000e+000 8.658087e-001 1.341913e-001
 0.000000e+000 0.000000e+000 0.000000e+000 0.000000e+000 0.000000e+000
~t "T_s"
<TRANSP> 5
 0.000000e+000 1.000000e+000 0.000000e+000 0.000000e+000 0.000000e+000
 0.000000e+000 7.910222e-001 2.089778e-001 0.000000e+000 0.000000e+000
 0.000000e+000 0.000000e+000 8.664046e-001 1.335955e-001 0.000000e+000
 0.000000e+000 0.000000e+000 0.000000e+000 7.063638e-001 2.936362e-001
 0.000000e+000 0.000000e+000 0.000000e+000 0.000000e+000 0.000000e+000
~t "T_t"
<TRANSP> 5
 0.000000e+000 1.000000e+000 0.000000e+000 0.000000e+000 0.000000e+000
 0.000000e+000 6.363601e-001 3.636398e-001 0.000000e+000 0.000000e+000
 0.000000e+000 0.000000e+000 6.972104e-001 3.027896e-001 0.000000e+000
 0.000000e+000 0.000000e+000 0.000000e+000 7.304795e-001 2.695205e-001
 0.000000e+000 0.000000e+000 0.000000e+000 0.000000e+000 0.000000e+000
~t "T_u"
<TRANSP> 5
 0.000000e+000 1.000000e+000 0.000000e+000 0.000000e+000 0.000000e+000
 0.000000e+000 7.611040e-001 2.388959e-001 0.000000e+000 0.000000e+000
 0.000000e+000 0.000000e+000 8.882547e-001 1.117453e-001 0.000000e+000
 0.000000e+000 0.000000e+000 0.000000e+000 8.344789e-001 1.655211e-001
 0.000000e+000 0.000000e+000 0.000000e+000 0.000000e+000 0.000000e+000
~t "T_ng"
<TRANSP> 5
 0.000000e+000 1.000000e+000 0.000000e+000 0.000000e+000 0.000000e+000
 0.000000e+000 7.946265e-001 2.053735e-001 0.000000e+000 0.000000e+000
 0.000000e+000 0.000000e+000 8.474581e-001 1.525420e-001 0.000000e+000
 0.000000e+000 0.000000e+000 0.000000e+000 8.763859e-001 1.236141e-001
 0.000000e+000 0.000000e+000 0.000000e+000 0.000000e+000 0.000000e+000
~s "ST_f_2_1"
<MEAN> 25
 6.312463e+000 -3.483605e+000 -1.144332e+001 -2.202673e-002 7.740779e+000 -1.565693e+001 -9.549599e-001 1.345947e+001 2.236564e+000 -9.949101e-001 4.096200e+000 -3.945399e+000 2.394022e-001 4.789467e-001 3.768469e-001 4.098791e-001 -8.170982e-002 2.135752e+000 -6.801651e-001 -6.194726e-001 -5.431086e-002 -6.239748e-001 -5.773337e-001 3.935578e-001 -1.356970e+000
<VARIANCE> 25
 1.708173e+001 1.243777e+001 2.211297e+001 2.732024e+001 9.131442e+000 7.441192e+001 2.275239e+001 3.082312e+001 2.666417e+001 3.075884e+001 2.589069e+001 2.148820e+001 2.908894e+000 1.376861e+000 2.280877e+000 1.637649e+000 1.366243e+000 4.512386e+000 1.679370e+000 3.469610e+000 3.154885e+000 1.643104e+000 3.218410e+000 2.146529e+000 4.342280e+000
<GCONST> 9.514806e+001
~s "ST_f_3_1"
<MEAN> 25
 -1.191324e+001 1.366573e+000 2.300579e-002 6.243104e+000 3.578277e+000 7.428903e+000 -2.677240e+000 3.096208e+000 6.770506e+000 1.499908e+000 -2.425803e+000 8.532605e-001 -4.166684e-001 -3.785704e-002 1.760799e-001 -9.508462e-002 -2.772957e-001 3.924975e-001 7.658736e-002 -3.946836e-001 -1.654855e-001 1.668165e-001 -1.457327e-001 6.885170e-002 -7.512649e-001
<VARIANCE> 25
 4.948408e+001 1.227826e+001 1.506857e+001 2.203567e+001 2.603422e+001 2.422377e+001 2.981968e+001 3.119129e+001 3.401370e+001 3.420309e+001 3.394290e+001 2.454476e+001 5.786333e+000 8.369578e-001 1.449599e+000 2.710262e+000 3.364597e+000 3.550910e+000 3.574677e+000 3.416093e+000 4.323074e+000 2.887625e+000 2.996768e+000 2.378045e+000 8.710999e-001
<GCONST> 9.750694e+001
~s "ST_f_4_1"
<MEAN> 25
 -3.174039e-001 2.100741e-003 -3.008898e-001 -1.522766e+000 8.825381e-001 8.660890e+000 -5.713090e-001 -2.690936e+000 -1.389275e+000 3.931498e-001 -6.017592e+000 -5.058430e-001 4.519651e-002 1.438967e-002 6.470018e-002 -9.972747e-002 -3.332043e-002 -3.867859e-002 4.179678e-002 -8.678577e-003 -1.611780e-002 3.914842e-002 -4.491540e-002 6.162349e-002 -1.190977e-002
<VARIANCE> 25
 1.578159e+000 3.312533e+000 6.823841e+000 7.312622e+000 9.423141e+000 1.049860e+001 1.140047e+001 1.061863e+001 1.251913e+001 1.351850e+001 1.369267e+001 1.111521e+001 1.748733e-001 3.285800e-001 6.857563e-001 9.442173e-001 1.057334e+000 1.134525e+000 1.513940e+000 1.138974e+000 1.383226e+000 1.185471e+000 1.744671e+000 1.306411e+000 7.760274e-002
<GCONST> 6.725585e+001
~s "ST_s_2_1"
<MEAN> 25
 -1.153597e+001 5.712666e+000 3.000320e+000 4.702431e-001 6.845852e+000 -4.183334e+000 -2.064206e+000 9.596066e+000 1.064250e+000 -4.796716e-001 -2.117098e+000 1.598002e+000 -4.166936e+000 2.705930e+000 1.117629e+000 4.323911e-001 1.250875e+000 4.264936e-001 3.423855e-001 1.964692e+000 4.241902e-001 -1.919648e-001 5.848922e-001 8.793466e-001 9.250222e-001
<VARIANCE> 25
 6.875387e+001 4.001350e+001 2.095233e+001 2.237567e+001 4.257184e+001 6.981091e+001 2.384555e+001 4.980012e+001 3.473193e+001 2.680502e+001 5.011012e+001 3.630371e+001 2.479883e+000 1.482193e+000 2.429950e+000 2.765213e+000 3.601649e+000 7.528636e+000 3.294632e+000 4.753918e+000 4.438656e+000 3.572819e+000 7.362053e+000 4.590593e+000 2.968165e+000
<GCONST> 1.060660e+002
~s "ST_s_3_1"
<MEAN> 25
 -2.610985e+001 1.547611e+001 5.754535e+000 4.174956e+000 1.204857e+001 6.246444e+000 2.611436e+000 1.481403e+001 4.320702e+000 2.940756e-001 5.859835e-001 8.430399e+000 -5.025207e-001 -1.910578e-002 2.223292e-001 3.055014e-001 -2.389358e-001 4.797421e-001 5.473827e-001 1.193822e-001 5.104204e-001 5.138108e-001 3.032755e-001 4.636843e-001 3.562849e-001
<VARIANCE> 25
 7.402894e+000 1.567157e+001 8.386220e+000 1.398966e+001 2.033809e+001 4.405037e+001 2.897340e+001 4.624533e+001 2.531869e+001 3.435865e+001 1.746482e+001 1.177343e+001 1.693361e+000 3.387686e+000 9.775555e-001 1.067593e+000 2.162974e+000 5.932853e+000 1.578531e+000 2.248080e+000 2.370833e+000 2.153879e+000 2.167506e+000 1.574326e+000 8.246996e-001
<GCONST> 8.983146e+001
~s "ST_s_4_1"
<MEAN> 25
 -1.877483e+001 6.061409e+000 3.532609e+000 2.255720e+000 5.235516e+000 -1.862385e+000 1.493387e+000 1.256139e+001 6.748682e+000 6.764221e+000 2.039847e+000 5.390581e+000 5.517126e+000 -2.842751e+000 -2.362426e+000 -1.922729e+000 -7.568274e-001 -3.031857e+000 -1.481867e+000 -2.484025e+000 -5.950171e-001 1.007030e+000 -5.214520e-001 -2.896442e+000 1.447450e+000
<VARIANCE> 25
 6.708703e+001 3.359637e+001 3.781757e+001 4.217710e+001 3.164392e+001 5.350043e+001 2.302843e+001 3.872028e+001 2.695272e+001 3.293260e+001 2.350231e+001 2.709774e+001 4.126725e+000 2.080453e+000 5.160610e+000 3.644897e+000 6.840637e+000 5.258012e+000 2.839434e+000 5.653170e+000 4.654480e+000 3.993245e+000 2.845891e+000 2.717795e+000 1.517273e+000
<GCONST> 1.053424e+002
~s "ST_i_2_1"
<MEAN> 25
 -4.792834e+000 -3.867845e-001 1.130520e+001 8.422724e+000 -8.832930e+000 -1.099120e+001 -6.511843e-001 2.233902e+000 1.973848e+000 -4.547853e+000 2.795445e+000 5.660802e+000 7.649795e-001 6.747714e-001 2.273892e+000 9.698916e-001 -2.439664e+000 -3.011947e+000 6.030224e-002 -1.008774e+000 -1.737558e+000 -2.251288e-001 1.536737e+000 7.686937e-002 3.140748e+000
<VARIANCE> 25
 4.261864e+001 2.631448e+001 3.963301e+001 3.537957e+001 4.609642e+001 1.061302e+002 4.792741e+001 5.814983e+001 5.814804e+001 2.916231e+001 5.396615e+001 6.114626e+001 5.010269e+000 2.584313e+000 3.816771e+000 3.948663e+000 5.230934e+000 9.938237e+000 3.976275e+000 1.102271e+001 8.264409e+000 4.186581e+000 4.232665e+000 1.119229e+001 5.559434e+000
<GCONST> 1.143032e+002
~s "ST_i_3_1"
<MEAN> 25
 -2.699780e+000 4.443318e+000 1.947970e+001 7.653706e+000 -1.678976e+001 -1.436338e+001 -1.459618e+000 -6.226765e+000 -5.544958e+000 -1.983440e-001 6.858707e+000 2.076991e+000 -3.214822e-001 5.104400e-001 2.036466e-001 -7.621676e-001 -6.087528e-001 6.013313e-001 4.519570e-001 2.124559e-001 -1.043141e-001 5.878730e-001 -2.490174e-001 -3.271607e-001 -1.206462e-001
<VARIANCE> 25
 1.600421e+001 9.438474e+000 1.954092e+001 2.333721e+001 3.683096e+001 3.383128e+001 1.943414e+001 6.067201e+001 4.159201e+001 3.575454e+001 4.830883e+001 2.919430e+001 6.632336e-001 7.177379e-001 2.270058e+000 1.626507e+000 1.753939e+000 2.601458e+000 2.219803e+000 3.054164e+000 2.959342e+000 2.622490e+000 2.165234e+000 2.151683e+000 7.605968e-001
<GCONST> 9.315359e+001
~s "ST_i_4_1"
<MEAN> 25
 4.589800e-001 6.754553e+000 1.369354e+001 4.296250e+000 -1.286253e+001 -6.863941e+000 -1.309653e+000 -1.217194e+000 -5.148579e+000 6.472518e-001 2.331779e-001 5.651457e-001 1.412076e+000 -5.671848e-001 -1.751896e+000 -7.046686e-002 1.251094e+000 1.976798e+000 -3.350576e-001 1.491775e-001 -4.741275e-002 -3.613247e-001 -1.055226e+000 3.229598e-002 -2.228817e+000
<VARIANCE> 25
 2.075502e+001 2.863390e+001 3.291605e+001 2.587397e+001 3.884433e+001 9.617242e+001 3.724068e+001 6.375300e+001 2.733516e+001 3.101238e+001 4.709589e+001 4.115734e+001 2.268267e+000 1.982818e+000 2.271158e+000 1.914249e+000 2.384485e+000 4.008515e+000 2.372191e+000 5.174905e+000 2.380756e+000 2.503372e+000 3.218850e+000 2.814017e+000 1.984850e+000
<GCONST> 1.018042e+002
~s "ST_l_2_1"
<MEAN> 25
 -2.279571e+000 2.978987e+000 6.363605e+000 6.586551e+000 -5.047907e+000 -4.852401e-001 -2.590679e+000 4.969663e+000 -5.480079e-001 -5.005229e+000 -4.259764e+000 1.303622e+000 -1.808370e-002 -1.386953e-001 2.313076e-001 -4.205208e-001 -1.437401e-003 9.262652e-001 -6.533706e-001 -7.064219e-001 4.303910e-001 2.564960e-001 -9.200834e-002 2.893196e-001 -4.252782e-001
<VARIANCE> 25
 3.895894e+001 4.360783e+001 2.697299e+001 5.752236e+001 2.340627e+001 1.278830e+002 4.300009e+001 6.499180e+001 4.376398e+001 7.449550e+001 6.385774e+001 3.873878e+001 2.625296e+000 1.964698e+000 3.063138e+000 3.666995e+000 2.721375e+000 6.536106e+000 6.368495e+000 6.896011e+000 4.842588e+000 5.631388e+000 5.611219e+000 3.237075e+000 1.848385e+000
<GCONST> 1.101140e+002
~s "ST_l_3_1"
<MEAN> 25
 4.845150e+000 2.974789e+000 1.066870e+001 4.919009e+000 -6.669825e+000 -5.250976e-001 -7.898464e+000 -7.138319e+000 3.853358e+000 3.420928e+000 -9.557658e-001 1.288273e+000 1.749482e+000 9.335436e-001 8.283491e-001 4.571132e-001 6.434609e-001 -2.706978e+000 -1.968846e+000 -2.457031e+000 -6.373616e-002 1.303703e+000 1.120567e+000 -2.071728e+000 1.929797e+000
<VARIANCE> 25
 2.718617e+001 4.744549e+001 2.643876e+001 2.583343e+001 4.274260e+001 5.312621e+001 4.446143e+001 8.239079e+001 5.374727e+001 4.650744e+001 6.795353e+001 2.748810e+001 3.162088e+000 5.507150e+000 3.170044e+000 4.791670e+000 8.222307e+000 8.072141e+000 6.150269e+000 6.325273e+000 5.317125e+000 3.902169e+000 7.456826e+000 3.788379e+000 2.363451e+000
<GCONST> 1.115940e+002
~s "ST_l_4_1"
<MEAN> 25
 6.551392e+000 1.343816e+000 7.213749e+000 8.104908e-004 1.574590e-001 -8.017764e+000 -1.063684e+001 -1.307092e+001 2.568614e+000 6.690417e+000 6.022565e+000 -6.703517e+000 -5.351958e-001 -4.674432e-001 -7.534202e-001 -1.118613e+000 9.848248e-001 -1.528720e+000 1.506221e+000 1.280162e+000 -1.097597e+000 -6.414045e-001 1.853549e+000 -6.140707e-001 1.599672e+000
<VARIANCE> 25
 1.285481e+001 3.972366e+001 5.125182e+001 8.964125e+001 6.766640e+001 7.460915e+001 4.834357e+001 1.443403e+002 4.906308e+001 4.341320e+001 7.350096e+001 3.956754e+001 1.175916e+000 1.692165e+000 3.302691e+000 5.147247e+000 9.119815e+000 5.840839e+000 4.646164e+000 9.331545e+000 3.346168e+000 5.776373e+000 5.689891e+000 4.364405e+000 1.393013e+000
<GCONST> 1.114030e+002
~s "ST_b_2_1"
<MEAN> 25
 3.079839e+000 4.597310e+000 8.847430e+000 5.596336e+000 -1.891512e+000 6.921148e+000 -2.737617e+000 -4.715597e+000 -4.284447e+000 -3.029232e+000 -6.043065e+000 2.190879e+000 2.617007e-002 3.975593e-001 4.815652e-001 4.735105e-001 5.432665e-001 1.904388e-001 -1.075876e-001 -2.654937e-001 -1.089592e-001 -1.116069e-001 -4.877612e-002 -5.486439e-002 3.320785e-001
<VARIANCE> 25
 2.140252e+001 2.578790e+001 2.481384e+001 1.690094e+001 2.237155e+001 3.370597e+001 2.746883e+001 1.733831e+001 2.390138e+001 2.349013e+001 1.782463e+001 1.942422e+001 1.946883e+000 1.818444e+000 2.032541e+000 1.704258e+000 1.574854e+000 3.357683e+000 2.876015e+000 1.972732e+000 2.872012e+000 2.584932e+000 2.288010e+000 1.395778e+000 7.721589e-001
<GCONST> 9.208331e+001
~s "ST_b_3_1"
<MEAN> 25
 3.390387e-002 -3.909347e-001 5.693043e+000 6.355587e+000 -8.407668e-001 -6.080708e+000 -8.318330e+000 -1.702676e+000 4.990263e+000 -1.650591e-001 1.469959e+000 3.970643e+000 9.973897e-001 -1.357344e+000 5.622325e-002 8.081879e-001 -7.913070e-001 -5.319496e+000 -1.608055e+000 9.594730e-001 1.198305e+000 -4.375834e-001 2.604180e+000 4.984705e-001 4.913041e+000
<VARIANCE> 25
 5.434793e+001 1.699702e+001 1.930680e+001 2.683132e+001 3.483276e+001 1.548765e+002 5.976753e+001 3.682206e+001 5.890181e+001 4.652887e+001 5.623009e+001 2.229894e+001 6.311270e+000 1.961840e+000 3.507074e+000 3.006102e+000 4.118554e+000 6.674622e+000 8.084320e+000 4.935373e+000 1.187830e+001 7.921026e+000 3.831653e+000 2.963492e+000 2.796462e+000
<GCONST> 1.102392e+002
~s "ST_b_4_1"
<MEAN> 25
 1.946645e+000 -2.285851e+000 1.206866e+001 6.909730e+000 -1.126633e+001 -2.016150e+001 -4.558266e+000 2.105148e+000 -1.465149e+000 -3.565708e+000 9.351993e+000 4.841526e+000 -1.068623e-001 2.067072e-001 2.379836e-001 -1.447826e-001 -3.475864e-001 -1.657042e-001 5.505733e-001 1.660154e-001 -2.068033e-001 1.332308e-002 7.527225e-002 -9.026228e-002 -8.023033e-002
<VARIANCE> 25
 1.148124e+001 9.421947e+000 1.585232e+001 1.591835e+001 2.553627e+001 2.636281e+001 2.135504e+001 2.166816e+001 2.650819e+001 1.872727e+001 1.565636e+001 1.156490e+001 9.245893e-001 6.636690e-001 9.819723e-001 1.018443e+000 1.265427e+000 1.199277e+000 1.468702e+000 1.731640e+000 1.436470e+000 1.176815e+000 1.210935e+000 1.016701e+000 5.758466e-001
<GCONST> 8.126027e+001
~s "ST_o_2_1"
<MEAN> 25
 9.206023e+000 3.066536e+000 -1.657800e+001 -1.508934e+000 -4.313596e+000 5.938053e-001 5.623883e+000 -4.233503e-001 -2.757967e+000 -7.439125e+000 1.096655e+001 1.358748e+001 5.843751e-001 -1.770794e-001 -2.128120e+000 -3.913642e-001 1.942287e+000 -2.720636e+000 3.469276e+000 6.100366e-002 -1.278440e-001 1.226654e-001 9.732992e-001 1.052843e+000 1.628556e+000
<VARIANCE> 25
 2.269580e+001 8.802763e+000 1.998973e+001 1.284514e+001 9.504840e+001 8.202812e+001 7.739717e+001 3.578429e+001 5.666462e+001 4.922285e+001 2.252632e+001 4.921076e+001 3.305498e+000 1.358692e+000 1.953030e+000 1.492114e+000 2.799437e+000 1.029471e+001 3.502595e+000 1.491511e+000 3.069350e+000 2.620409e+000 4.098198e+000 3.561246e+000 3.770068e-001
<GCONST> 1.000006e+002
~s "ST_o_3_1"
<MEAN> 25
 8.465322e+000 3.057840e+000 -1.801546e+001 -6.120703e+000 4.232114e+000 -6.516599e+000 1.348119e+001 -5.114760e-001 -2.503574e+000 -6.183244e+000 1.258264e+001 1.493468e+001 -9.535562e-002 9.342194e-002 3.922935e-001 -1.908908e-001 1.423608e-001 -2.422432e-001 -1.686065e-002 1.422487e-001 -1.947817e-001 -9.415364e-003 -3.403331e-001 -4.125287e-001 -2.360145e-001
<VARIANCE> 25
 1.542336e+001 1.118552e+001 8.644756e+000 2.352715e+001 4.778025e+001 2.686300e+001 2.152765e+001 2.854185e+001 3.522543e+001 3.978032e+001 3.261279e+001 2.260464e+001 9.553456e-001 4.252233e-001 1.131231e+000 1.297845e+000 3.566337e+000 2.619314e+000 2.734057e+000 1.817478e+000 1.677240e+000 2.173504e+000 1.589105e+000 1.567097e+000 7.318701e-001
<GCONST> 8.905322e+001
~s "ST_o_4_1"
<MEAN> 25
 4.599967e+000 5.347867e+000 -2.190903e+000 -4.265641e+000 -4.161306e+000 9.974533e+000 6.752231e+000 -7.057922e-002 -6.475450e+000 -8.434446e+000 8.266857e-001 4.685323e+000 -1.311295e+000 -6.006083e-001 2.034408e+000 4.430173e-001 -6.436453e-001 1.653830e+000 -1.535854e+000 4.073198e-001 3.898230e-001 9.993172e-001 -1.338058e+000 -8.052797e-001 -1.863054e+000
<VARIANCE> 25
 2.643207e+001 2.178853e+001 7.234505e+001 1.268108e+001 3.819991e+001 1.077423e+002 5.022012e+001 3.019075e+001 1.840598e+001 5.728697e+001 6.474216e+001 3.275982e+001 1.651016e+000 2.404826e+000 4.062710e+000 1.096794e+000 4.070177e+000 8.046544e+000 3.891298e+000 3.330452e+000 2.721099e+000 4.062311e+000 6.039461e+000 2.461976e+000 9.358431e-001
<GCONST> 1.033510e+002
~s "ST_e_2_1"
<MEAN> 25
 -8.235645e-001 4.659951e-001 5.449782e+000 3.391149e+000 -5.650413e+000 -7.390172e+000 -2.294587e+000 1.461341e+000 -6.380454e-001 -1.756821e+000 1.075259e+000 2.275373e+000 7.765797e-001 -6.298368e-001 -2.705113e-001 2.475574e-001 -2.194096e-003 -3.461966e+000 1.153483e+000 1.067204e+000 9.643097e-001 -1.857173e-001 1.693450e+000 -2.301270e-001 1.720011e+000
<VARIANCE> 25
 2.058132e+001 1.722110e+001 5.847429e+001 2.028334e+001 4.725114e+001 1.777595e+002 3.894845e+001 2.887137e+001 3.015460e+001 2.709755e+001 5.931915e+001 2.344352e+001 3.288094e+000 2.561109e+000 2.024662e+000 2.402961e+000 2.544010e+000 9.613099e+000 3.129008e+000 5.125855e+000 3.179943e+000 3.905404e+000 4.839594e+000 2.730057e+000 4.357102e+000
<GCONST> 1.051571e+002
~s "ST_e_3_1"
<MEAN> 25
 1.167575e+000 -6.169267e-001 9.513558e-001 1.041866e+000 -2.239439e+000 -2.143037e+001 4.939556e+000 7.107440e+000 4.521060e+000 3.926901e+000 6.636363e+000 -1.686882e+000 1.012764e+000 -5.983163e-001 -8.384693e-002 -4.160891e-001 -4.212605e-001 -5.455424e+000 8.426353e-001 8.035941e-001 5.963517e-001 6.292787e-001 1.766377e+000 -9.378690e-001 4.681159e+000
<VARIANCE> 25
 2.352902e+001 1.889377e+001 4.380794e+001 2.323795e+001 5.817519e+001 1.076262e+002 7.163718e+001 5.033029e+001 2.962816e+001 4.182573e+001 4.300527e+001 3.819911e+001 1.420047e+000 1.254907e+000 3.732318e+000 1.780402e+000 4.439469e+000 1.757503e+001 5.520940e+000 6.341689e+000 2.990776e+000 4.260048e+000 5.928444e+000 3.426405e+000 6.131731e+000
<GCONST> 1.081822e+002
~s "ST_e_3_2"
<MEAN> 25
 3.409168e+000 3.752647e-001 7.681228e+000 9.967134e+000 -7.279087e+000 -1.412155e+001 -6.930358e-002 6.212898e+000 3.807745e-001 -4.359939e+000 2.196802e+000 3.278172e+000 -1.973755e-001 -1.302372e-001 -4.531818e-001 -2.469500e-001 5.870327e-001 1.384241e+000 -2.734326e-001 -1.910722e-001 2.943980e-001 -2.017922e-001 -7.235423e-001 -4.098517e-002 -1.463132e+000
<VARIANCE> 25
 1.410182e+001 2.035677e+001 4.402082e+001 2.857655e+001 4.616189e+001 1.273513e+002 5.472167e+001 3.992471e+001 3.026189e+001 3.881710e+001 8.844865e+001 4.126072e+001 1.247644e+000 8.527923e-001 1.965716e+000 3.291871e+000 3.161500e+000 8.318002e+000 4.248410e+000 3.134126e+000 2.265765e+000 3.033502e+000 5.532102e+000 2.347510e+000 2.288674e+000
<GCONST> 1.034906e+002
~s "ST_e_4_1"
<MEAN> 25
 3.142502e+000 -6.666798e-002 7.222996e+000 4.045092e+000 -8.256278e+000 -1.781348e+001 9.338386e-001 2.916909e+000 -1.178343e+000 -2.194626e+000 8.091883e+000 8.379450e-001 -1.584640e-002 1.367050e-001 -1.476078e-001 3.013321e-002 1.562085e-001 7.005500e-001 3.002308e-002 -3.168587e-002 -1.839879e-001 -4.427779e-002 -3.810041e-001 -3.453396e-002 -8.532479e-001
<VARIANCE> 25
 1.393133e+001 1.898522e+001 1.296008e+001 1.979613e+001 2.068815e+001 6.171874e+001 3.917614e+001 2.905912e+001 2.772184e+001 2.790836e+001 5.597776e+001 2.858518e+001 9.069626e-001 1.045708e+000 8.986812e-001 1.300087e+000 1.249874e+000 3.148915e+000 2.182305e+000 1.710567e+000 1.874403e+000 1.998956e+000 2.343740e+000 1.799598e+000 1.564525e+000
<GCONST> 9.128838e+001
~s "ST_e_4_2"
<MEAN> 25
 2.881295e+000 6.271038e-001 1.170932e+001 7.583714e+000 -1.095028e+001 -2.004557e+001 -2.928766e-001 3.532925e+000 -4.785558e+000 -3.833235e+000 8.482828e+000 3.696339e+000 1.090624e-001 4.713133e-002 -2.927675e-001 -1.439734e-001 2.935999e-001 5.486240e-001 1.842625e-001 1.111751e-001 1.485858e-001 7.921915e-002 -3.439529e-001 -9.345732e-002 -8.289990e-001
<VARIANCE> 25
 1.753215e+001 1.757088e+001 2.178941e+001 2.478097e+001 2.007516e+001 6.397812e+001 4.321663e+001 4.237933e+001 3.017694e+001 2.828513e+001 4.630429e+001 2.153597e+001 1.026441e+000 1.051976e+000 1.076059e+000 1.717346e+000 1.478014e+000 3.051365e+000 2.234003e+000 1.867818e+000 1.962065e+000 1.630252e+000 1.971426e+000 1.356044e+000 1.366533e+000
<GCONST> 9.237804e+001
~s "ST_e_4_3"
<MEAN> 25
 2.824736e+000 -4.742086e+000 1.009864e-001 -2.979424e+000 7.402412e-001 -2.344471e+001 5.030659e+000 8.405789e+000 5.347347e+000 1.902159e+000 4.157122e+000 -1.971519e+000 -4.336973e-002 -1.140535e-001 -7.809366e-002 3.006475e-002 2.166095e-001 3.943842e-001 1.121878e-001 2.097484e-001 -3.630515e-001 -2.936988e-001 -2.487101e-001 -1.021581e-001 1.151928e-001
<VARIANCE> 25
 8.688962e+000 8.249640e+000 2.150590e+001 9.677366e+000 2.690003e+001 3.970100e+001 3.795668e+001 3.863227e+001 2.615588e+001 3.768358e+001 3.267408e+001 2.253144e+001 9.311222e-001 8.491986e-001 1.504884e+000 1.173843e+000 2.060121e+000 2.028148e+000 2.533189e+000 1.695980e+000 2.110731e+000 2.178404e+000 2.213809e+000 1.616037e+000 1.423622e+000
<GCONST> 8.969142e+001
~s "ST_r_2_1"
<MEAN> 25
 -2.121814e+000 1.650992e+000 -3.321258e+000 1.923461e-002 4.155441e+000 8.485386e+000 -7.148272e+000 -5.335371e+000 -1.030026e-001 2.699444e+000 7.027939e+000 2.210158e+000 6.876183e-001 -1.006039e-002 -1.002128e+000 -2.102531e-001 9.556448e-002 -1.360685e-001 -1.888558e-001 1.032038e-001 4.816199e-001 -6.894535e-001 1.256025e+000 8.516329e-001 1.075875e+000
<VARIANCE> 25
 3.352197e+001 2.037070e+001 3.468999e+001 2.004662e+001 3.188603e+001 2.196670e+002 3.570608e+001 6.737727e+001 3.930976e+001 3.344769e+001 5.013060e+001 3.033337e+001 5.940768e+000 1.702220e+000 4.122760e+000 2.085285e+000 4.279595e+000 7.972703e+000 3.984695e+000 3.493051e+000 3.994269e+000 4.704664e+000 4.558540e+000 2.842923e+000 1.884810e+000
<GCONST> 1.069234e+002
~s "ST_r_3_1"
<MEAN> 25
 3.553385e+000 -5.274163e+000 -7.057446e+000 -1.446709e+000 4.230948e+000 -1.635965e+001 -1.507611e-001 3.497902e+000 6.411510e+000 1.924436e+000 4.699826e+000 2.026390e+000 3.943205e-001 -6.081831e-002 -7.954993e-001 1.005264e-001 1.983399e-001 1.181496e-001 5.675409e-001 -1.148475e-001 2.250725e-001 -6.442983e-001 -1.806378e-001 4.245244e-001 -1.188345e-001
<VARIANCE> 25
 1.715676e+001 2.302605e+001 2.074822e+001 1.450166e+001 1.772050e+001 1.078288e+002 4.834274e+001 3.388058e+001 2.169724e+001 3.272033e+001 1.151806e+002 2.015735e+001 1.581734e+000 6.695357e-001 6.808220e-001 8.702904e-001 1.787873e+000 9.808306e-001 1.180861e+000 1.558390e+000 1.483003e+000 2.888522e+000 2.146355e+000 1.720584e+000 7.651557e-001
<GCONST> 9.010345e+001
~s "ST_r_4_1"
<MEAN> 25
 3.236482e+000 -1.217931e+000 -1.152942e+001 3.867685e+000 3.626138e+000 -7.324404e+000 -2.779530e+000 -2.802159e-001 7.923354e+000 -3.162763e+000 1.273434e+000 4.060565e+000 5.590335e-002 2.168399e-001 2.354266e-001 3.168401e-001 -5.763426e-001 2.887108e-001 -1.129703e-001 -9.708039e-002 -3.240094e-001 -2.656870e-001 -5.044762e-001 2.700756e-001 -4.389555e-001
<VARIANCE> 25
 1.269022e+001 1.534425e+001 3.428680e+001 3.896650e+001 2.930132e+001 1.023501e+002 4.418339e+001 5.300061e+001 2.819168e+001 3.711460e+001 7.181880e+001 4.913570e+001 1.743547e+000 1.684733e+000 3.301818e+000 2.553881e+000 2.060256e+000 7.488051e+000 5.125477e+000 3.026755e+000 2.989602e+000 4.341260e+000 3.804498e+000 2.108422e+000 2.048060e+000
<GCONST> 1.033522e+002
~s "ST_h_2_1"
<MEAN> 25
 -4.411903e+000 -2.379268e+000 -3.773162e+000 -9.014651e-001 5.202002e+000 1.032168e+001 -6.100799e+000 -1.376953e-001 3.213735e+000 2.813704e+000 4.262928e+000 1.305888e+000 -7.664756e-001 -7.187465e-001 -7.900264e-002 2.810354e-002 3.967678e-002 -7.947402e-003 1.682120e-001 -7.794064e-002 7.123917e-001 9.100877e-001 1.866630e-001 -2.742249e-001 -1.548031e-001
<VARIANCE> 25
 1.286025e+001 1.673895e+001 5.148919e+001 3.084072e+001 4.842510e+001 4.884043e+001 3.378370e+001 6.360302e+001 5.551783e+001 5.786370e+001 1.130673e+002 4.046838e+001 1.993864e+000 1.134326e+000 2.054796e+000 2.163992e+000 6.672681e+000 3.223708e+000 2.741932e+000 3.117405e+000 4.492055e+000 4.084777e+000 7.359864e+000 2.187281e+000 4.085934e+000
<GCONST> 1.052518e+002
~s "ST_h_3_1"
<MEAN> 25
 -1.181890e+001 -7.896404e+000 -5.655386e+000 -1.491493e+000 1.170373e+001 1.156446e+001 3.354044e+000 3.389166e+000 7.488387e+000 7.371904e+000 8.293860e+000 -8.914318e-001 5.543058e-001 5.953923e-001 -5.251228e-001 -6.441376e-001 1.210837e-001 -3.991277e-001 1.056003e-001 1.144846e-001 -3.000518e-001 -5.898318e-001 -6.922347e-002 -2.359717e-001 1.267341e+000
<VARIANCE> 25
 3.267522e+001 2.309223e+001 1.927956e+001 2.753788e+001 4.682964e+001 3.338952e+001 3.755644e+001 4.621378e+001 3.486901e+001 3.553471e+001 3.626391e+001 2.979235e+001 3.647503e+000 3.515242e+000 1.926029e+000 4.018147e+000 2.574512e+000 3.236874e+000 3.625212e+000 4.398104e+000 2.622341e+000 3.821625e+000 2.798232e+000 2.784561e+000 2.200780e+000
<GCONST> 1.024021e+002
~s "ST_h_4_1"
<MEAN> 25
 1.171204e+000 8.572937e-001 -1.595301e+001 -1.584595e+001 1.677832e+001 4.406900e+000 1.704993e+000 -6.107301e-001 3.406148e+000 -1.352792e+000 1.180844e+001 -7.417269e+000 2.260261e-001 1.206196e-001 -2.325182e-001 1.244345e-002 1.346917e-001 -1.522888e-001 1.815924e-001 2.701588e-002 -1.294955e-001 -4.129840e-002 -3.150582e-002 -2.420257e-001 -4.369853e-001
<VARIANCE> 25
 1.698437e+001 7.319234e+000 2.733742e+001 3.242374e+001 3.983693e+001 1.639685e+001 2.741330e+001 3.590881e+001 4.838178e+001 2.965254e+001 3.725811e+001 3.353507e+001 8.944866e-001 5.541906e-001 1.061879e+000 1.446889e+000 1.300927e+000 1.092873e+000 1.449799e+000 1.656943e+000 1.582782e+000 1.663804e+000 1.801120e+000 1.502295e+000 7.458495e-001
<GCONST> 8.795635e+001
~s "ST_u_2_1"
<MEAN> 25
 1.384675e+000 3.423181e+000 -5.405490e-001 -8.532522e-001 1.271021e+000 -5.865182e-001 -7.504982e+000 -1.000802e+001 -1.686978e+000 3.132958e+000 1.111581e+001 2.086779e+000 2.309615e+000 2.048695e+000 -1.343265e+000 -1.080484e+000 -4.594772e-001 -1.121528e-001 2.482802e-001 -2.662648e+000 -2.743310e+000 -5.797322e-002 3.451030e+000 -9.704065e-002 1.820198e+000
<VARIANCE> 25
 8.445342e+001 3.928782e+001 3.048670e+001 5.628000e+001 4.603440e+001 5.412795e+001 8.614134e+001 9.247290e+001 9.329470e+001 5.460764e+001 8.954886e+001 4.724775e+001 8.222483e+000 2.220421e+000 2.615752e+000 4.596168e+000 6.279024e+000 9.463309e+000 9.001180e+000 6.520491e+000 1.121729e+001 6.787922e+000 6.979283e+000 4.915814e+000 7.283319e+000
<GCONST> 1.185933e+002
~s "ST_u_3_1"
<MEAN> 25
 9.762065e+000 1.198730e+001 -3.777242e+000 -9.621330e+000 -1.063816e+001 7.081432e+000 7.964993e-001 -1.087122e+001 -9.120317e+000 -2.489928e+000 1.145394e+001 2.657627e+000 4.889534e-002 3.773127e-001 8.555163e-002 -6.939157e-001 -3.693893e-001 4.364320e-001 5.990039e-001 4.653299e-001 9.917319e-002 -2.077280e-001 -4.718584e-001 -8.241529e-002 -5.135118e-001
<VARIANCE> 25
 2.117566e+001 1.974954e+001 2.125872e+001 3.753585e+001 5.571880e+001 4.242347e+001 2.573732e+001 5.095385e+001 6.635607e+001 5.692545e+001 8.908352e+001 3.849680e+001 7.493664e-001 1.181167e+000 1.200613e+000 2.431089e+000 2.394863e+000 2.746145e+000 2.478883e+000 3.123920e+000 3.150782e+000 2.665724e+000 3.974086e+000 1.811682e+000 9.287237e-001
<GCONST> 9.889658e+001
~s "ST_u_4_1"
<MEAN> 25
 6.390789e+000 6.516604e+000 -1.857223e+000 -6.751548e+000 -1.691025e+000 6.350732e+000 -2.468271e+000 -1.060668e+001 -5.948220e+000 1.585103e+000 1.331023e+001 7.843173e-001 -9.186860e-001 -1.430457e+000 2.222345e-001 1.307806e+000 1.367433e+000 -3.967161e-001 -9.007881e-001 5.194563e-001 1.105220e+000 7.606888e-001 -5.749431e-001 -4.149909e-001 -2.849485e-001
<VARIANCE> 25
 1.917743e+001 2.121696e+001 3.422361e+001 6.333177e+001 4.491806e+001 5.987691e+001 5.781315e+001 6.188963e+001 3.756382e+001 6.086463e+001 1.211582e+002 5.929079e+001 9.122145e-001 1.381280e+000 1.791820e+000 2.224695e+000 2.276531e+000 4.425324e+000 2.582175e+000 5.104071e+000 3.526716e+000 4.434247e+000 6.878604e+000 3.861227e+000 2.353031e+000
<GCONST> 1.057182e+002
~s "ST_k_2_1"
<MEAN> 25
 -3.963227e+000 -3.559786e+000 -3.127703e+000 -1.853929e+000 3.945225e+000 1.095587e+001 -7.624295e+000 4.764784e+000 4.040626e+000 5.074592e+000 5.966267e-002 -5.643509e-001 -6.555676e-001 -9.340488e-001 -3.530293e+000 -1.343594e+000 2.648589e+000 -5.558185e-001 -3.696672e+000 2.475631e+000 1.949502e+000 1.821979e+000 3.707135e+000 -1.306005e+000 4.566306e+000
<VARIANCE> 25
 8.266710e+000 1.567157e+001 6.134870e+001 3.805574e+001 6.546739e+001 4.829618e+001 7.957648e+001 3.802177e+001 4.698527e+001 4.331538e+001 6.511435e+001 3.378858e+001 1.261297e+000 2.713600e+000 4.028738e+000 3.051695e+000 4.971272e+000 6.933557e+000 6.026415e+000 3.929191e+000 3.780392e+000 4.247054e+000 3.434616e+000 4.202167e+000 4.379701e+000
<GCONST> 1.073218e+002
~s "ST_k_3_1"
<MEAN> 25
 -1.944241e+000 -9.123284e-001 -1.065170e+001 -2.939102e+000 8.190409e+000 -4.386205e+000 -1.344793e+001 9.175470e+000 5.252571e+000 1.868801e+000 1.004085e+001 -4.590866e+000 1.943179e+000 1.094064e+000 1.328251e-002 6.098121e-002 3.570232e-001 -5.062026e+000 2.232141e+000 -6.779987e-001 -9.244311e-001 -2.938434e+000 1.049942e+000 -5.454955e-001 2.321566e+000
<VARIANCE> 25
 3.556001e+001 3.021053e+001 3.347571e+001 2.782732e+001 3.334908e+001 1.665965e+002 5.393063e+001 7.826512e+001 3.680067e+001 7.334879e+001 4.114469e+001 2.855101e+001 2.756160e+000 3.069684e+000 5.136014e+000 2.791579e+000 3.150045e+000 7.739012e+000 5.807693e+000 4.409269e+000 2.966169e+000 4.698472e+000 4.585812e+000 3.112983e+000 3.501057e+000
<GCONST> 1.094841e+002
~s "ST_k_4_1"
<MEAN> 25
 7.794988e+000 1.763934e+000 -7.409207e+000 -1.962948e+000 5.455310e+000 -9.157612e+000 -7.857230e-001 -8.716203e+000 9.340100e+000 1.801109e+000 1.441134e+001 -7.895085e+000 3.536467e-002 1.281340e-001 3.692110e-002 1.984492e-002 5.062916e-002 4.844286e-001 5.707551e-001 -4.026418e-001 1.303929e-001 1.452060e-001 -5.356660e-001 -3.271093e-002 -3.477711e-001
<VARIANCE> 25
 1.335267e+001 2.137729e+001 1.806755e+001 2.784208e+001 2.566627e+001 6.031715e+001 2.848086e+001 7.106591e+001 3.300591e+001 6.047965e+001 4.476131e+001 1.492234e+001 5.512359e-001 1.027627e+000 1.083444e+000 1.519051e+000 1.199113e+000 1.865515e+000 2.218294e+000 2.395813e+000 1.967621e+000 2.495756e+000 2.060976e+000 1.291810e+000 1.338737e+000
<GCONST> 9.215031e+001
~s "ST_a_2_1"
<MEAN> 25
 -1.463215e+000 -1.077421e-001 -1.006616e+001 -9.485497e+000 1.289366e+001 7.791654e-001 3.408443e+000 2.219889e+000 5.284716e+000 8.051538e-001 3.188377e+000 -5.378455e+000 5.553734e-001 -1.800293e-001 -2.190444e+000 -2.100719e+000 2.347851e+000 -1.344122e+000 1.060847e-001 5.843369e-001 4.647936e-001 -2.286417e-001 1.270056e+000 -1.006530e+000 3.624695e+000
<VARIANCE> 25
 2.454617e+001 2.378706e+001 9.334566e+001 7.470139e+001 9.666321e+001 5.510092e+001 3.761227e+001 6.413016e+001 4.389976e+001 4.435944e+001 9.096124e+001 3.636765e+001 2.380487e+000 3.159533e+000 7.521406e+000 8.179815e+000 9.626929e+000 3.330249e+000 4.571054e+000 5.529198e+000 5.755977e+000 3.491160e+000 7.797473e+000 3.032349e+000 8.732374e+000
<GCONST> 1.143786e+002
~s "ST_a_2_2"
<MEAN> 25
 6.171988e+000 -5.109180e+000 -9.276898e+000 -1.126394e+001 8.607202e+000 -7.450287e+000 6.330560e+000 -3.986175e-002 6.149088e-001 4.959111e+000 1.237468e+001 -4.823347e+000 -1.419777e+000 -6.199284e-001 -2.585223e+000 -2.765332e+000 4.827790e+000 -1.828655e+000 4.509471e-001 2.305655e+000 1.833351e+000 5.687337e-001 -1.335055e-001 -1.826438e+000 2.842657e+000
<VARIANCE> 25
 1.660649e+001 1.106536e+001 5.672656e+001 6.353236e+001 8.247322e+001 5.460612e+001 5.752488e+001 4.128943e+001 6.587218e+001 5.379335e+001 4.042089e+001 3.825014e+001 2.141786e+000 1.704784e+000 2.710687e+000 7.889760e+000 7.064552e+000 5.516031e+000 8.551291e+000 5.175885e+000 8.195523e+000 4.083482e+000 5.624230e+000 4.589132e+000 3.167361e+000
<GCONST> 1.107770e+002
~s "ST_a_2_3"
<MEAN> 25
 1.016651e+000 -3.383496e+000 -6.104053e+000 -3.183289e+000 6.218660e+000 -1.898521e+001 -2.140412e+000 5.754062e+000 7.578579e+000 3.015886e-001 8.930041e+000 -1.934051e+000 2.022498e-001 -7.919978e-001 -8.574248e-001 -1.590611e+000 9.644401e-001 3.749850e-001 1.961152e+000 5.009170e-002 1.200763e+000 5.722829e-001 -1.138465e-001 -8.230515e-001 2.858670e-001
<VARIANCE> 25
 8.488352e+000 8.492440e+000 4.317773e+001 3.516930e+001 5.561003e+001 2.738038e+001 3.869673e+001 5.863597e+001 3.835253e+001 5.113111e+001 2.487701e+001 2.053139e+001 1.142842e+000 4.569437e-001 1.281224e+000 9.595991e-001 1.057851e+000 2.543052e+000 2.087692e+000 1.660262e+000 3.916435e+000 1.871068e+000 2.204094e+000 2.848772e+000 7.736812e-001
<GCONST> 9.178454e+001
~s "ST_a_3_1"
<MEAN> 25
 1.159800e+000 -1.524118e+000 -1.597997e+001 -1.236570e+001 1.584126e+001 -7.476863e-001 3.108371e+000 4.204264e+000 1.422993e+000 -7.238566e-001 9.029210e+000 -7.312251e+000 3.057101e-001 1.368182e-001 2.882859e-002 5.129503e-001 -2.446230e-001 -1.325444e-001 1.153597e-001 -1.532324e-001 -4.554130e-001 7.944603e-003 -9.216635e-002 -2.013329e-001 -3.972076e-001
<VARIANCE> 25
 1.348025e+001 1.185597e+001 1.268896e+001 2.225028e+001 1.536248e+001 2.213656e+001 2.761239e+001 2.105012e+001 3.697513e+001 3.369464e+001 1.392344e+001 3.905083e+001 7.218286e-001 7.678972e-001 6.777234e-001 9.787643e-001 9.111694e-001 1.387904e+000 8.967248e-001 1.346632e+000 1.705820e+000 1.402701e+000 1.320217e+000 1.320826e+000 7.642592e-001
<GCONST> 8.286690e+001
~s "ST_a_3_2"
<MEAN> 25
 3.837060e+000 -5.270700e+000 -1.057398e+001 -6.422000e+000 9.285436e+000 -1.297631e+001 6.556948e+000 5.159943e-001 8.149865e+000 5.043433e+000 4.808693e+000 -8.218776e+000 8.191626e-003 1.611907e-001 -4.888017e-001 2.887077e-001 4.200768e-001 -8.451575e-002 2.527761e-001 1.789073e-001 -3.651220e-001 -1.971208e-001 -4.989673e-001 2.439317e-002 -5.731418e-001
<VARIANCE> 25
 1.895710e+001 1.108146e+001 2.061602e+001 1.711747e+001 2.431956e+001 3.412928e+001 2.736984e+001 3.768791e+001 4.395303e+001 3.302227e+001 4.322979e+001 3.864211e+001 7.270210e-001 7.624388e-001 1.060042e+000 1.271097e+000 1.390976e+000 1.855818e+000 1.452491e+000 1.612184e+000 1.703511e+000 1.389345e+000 1.941017e+000 1.394837e+000 6.224324e-001
<GCONST> 8.841269e+001
~s "ST_a_3_3"
<MEAN> 25
 3.691537e+000 -6.365856e+000 -1.337362e+001 -8.733631e+000 1.530625e+001 -1.538245e+001 1.047206e+001 3.953822e+000 4.766836e+000 1.481006e+000 6.334358e+000 -6.642635e+000 1.030091e-001 2.308494e-001 -6.372038e-002 3.717176e-001 -9.687609e-002 -4.936105e-002 5.885810e-002 -6.854178e-002 -1.068151e-001 -6.127027e-002 -5.021643e-001 -4.389795e-002 -5.164497e-001
<VARIANCE> 25
 8.628308e+000 1.468428e+001 8.482130e+000 1.106618e+001 1.125822e+001 1.712467e+001 2.799495e+001 3.899242e+001 2.839200e+001 1.905470e+001 3.505064e+001 1.146562e+001 7.028466e-001 5.305848e-001 5.995398e-001 8.790759e-001 1.070379e+000 9.196874e-001 8.982120e-001 1.756566e+000 1.508221e+000 1.294156e+000 2.013876e+000 8.721673e-001 4.629847e-001
<GCONST> 7.915263e+001
~s "ST_a_3_4"
<MEAN> 25
 1.637643e+000 -4.274004e+000 -1.304158e+001 -1.392712e+001 1.596788e+001 -7.173913e+000 5.395518e+000 1.764093e+000 4.648077e+000 5.621269e+000 4.743279e+000 -5.828789e+000 1.935369e-001 2.600071e-001 -4.959700e-001 1.672239e-001 -5.895345e-002 1.980114e-001 3.763369e-001 -2.186853e-001 -4.003368e-001 -6.323506e-002 2.072095e-001 1.269185e-001 -4.098535e-001
<VARIANCE> 25
 1.664989e+001 8.873876e+000 1.657819e+001 1.879066e+001 1.110750e+001 3.808729e+001 4.477525e+001 3.091235e+001 4.021565e+001 3.659992e+001 2.301203e+001 1.977982e+001 8.512424e-001 5.891655e-001 7.810488e-001 6.914836e-001 1.180904e+000 1.217090e+000 1.093962e+000 1.460519e+000 2.267624e+000 1.909610e+000 1.799506e+000 1.601333e+000 6.250077e-001
<GCONST> 8.495837e+001
~s "ST_a_3_5"
<MEAN> 25
 8.355536e-001 -3.992587e+000 -1.540675e+001 -7.759029e+000 1.446871e+001 -1.256167e+001 4.041789e+000 8.621638e+000 7.708860e-001 -1.277444e+000 6.939939e+000 -8.192047e+000 2.152113e-001 -1.229406e-002 1.691149e-001 7.132091e-003 -1.909104e-001 2.590742e-001 2.217680e-001 -4.837800e-001 1.071520e-001 7.724407e-001 -4.890329e-001 -1.649656e-001 -3.314374e-001
<VARIANCE> 25
 1.311044e+001 4.961583e+000 1.125738e+001 1.622319e+001 1.123209e+001 1.970918e+001 1.887352e+001 2.089164e+001 2.103073e+001 3.678068e+001 2.970055e+001 2.002840e+001 6.598817e-001 4.286789e-001 8.173278e-001 6.725742e-001 7.609610e-001 1.275638e+000 1.345042e+000 1.223148e+000 1.315207e+000 1.262360e+000 1.144893e+000 9.007066e-001 1.908317e-001
<GCONST> 7.723415e+001
~s "ST_a_3_6"
<MEAN> 25
 1.651165e+000 -4.390919e+000 -1.815113e+001 -1.171313e+001 1.728188e+001 -6.205001e+000 8.057923e+000 5.905058e+000 2.195800e+000 5.385209e+000 6.950591e+000 -1.027676e+001 -1.239399e-001 -1.478907e-001 2.413281e-001 4.833297e-001 2.795500e-001 -1.171290e+000 -2.704257e-001 2.714379e-001 5.136844e-001 5.264185e-002 -8.792092e-001 -2.164448e-001 -1.335521e-001
<VARIANCE> 25
 1.389607e+001 8.661341e+000 1.987786e+001 1.573911e+001 1.882947e+001 3.184336e+001 3.130719e+001 2.043700e+001 2.158324e+001 1.899284e+001 3.501316e+001 2.508284e+001 7.662435e-001 6.200613e-001 1.008650e+000 1.340560e+000 1.453890e+000 2.474487e+000 1.970788e+000 1.821128e+000 1.475194e+000 1.531649e+000 1.404911e+000 1.873643e+000 5.778823e-001
<GCONST> 8.548477e+001
~s "ST_a_4_1"
<MEAN> 25
 3.141763e+000 1.091266e-001 -8.596931e+000 6.581666e-001 9.107318e+000 4.082205e-001 8.128495e-001 1.660163e+000 3.036493e+000 6.841921e-001 -3.602319e+000 -4.045887e+000 -4.398056e-001 -1.537562e-001 1.262959e+000 6.115001e-001 -9.953758e-001 1.605283e+000 -8.353303e-001 1.166610e-002 7.363833e-002 1.738724e-002 -8.800547e-001 5.758837e-001 -1.787751e+000
<VARIANCE> 25
 1.146606e+001 2.029935e+001 4.861625e+001 2.868638e+001 4.346014e+001 1.096103e+002 5.995595e+001 5.007130e+001 4.865951e+001 4.967349e+001 4.703178e+001 4.092753e+001 9.471142e-001 1.515994e+000 1.515410e+000 2.515781e+000 2.517489e+000 4.585739e+000 3.336420e+000 3.275930e+000 3.559126e+000 3.392597e+000 3.186893e+000 2.754912e+000 1.187488e+000
<GCONST> 1.018392e+002
~s "ST_a_4_2"
<MEAN> 25
 5.668278e+000 -2.182012e+000 -1.237037e+001 -8.830384e+000 1.181499e+001 -1.011503e+001 3.310958e+000 3.487777e+000 9.113556e-001 6.144110e+000 2.210006e+000 -6.218825e+000 1.548153e+000 9.506879e-001 1.525835e+000 9.592554e-001 -1.931802e+000 9.486830e-001 -1.174785e+000 -4.360793e-001 -9.137338e-001 1.259284e-001 -1.013618e+000 8.449886e-001 -2.969970e+000
<VARIANCE> 25
 2.532885e+001 1.504060e+001 3.011565e+001 2.768480e+001 3.362339e+001 5.416817e+001 5.396841e+001 3.807426e+001 3.843151e+001 4.026973e+001 3.012167e+001 2.723489e+001 8.374448e-001 1.266347e+000 1.953036e+000 1.914672e+000 2.222831e+000 4.901055e+000 3.433007e+000 2.424337e+000 3.063691e+000 3.666003e+000 3.517983e+000 2.451460e+000 2.227198e+000
<GCONST> 9.906396e+001
~s "ST_n_2_1"
<MEAN> 25
 1.033212e+001 -1.939329e+000 -6.345530e-001 1.099428e+000 -2.989698e+000 -8.856432e+000 2.138886e+000 -6.587234e-001 -5.753137e+000 4.438146e+000 9.107959e-001 -6.126831e+000 1.606472e+000 9.567286e-001 2.451492e+000 3.579750e+000 -5.196456e+000 3.029831e+000 6.442153e-001 -3.148906e+000 -2.473571e+000 -9.307417e-001 -8.522037e-001 1.036016e+000 -2.487617e+000
<VARIANCE> 25
 1.229222e+001 1.485809e+001 4.263815e+001 4.496364e+001 9.010387e+001 5.322716e+001 3.654078e+001 6.526923e+001 4.081993e+001 3.903674e+001 4.763488e+001 3.718149e+001 1.039820e+000 1.200937e+000 2.796599e+000 2.058867e+000 3.766432e+000 3.925599e+000 4.078364e+000 3.189395e+000 5.326116e+000 4.345190e+000 2.528683e+000 2.972980e+000 1.204403e+000
<GCONST> 1.023954e+002
~s "ST_n_3_1"
<MEAN> 25
 1.206239e+001 3.823374e-001 4.814025e+000 8.976778e+000 -1.712810e+001 -1.366301e+000 3.983523e+000 -7.968230e+000 -9.141321e+000 4.452286e-001 -1.856404e+000 -1.296416e-001 -2.634755e-001 4.864293e-001 5.262199e-001 7.660022e-002 -2.149512e-001 5.169833e-001 -6.077063e-001 8.377082e-002 2.430137e-001 -3.947354e-001 -3.285022e-001 3.882480e-001 -7.431452e-001
<VARIANCE> 25
 5.042471e+000 2.120810e+001 1.736463e+001 2.756758e+001 3.301059e+001 2.751652e+001 3.703717e+001 5.088257e+001 3.224482e+001 5.125428e+001 4.730329e+001 3.568459e+001 5.275606e-001 9.220970e-001 1.013910e+000 2.357328e+000 3.939282e+000 2.073887e+000 3.505630e+000 3.963310e+000 2.744987e+000 2.234944e+000 2.208902e+000 2.634324e+000 3.859514e-001
<GCONST> 9.349049e+001
~s "ST_n_4_1"
<MEAN> 25
 4.291830e+000 2.125814e+000 5.903637e+000 6.761815e+000 -3.429010e+000 4.376660e+000 -5.018005e+000 -1.327725e+000 -6.769183e-002 1.333849e+000 -5.638223e+000 2.392557e+000 -1.224428e+000 -2.996587e-001 -4.164001e-002 -4.989939e-001 1.310556e+000 9.292460e-001 -9.984133e-002 7.166818e-001 8.159744e-001 6.376912e-002 -3.123416e-001 -3.674026e-002 -6.093829e-001
<VARIANCE> 25
 2.202471e+001 1.991712e+001 2.117194e+001 2.219647e+001 5.948603e+001 5.489373e+001 4.396058e+001 3.495189e+001 4.612589e+001 2.926126e+001 3.540767e+001 2.485878e+001 6.079146e-001 1.252391e+000 1.704999e+000 2.624707e+000 4.156928e+000 3.719659e+000 4.936273e+000 3.597684e+000 3.852740e+000 3.707552e+000 2.547547e+000 2.306980e+000 7.699208e-001
<GCONST> 9.860940e+001
~s "ST_d_2_1"
<MEAN> 25
 3.195317e+000 4.642883e+000 7.919896e+000 5.980111e+000 -1.683347e+000 6.007843e+000 -4.582110e+000 -4.138589e-001 -2.458238e+000 -2.339186e+000 -7.552011e+000 1.433698e+000 -4.842028e-001 -1.983043e-001 7.008784e-001 1.318571e-001 4.857688e-001 4.677890e-001 8.190879e-002 6.478544e-001 9.308519e-001 -1.839411e-001 6.646211e-002 4.578693e-001 3.715973e-001
<VARIANCE> 25
 2.960758e+001 2.071787e+001 1.681675e+001 1.607996e+001 1.821256e+001 4.236884e+001 4.101781e+001 4.033982e+001 3.845869e+001 2.284034e+001 2.961257e+001 1.892941e+001 2.247992e+000 3.099346e+000 2.066371e+000 2.881300e+000 2.955181e+000 3.628157e+000 3.794486e+000 4.219800e+000 5.076404e+000 3.949621e+000 3.875437e+000 2.270946e+000 4.426553e+000
<GCONST> 1.006644e+002
~s "ST_d_3_1"
<MEAN> 25
 -6.232895e-001 -3.219535e+000 9.573476e+000 9.840490e-001 -2.005387e+000 -1.353067e+000 -7.604347e+000 3.664156e+000 5.550683e+000 -1.037411e+000 -9.105904e-001 3.960173e+000 -9.267270e-002 -1.345898e+000 -5.172796e-001 -6.795803e-001 -4.793466e-001 -4.366475e+000 -1.263465e+000 -6.811706e-001 1.316082e+000 9.482283e-001 2.010395e+000 -3.203782e-001 4.814508e+000
<VARIANCE> 25
 2.430053e+001 2.792917e+001 3.570385e+001 3.417532e+001 4.125716e+001 1.222750e+002 5.756155e+001 4.732480e+001 6.317031e+001 5.037175e+001 4.270404e+001 3.572319e+001 4.350070e+000 4.461823e+000 5.250657e+000 5.564537e+000 5.916430e+000 7.140440e+000 8.504570e+000 6.362199e+000 1.063769e+001 4.987763e+000 5.245190e+000 5.241220e+000 5.819430e+000
<GCONST> 1.145267e+002
~s "ST_d_4_1"
<MEAN> 25
 6.316481e-001 -3.203229e+000 3.627161e+000 -1.453887e+000 -2.109486e+000 -1.263924e+001 -3.810814e+000 -2.790234e+000 7.647897e+000 5.477031e+000 1.066513e+000 -1.211435e+000 1.576198e-001 1.396489e-001 -6.612915e-001 -6.094032e-002 1.153938e-001 -1.275884e-003 3.686946e-001 -1.190790e-001 2.737778e-001 3.135664e-001 3.549441e-001 -1.998336e-001 2.253243e-001
<VARIANCE> 25
 2.007400e+001 1.528035e+001 2.622504e+001 2.565271e+001 2.031766e+001 6.915284e+001 4.264431e+001 4.441822e+001 5.427623e+001 3.875008e+001 3.193328e+001 2.269377e+001 1.097216e+000 6.608887e-001 1.737127e+000 8.367639e-001 1.201273e+000 2.078137e+000 4.413467e+000 2.120746e+000 2.250989e+000 1.698896e+000 1.704570e+000 1.210751e+000 2.105119e+000
<GCONST> 9.322977e+001
~s "ST_@_2_1"
<MEAN> 25
 3.084010e+000 3.069560e+000 7.871235e-001 2.057573e+000 1.769269e+000 3.246063e+000 -1.589080e+000 -4.219708e+000 6.311949e+000 1.733174e+000 -6.638870e-001 -2.587604e+000 -7.646602e-001 -8.374822e-001 2.651446e-001 -3.801293e-001 -5.637413e-002 8.873620e-001 -1.509396e-002 1.691500e+000 5.239167e-001 9.878148e-001 -3.391133e-001 4.797692e-001 -4.893816e-001
<VARIANCE> 25
 2.681021e+001 2.659377e+001 2.440009e+001 2.130299e+001 2.887831e+001 5.229126e+001 2.728780e+001 5.856645e+001 6.231633e+001 4.574812e+001 4.770265e+001 3.207129e+001 2.160427e+000 2.180316e+000 6.714320e+000 2.976007e+000 5.852181e+000 6.539168e+000 2.905387e+000 4.904406e+000 7.130443e+000 3.043186e+000 6.300813e+000 4.357287e+000 7.265215e+000
<GCONST> 1.079735e+002
~s "ST_@_3_1"
<MEAN> 25
 1.674000e-001 -1.451406e+000 -3.804364e+000 -4.160652e+000 5.291464e+000 -6.491007e-001 1.615560e+000 7.792914e-001 6.494636e+000 6.718903e+000 2.226910e+000 -2.972468e+000 7.543504e-001 -5.274827e-001 -2.409108e+000 -2.096486e+000 2.175562e+000 -3.232188e+000 6.039277e-001 7.775928e-002 8.664024e-001 1.491825e+000 2.081533e+000 -1.670673e+000 3.591538e+000
<VARIANCE> 25
 2.897582e+001 1.395488e+001 4.937294e+001 4.002916e+001 6.909447e+001 9.647641e+001 5.719413e+001 4.631992e+001 4.739786e+001 4.120489e+001 5.515118e+001 4.591955e+001 4.931147e+000 1.969904e+000 4.497911e+000 2.101377e+000 8.008039e+000 8.287490e+000 4.304384e+000 6.842666e+000 1.022128e+001 4.226649e+000 6.173218e+000 6.157603e+000 7.736382e+000
<GCONST> 1.131866e+002
~s "ST_@_4_1"
<MEAN> 25
 2.423530e+000 -6.708440e-001 -4.532244e+000 -6.060489e+000 5.623655e+000 -9.397608e+000 1.572846e+000 -3.982091e+000 8.199067e+000 7.079559e+000 3.121020e+000 -6.232070e+000 3.685914e-001 -2.836359e-001 3.426380e-001 5.606859e-001 -7.159733e-001 1.511086e-001 -3.868604e-001 8.471244e-002 -1.161514e+000 -5.272956e-001 -9.245416e-002 2.321272e-001 -1.016532e-001
<VARIANCE> 25
 1.924509e+001 2.929088e+001 5.243667e+001 4.845861e+001 6.451012e+001 7.336349e+001 5.557261e+001 4.648338e+001 5.218732e+001 3.543706e+001 5.697290e+001 4.100940e+001 2.014773e+000 1.409562e+000 2.301619e+000 2.529291e+000 2.730043e+000 4.425911e+000 2.945682e+000 3.239379e+000 4.187891e+000 3.343393e+000 3.128007e+000 2.886257e+000 3.311707e+000
<GCONST> 1.053096e+002
~s "ST_g_2_1"
<MEAN> 25
 -7.224966e-001 2.251304e+000 6.961292e+000 4.895522e+000 -2.623637e+000 7.781396e+000 -1.020812e+000 -5.792311e-001 -2.095737e+000 -1.321065e+000 -7.745265e+000 2.436619e+000 1.063678e+000 1.130563e+000 1.356709e+000 1.008253e+000 1.494459e-001 -5.285483e-002 -5.305532e-001 -3.819956e-001 -4.621238e-001 -2.376075e-001 -2.061217e-001 5.818957e-002 5.133598e-001
<VARIANCE> 25
 1.575497e+001 1.879488e+001 2.190342e+001 1.439591e+001 1.489556e+001 3.196880e+001 1.724852e+001 2.236558e+001 2.991426e+001 1.726535e+001 2.577419e+001 1.707810e+001 1.718357e+000 2.856184e+000 2.614926e+000 2.178630e+000 1.967373e+000 3.557124e+000 2.627730e+000 2.563390e+000 2.784463e+000 1.913057e+000 2.298333e+000 2.236320e+000 6.687143e-001
<GCONST> 9.193780e+001
~s "ST_g_3_1"
<MEAN> 25
 5.523407e+000 8.258491e+000 1.217966e+001 6.117905e+000 -3.752864e+000 6.147552e+000 -3.765727e+000 -1.683406e+000 -4.937121e+000 -1.429756e+000 -6.146162e+000 2.743484e+000 -5.705301e-001 -3.748602e-001 1.303011e-001 4.569398e-002 4.020594e-001 2.360040e-001 -3.943573e-001 1.536338e-001 1.823433e-001 4.260948e-001 2.208646e-001 8.664326e-002 8.502233e-001
<VARIANCE> 25
 1.475912e+001 1.026289e+001 1.124764e+001 8.810436e+000 2.731056e+001 2.845366e+001 2.158486e+001 2.648608e+001 2.997314e+001 2.424413e+001 3.828169e+001 2.427157e+001 3.996438e+000 2.924341e+000 1.818389e+000 1.314350e+000 3.515841e+000 2.921209e+000 2.659050e+000 3.582979e+000 3.937026e+000 4.358664e+000 3.428257e+000 2.373151e+000 2.334592e+000
<GCONST> 9.569024e+001
~s "ST_g_4_1"
<MEAN> 25
 -7.520774e+000 1.858679e+000 9.506280e+000 5.452542e+000 -5.414036e+000 -3.646762e-001 -7.600963e+000 -1.120415e+000 -7.326337e-001 4.630345e+000 -1.971453e+000 1.843368e+000 -4.344975e-001 -2.101763e-001 -8.973648e-002 6.059593e-002 -8.190907e-001 -3.627118e+000 -4.808625e-001 1.450941e-001 1.109452e-001 1.011324e-001 2.053528e+000 1.603608e-002 3.445823e+000
<VARIANCE> 25
 3.623554e+001 2.805899e+001 4.092706e+001 3.277105e+001 3.921964e+001 1.187097e+002 5.186337e+001 4.075585e+001 4.200430e+001 4.420166e+001 4.786358e+001 3.795898e+001 9.695560e+000 5.395473e+000 5.193302e+000 4.231163e+000 4.151114e+000 5.865646e+000 4.199103e+000 4.805781e+000 7.092195e+000 1.041284e+001 4.293251e+000 4.366570e+000 5.187512e+000
<GCONST> 1.133296e+002
~s "ST_t_2_1"
<MEAN> 25
 4.380355e+000 4.670599e+000 -8.525068e-001 -2.110394e+000 3.924385e+000 -1.208885e+000 -3.128235e+000 1.650539e+000 3.465199e-001 1.569854e-001 -5.330127e+000 -4.787884e+000 -1.952929e-001 -4.268372e-001 1.300978e+000 1.431819e+000 -1.470432e+000 2.561830e+000 -6.581910e-001 -3.211997e-001 -1.406529e-001 -1.392651e+000 -1.779291e+000 6.415377e-001 -2.805327e+000
<VARIANCE> 25
 1.924353e+001 1.914428e+001 7.253986e+001 8.099403e+001 7.174862e+001 4.898944e+001 4.233460e+001 3.484152e+001 4.115413e+001 7.481339e+001 3.630218e+001 3.855684e+001 1.360189e+000 1.382240e+000 1.666259e+000 2.508937e+000 5.737625e+000 5.489506e+000 4.463044e+000 3.982254e+000 4.872806e+000 5.669273e+000 4.142636e+000 3.715749e+000 2.871530e+000
<GCONST> 1.067690e+002
~s "ST_t_3_1"
<MEAN> 25
 1.090395e+000 1.211883e+000 2.110019e+000 1.034093e+000 -1.497806e+000 6.848717e+000 -3.537252e+000 -4.764842e-001 6.438177e-001 -1.013526e+000 -8.724780e+000 -1.755601e+000 -1.197070e+000 -9.483649e-001 -2.201556e-002 -2.013014e-001 -6.799186e-001 1.214905e+000 4.663348e-001 -8.615232e-002 2.796571e-001 4.246990e-001 1.892554e-001 4.171098e-001 -8.619238e-001
<VARIANCE> 25
 1.145018e+001 1.396243e+001 5.281897e+001 3.914155e+001 5.097461e+001 2.829865e+001 2.170399e+001 2.869419e+001 3.248854e+001 4.323803e+001 2.380358e+001 2.948393e+001 7.839969e-001 1.056925e+000 1.402567e+000 1.792858e+000 2.871679e+000 2.973039e+000 2.039088e+000 2.747952e+000 2.843288e+000 2.406324e+000 1.463889e+000 2.477489e+000 6.012724e-001
<GCONST> 9.346964e+001
~s "ST_t_4_1"
<MEAN> 25
 -3.272944e+000 -1.873894e+000 2.178397e+000 3.309057e-001 -2.456513e+000 9.387809e+000 -1.045993e+000 -1.176632e-001 8.754793e-001 3.989619e-001 -7.397913e+000 8.116565e-001 -8.720343e-001 -2.768096e-001 9.433863e-002 -5.458878e-002 4.191506e-001 -6.498632e-001 1.810456e-001 1.388005e-001 5.164321e-001 2.644821e-001 7.887114e-001 6.150879e-001 1.027726e+000
<VARIANCE> 25
 2.899028e+000 3.931188e+000 1.676764e+001 1.413799e+001 1.534975e+001 1.878220e+001 1.594765e+001 1.612171e+001 2.629898e+001 2.409441e+001 1.885439e+001 1.601045e+001 1.019250e+000 7.021993e-001 8.942286e-001 1.969133e+000 2.853407e+000 3.585305e+000 2.924349e+000 3.082827e+000 2.843761e+000 3.042163e+000 3.217471e+000 2.174263e+000 4.519530e+000
<GCONST> 8.759054e+001
~s "ST_sil_2_1"
<MEAN> 25
 -2.073944e+000 -2.385638e-001 -1.368522e+000 -1.046317e+000 8.720803e-001 1.031255e+001 6.169095e-001 -2.894436e+000 -6.000428e-001 2.370068e-001 -5.895595e+000 1.154503e-001 -1.431371e-002 1.753847e-003 4.417621e-003 -2.111997e-002 -5.559665e-002 -1.784604e-002 3.462343e-003 -6.322511e-002 -4.569681e-002 -5.737691e-002 -4.588460e-002 3.442986e-003 -1.751609e-002
<VARIANCE> 25
 7.844193e+000 9.352401e+000 1.110344e+001 8.500560e+000 1.275709e+001 1.434500e+001 1.406837e+001 1.619025e+001 1.777751e+001 1.600093e+001 1.413304e+001 1.345290e+001 1.933996e-001 3.102840e-001 5.969725e-001 7.351276e-001 9.619282e-001 1.383067e+000 1.616426e+000 1.774364e+000 1.839481e+000 1.837374e+000 1.634860e+000 1.467029e+000 6.618070e-002
<GCONST> 7.340537e+001
~s "silst"
<MEAN> 25
 -3.656441e+000 -1.193768e+000 3.004221e+000 1.099782e+000 -2.509607e+000 8.364034e+000 -7.233441e-001 -8.095854e-002 -1.220815e+000 -1.201470e+000 -7.349975e+000 2.098053e+000 -4.016397e-002 1.300925e-002 1.440141e-002 -2.080568e-002 -2.092674e-002 2.115313e-002 4.370191e-002 -3.336291e-002 -5.782430e-002 -3.706953e-002 -3.665376e-002 1.836631e-002 -2.189196e-002
<VARIANCE> 25
 3.771143e+000 3.843085e+000 7.442353e+000 8.424102e+000 1.083866e+001 1.668797e+001 1.475161e+001 1.517499e+001 1.724038e+001 1.464702e+001 1.583438e+001 1.366990e+001 1.996291e-001 3.297656e-001 5.793819e-001 8.011106e-001 1.062234e+000 1.363199e+000 1.471954e+000 1.528849e+000 1.575765e+000 1.503081e+000 1.484633e+000 1.318446e+000 8.123671e-002
<GCONST> 7.099313e+001
~s "ST_sil_3_1"
<MEAN> 25
 -3.641723e+000 -1.201550e+000 2.985497e+000 1.117690e+000 -2.479979e+000 8.360177e+000 -7.488332e-001 -7.861133e-002 -1.178707e+000 -1.164647e+000 -7.342390e+000 2.084706e+000 -4.333594e-002 1.368192e-002 1.883609e-002 -2.123622e-002 -2.481441e-002 2.142194e-002 4.984889e-002 -3.196971e-002 -5.956844e-002 -3.732853e-002 -4.223596e-002 1.977034e-002 -2.520211e-002
<VARIANCE> 25
 3.776419e+000 3.875289e+000 7.554894e+000 8.492181e+000 1.090942e+001 1.674736e+001 1.485621e+001 1.516089e+001 1.742855e+001 1.476628e+001 1.573629e+001 1.370344e+001 2.059173e-001 3.331845e-001 5.826404e-001 8.051901e-001 1.073016e+000 1.367425e+000 1.478631e+000 1.533770e+000 1.585993e+000 1.501521e+000 1.502181e+000 1.321190e+000 8.448387e-002
<GCONST> 7.118874e+001
~s "ST_sil_4_1"
<MEAN> 25
 -2.179932e+000 -1.356053e+000 2.558671e+000 1.201874e+000 -2.220180e+000 -1.904424e+000 1.996675e+000 3.343390e+000 6.541247e-001 -1.386237e+000 6.396174e-001 4.852063e-001 1.954946e-002 2.474430e-002 5.763422e-002 6.649806e-002 6.342122e-002 -1.577642e-001 3.174599e-002 9.920872e-002 3.378215e-002 -9.519310e-003 1.927639e-001 6.950604e-002 1.614719e-001
<VARIANCE> 25
 7.207569e+001 3.565899e+001 2.347157e+001 2.525218e+001 3.246839e+001 1.998259e+002 3.206868e+001 4.025793e+001 3.237332e+001 4.026200e+001 7.884007e+001 3.357645e+001 3.419518e+000 2.926554e+000 1.709127e+000 1.747079e+000 2.765061e+000 4.220739e+000 2.690789e+000 3.224998e+000 2.649806e+000 3.324536e+000 3.097383e+000 2.214164e+000 2.675444e+000
<GCONST> 1.042787e+002
~s "ST_j_2_1"
<MEAN> 25
 -5.725560e-001 1.576217e+001 4.343482e+000 5.557537e+000 3.391842e+000 -5.287720e+000 -6.760560e+000 -5.589194e+000 -2.034347e+000 4.496433e-001 -1.203600e+000 -1.325490e+000 -2.793344e+000 2.588171e+000 8.324860e-001 -2.867568e-001 1.447211e+000 8.493218e-001 7.773598e-001 1.309124e+000 2.783224e-001 -8.422160e-001 -2.097825e+000 1.451247e+000 -8.061571e-001
<VARIANCE> 25
 5.331571e+001 6.104145e+001 2.361076e+001 3.500894e+001 3.806107e+001 5.662766e+001 3.207528e+001 5.516154e+001 4.151010e+001 3.780642e+001 8.531517e+001 3.611384e+001 9.397682e+000 2.411872e+000 2.008137e+000 3.671542e+000 5.449991e+000 4.315353e+000 3.392592e+000 4.699046e+000 4.388033e+000 3.603405e+000 7.232685e+000 3.100049e+000 6.769890e+000
<GCONST> 1.101262e+002
~s "ST_j_3_1"
<MEAN> 25
 -2.117904e+001 1.857335e+001 1.279127e+001 1.476537e+000 6.459930e+000 2.626412e-001 -6.538421e+000 3.337338e+000 1.062058e+000 -3.483922e+000 -1.525658e+000 5.288006e+000 5.717699e-001 -2.598836e+000 7.920496e-001 6.513486e-001 -1.249004e+000 -1.653651e+000 -1.760160e+000 -1.951213e-001 5.960048e-001 -4.518527e-002 1.309996e+000 3.980657e-001 1.909641e+000
<VARIANCE> 25
 3.003212e+001 3.958741e+001 3.004511e+001 2.612670e+001 3.082936e+001 5.695641e+001 8.678913e+001 5.540010e+001 3.208815e+001 3.300185e+001 2.735600e+001 1.959385e+001 1.593095e+001 2.302989e+000 4.732444e+000 4.375168e+000 3.664864e+000 9.182565e+000 6.702104e+000 8.730728e+000 3.334929e+000 3.166990e+000 2.601772e+000 2.861238e+000 9.554962e-001
<GCONST> 1.074288e+002
~s "ST_j_4_1"
<MEAN> 25
 -1.476676e+000 2.945435e+000 5.373628e+000 4.717381e+000 3.117583e-001 -1.126805e+001 -1.372414e+001 -6.189978e+000 -5.792087e-001 -3.681520e-001 9.036489e+000 1.751030e+000 3.148552e+000 -1.768613e+000 -2.748356e+000 -1.046203e+000 -1.507408e-001 1.618598e-001 1.283262e+000 -1.733223e+000 -8.994860e-001 9.844424e-001 2.356516e+000 -1.576263e+000 3.478607e-001
<VARIANCE> 25
 2.632028e+001 1.236736e+001 1.738589e+001 1.220550e+001 1.351416e+001 2.338389e+001 3.246358e+001 2.601225e+001 2.251469e+001 2.392886e+001 6.133446e+001 2.215115e+001 3.270672e+000 3.900785e+000 1.006522e+000 9.877307e-001 1.420104e+000 3.956140e+000 3.127148e+000 1.870884e+000 6.173595e+000 2.476667e+000 2.864904e+000 2.106376e+000 1.330416e+000
<GCONST> 9.393088e+001
~s "ST_ng_2_1"
<MEAN> 25
 6.529005e+000 -2.939012e+000 -7.067182e+000 1.383595e+000 -2.040588e+000 -1.401208e+001 1.153942e+001 -1.200454e+000 -4.581539e+000 3.711040e+000 1.154382e+001 -6.992484e+000 1.468003e+000 6.452248e-002 9.543833e-001 1.687620e+000 -3.758297e+000 1.517820e+000 1.783918e+000 -9.138325e-001 -1.659098e+000 -4.546269e-001 -4.106010e-001 7.575942e-001 -1.599968e+000
<VARIANCE> 25
 1.326116e+001 8.535078e+000 2.229303e+001 2.422118e+001 8.297401e+001 3.940097e+001 3.995668e+001 6.859428e+001 4.624940e+001 1.753848e+001 2.550149e+001 2.203343e+001 7.286236e-001 5.217234e-001 7.006944e-001 2.125750e+000 5.066918e+000 4.983602e+000 2.612477e+000 3.420785e+000 2.995673e+000 4.381102e+000 3.757706e+000 3.608131e+000 7.915292e-001
<GCONST> 9.580347e+001
~s "ST_ng_3_1"
<MEAN> 25
 1.218000e+001 -4.356138e+000 -2.093566e+000 8.370315e+000 -1.644746e+001 -3.982656e+000 1.300900e+001 -6.366816e-001 -1.096627e+001 -3.773367e+000 7.536963e+000 2.304852e+000 3.195458e-002 4.314481e-001 6.926290e-001 1.036735e-001 -7.711230e-001 1.038692e+000 -1.033173e+000 -1.366715e-001 1.909795e-001 -5.015845e-001 -2.869046e-001 8.676169e-001 -9.362689e-001
<VARIANCE> 25
 2.711175e+000 1.462905e+001 1.608497e+001 1.234855e+001 4.052601e+001 8.728616e+001 2.040123e+001 3.079268e+001 4.401015e+001 1.397796e+001 4.059661e+001 2.783452e+001 2.830244e-001 1.190930e+000 9.279233e-001 1.774949e+000 3.093649e+000 4.075768e+000 2.815682e+000 3.173088e+000 3.154483e+000 1.756003e+000 1.860302e+000 2.132886e+000 5.777168e-001
<GCONST> 8.966182e+001
~s "ST_m_2_1"
<MEAN> 25
 1.167972e+001 -1.637226e+000 -3.167710e+000 1.643703e+000 -6.160373e+000 -2.833317e+000 6.121310e+000 -4.602197e+000 -1.173893e+001 -1.476816e+000 6.729683e+000 3.113983e+000 1.309674e+000 -3.667302e-001 1.677928e+000 3.123814e+000 -2.503701e+000 1.510244e+000 5.814978e-001 -1.707172e+000 -2.547559e+000 -2.158631e+000 -9.872178e-001 7.076342e-001 -9.585873e-001
<VARIANCE> 25
 2.013765e+001 1.968262e+001 5.520505e+001 5.851740e+001 5.760223e+001 6.855187e+001 6.863236e+001 6.968916e+001 3.969714e+001 5.221183e+001 5.442885e+001 3.898479e+001 2.003250e+000 1.809065e+000 3.468379e+000 3.529064e+000 3.746219e+000 4.946042e+000 6.283033e+000 4.971946e+000 2.962016e+000 2.804051e+000 5.297963e+000 3.782918e+000 3.050105e+000
<GCONST> 1.084435e+002
~s "ST_ng_4_1"
<MEAN> 25
 4.826922e+000 2.606953e+000 4.922224e+000 2.844108e+000 -7.484956e+000 4.550180e+000 2.639441e-001 -2.551176e+000 -3.715710e+000 -2.758153e+000 -1.631640e+000 4.212647e+000 -1.415486e+000 4.472302e-001 4.769306e-001 -5.126846e-001 2.102647e+000 1.690770e+000 -1.429148e+000 -5.573097e-001 7.844372e-001 4.565530e-001 -1.118675e+000 -4.579805e-003 -1.133873e+000
<VARIANCE> 25
 3.901408e+001 2.432955e+001 1.549214e+001 1.871194e+001 5.537874e+001 6.193928e+001 3.136096e+001 4.278605e+001 4.564602e+001 2.271734e+001 4.026307e+001 4.618341e+001 1.694688e+000 2.277866e+000 2.063288e+000 1.576895e+000 2.811616e+000 2.314309e+000 2.393025e+000 2.772817e+000 4.122100e+000 3.232992e+000 3.731975e+000 1.855274e+000 1.251258e+000
<GCONST> 9.933094e+001
~s "ST_m_3_1"
<MEAN> 25
 1.263317e+001 -4.469429e+000 1.101198e+000 1.205930e+001 -1.318882e+001 -6.876689e-001 1.001899e+001 -8.962767e+000 -1.685100e+001 -7.667834e+000 4.204199e+000 3.136678e+000 -2.971980e-001 2.515922e-001 1.611340e-001 2.988219e-002 7.669850e-002 1.804203e-001 -7.415590e-002 -2.687933e-001 1.185688e-001 -9.077229e-002 5.331804e-001 3.185473e-001 -2.895592e-001
<VARIANCE> 25
 4.717167e+000 1.895700e+001 1.867768e+001 2.163382e+001 2.046374e+001 2.542311e+001 5.676450e+001 8.139302e+001 3.348398e+001 3.747539e+001 2.174781e+001 3.870341e+001 8.146307e-001 1.553604e+000 2.020355e+000 2.815273e+000 2.348248e+000 2.785115e+000 3.771665e+000 2.330318e+000 2.290307e+000 2.609449e+000 2.722257e+000 1.952320e+000 1.259226e+000
<GCONST> 9.471877e+001
~s "ST_m_4_1"
<MEAN> 25
 6.174772e+000 3.313745e+000 6.302558e+000 6.160933e+000 -5.217248e+000 5.171671e+000 -9.868354e-002 -5.229574e+000 -8.788165e+000 -3.179144e+000 2.154159e-001 5.813820e+000 -1.421692e+000 3.155004e-001 3.598481e-002 -1.506665e+000 1.287220e+000 5.009303e-001 -7.101423e-001 1.022648e+000 1.881545e+000 8.626643e-001 -9.737473e-001 -4.734468e-001 -7.494768e-001
<VARIANCE> 25
 2.461169e+001 1.533181e+001 2.442377e+001 1.909942e+001 3.363308e+001 4.443320e+001 5.704492e+001 3.980227e+001 5.185537e+001 2.706950e+001 4.873131e+001 4.223935e+001 8.144055e-001 2.156535e+000 3.579558e+000 3.141068e+000 3.334883e+000 3.718118e+000 4.707990e+000 3.862692e+000 4.358319e+000 2.651175e+000 5.200757e+000 3.402316e+000 2.203896e+000
<GCONST> 1.024510e+002
~s "ST_c_2_1"
<MEAN> 25
 -3.071703e+000 1.289549e+000 -2.440709e+000 -1.076025e+000 2.106345e+000 8.386838e+000 4.216215e-001 -2.768093e+000 -2.641554e-001 3.742698e-001 -5.447478e+000 2.635272e-001 -2.015066e-001 -1.216381e-002 -2.218100e-001 -1.271313e-001 1.288968e-002 1.394217e-001 1.061076e-002 -7.928151e-002 4.520129e-002 -3.186972e-002 -9.419006e-002 -6.065310e-002 1.827397e-003
<VARIANCE> 25
 1.795767e+001 1.685257e+001 1.396977e+001 7.994089e+000 1.504889e+001 1.884927e+001 1.580917e+001 1.332648e+001 1.215079e+001 1.492660e+001 1.510502e+001 1.703473e+001 8.207855e-001 5.985266e-001 7.882422e-001 1.000678e+000 1.726558e+000 2.443810e+000 1.839235e+000 1.586668e+000 1.530566e+000 1.548014e+000 1.759208e+000 2.614771e+000 2.332749e-001
<GCONST> 8.061973e+001
~s "ST_c_3_1"
<MEAN> 25
 -1.613796e+001 1.077895e+001 3.618974e-001 2.119888e+000 5.793503e+000 1.130010e+001 4.620019e+000 3.576278e+000 4.058642e+000 2.818716e+000 -3.036541e+000 6.501853e+000 -2.356040e+000 7.286144e-001 1.054988e+000 5.567907e-002 5.036460e-001 -9.301534e-001 6.081836e-001 2.043963e+000 6.862910e-001 8.910981e-001 1.491597e+000 1.069503e+000 3.613237e+000
<VARIANCE> 25
 1.014878e+002 9.149736e+001 2.892376e+001 1.859654e+001 4.083338e+001 2.265428e+001 3.592234e+001 4.692915e+001 2.042850e+001 1.770299e+001 1.436644e+001 2.009648e+001 5.150520e+000 1.489932e+001 3.495528e+000 3.063814e+000 8.996171e+000 7.459675e+000 5.806170e+000 3.401778e+000 2.474710e+000 2.502035e+000 3.064245e+000 1.745185e+000 1.903811e+000
<GCONST> 1.052316e+002
~s "ST_c_4_1"
<MEAN> 25
 -1.119573e+001 3.040230e+000 4.377287e+000 2.178277e-001 -1.360037e+000 -5.585263e+000 -1.282909e+000 9.050556e+000 2.953709e+000 4.262140e+000 4.463833e+000 6.847161e+000 5.154935e+000 -1.707540e+000 5.519561e-001 1.099872e+000 -1.821994e+000 -5.455769e+000 -3.043344e+000 -1.533307e+000 -1.283614e+000 -8.232880e-001 6.944671e-001 -1.275351e+000 2.469932e+000
<VARIANCE> 25
 7.698121e+001 3.725095e+001 2.297887e+001 4.070949e+001 2.223932e+001 5.292266e+001 6.062889e+001 4.424760e+001 4.109389e+001 3.378339e+001 2.509044e+001 1.678811e+001 3.719429e+000 2.824834e+000 4.118515e+000 2.293815e+000 2.198788e+000 2.634246e+000 1.974500e+000 6.711052e+000 2.091027e+000 2.010351e+000 2.436669e+000 2.922796e+000 3.908114e+000
<GCONST> 1.026939e+002
~s "ST_p_2_1"
<MEAN> 25
 3.191055e+000 1.814224e+000 -6.321839e-001 -1.160952e+000 -1.205731e+000 1.013244e+001 -1.908227e+000 -1.273651e+000 1.449886e+000 1.688516e+000 -6.424466e+000 -1.070993e+000 -1.621527e+000 -4.576242e-001 9.648840e-001 3.322152e-001 -1.083151e+000 1.108836e+000 -1.517123e-001 4.686427e-001 -1.088777e-001 -2.722476e-001 -7.660179e-001 3.659079e-003 -1.375411e+000
<VARIANCE> 25
 2.285115e+001 5.236403e+000 3.213934e+001 2.139590e+001 1.460930e+001 1.651509e+001 2.227158e+001 1.677619e+001 3.516751e+001 2.475381e+001 2.445426e+001 1.683164e+001 9.796171e-001 6.184868e-001 1.472926e+000 1.193252e+000 2.632597e+000 2.780237e+000 1.919448e+000 2.415045e+000 4.084767e+000 2.860519e+000 2.627129e+000 1.800392e+000 1.066505e+000
<GCONST> 8.912688e+001
~s "ST_p_3_1"
<MEAN> 25
 -4.942669e+000 -1.350455e+000 4.756408e+000 2.524404e+000 -2.094608e+000 1.251425e+001 -8.460608e-001 -1.999438e-001 -2.817130e+000 -1.595933e+000 -7.490543e+000 5.979146e-001 -1.450209e-001 -7.059006e-002 -8.728752e-002 -4.687262e-002 5.487621e-002 4.295955e-003 1.085146e-001 4.341481e-002 3.130348e-002 5.753878e-002 1.014956e-001 1.062265e-001 4.322492e-002
<VARIANCE> 25
 3.367944e+000 3.179960e+000 8.873945e+000 1.134533e+001 9.616506e+000 1.471410e+001 1.318159e+001 1.658867e+001 2.580335e+001 1.472097e+001 1.859458e+001 1.580302e+001 4.424538e-001 3.160677e-001 7.131487e-001 1.144013e+000 1.056345e+000 1.444476e+000 1.583880e+000 1.587873e+000 1.892122e+000 1.401376e+000 1.748041e+000 1.439611e+000 2.518594e-001
<GCONST> 7.458593e+001
~s "ST_p_4_1"
<MEAN> 25
 -2.025365e+000 5.777866e-001 -1.321662e+000 -2.594644e+000 5.537240e-001 9.532035e+000 1.918140e+000 9.780373e-001 1.767208e+000 2.189335e+000 -6.622440e-001 3.789624e+000 1.456653e+000 -1.967575e-001 -3.780640e+000 -2.593735e+000 2.495263e+000 -2.265272e+000 1.218309e+000 8.085885e-001 1.001559e+000 1.558789e+000 4.180638e+000 -8.568543e-002 5.613715e+000
<VARIANCE> 25
 3.731892e+001 9.889850e+000 4.602777e+001 3.666542e+001 2.225378e+001 2.617848e+001 2.611788e+001 2.350620e+001 3.922805e+001 2.876195e+001 6.190156e+001 1.822112e+001 4.074699e+000 1.880026e+000 6.439074e+000 6.937971e+000 2.744482e+000 6.116697e+000 5.254716e+000 3.135361e+000 7.329648e+000 3.154238e+000 3.339253e+000 5.414756e+000 3.681472e+000
<GCONST> 1.049297e+002
~h "@"
<BEGINHMM>
<NUMSTATES> 5
<STATE> 2
~s "ST_@_2_1"
<STATE> 3
~s "ST_@_3_1"
<STATE> 4
~s "ST_@_4_1"
~t "T_@"
<ENDHMM>
~h "a"
<BEGINHMM>
<NUMSTATES> 5
<STATE> 2
~s "ST_a_2_1"
<STATE> 3
~s "ST_a_3_1"
<STATE> 4
~s "ST_a_4_1"
<TRANSP> 5
 0.000000e+000 1.000000e+000 0.000000e+000 0.000000e+000 0.000000e+000
 0.000000e+000 8.517883e-001 1.482116e-001 0.000000e+000 0.000000e+000
 0.000000e+000 0.000000e+000 9.565188e-001 4.348126e-002 0.000000e+000
 0.000000e+000 0.000000e+000 0.000000e+000 9.316927e-001 6.830727e-002
 0.000000e+000 0.000000e+000 0.000000e+000 0.000000e+000 0.000000e+000
<ENDHMM>
~h "b"
<BEGINHMM>
<NUMSTATES> 5
<STATE> 2
~s "ST_b_2_1"
<STATE> 3
~s "ST_b_3_1"
<STATE> 4
~s "ST_b_4_1"
~t "T_b"
<ENDHMM>
~h "c"
<BEGINHMM>
<NUMSTATES> 5
<STATE> 2
~s "ST_c_2_1"
<STATE> 3
~s "ST_c_3_1"
<STATE> 4
~s "ST_c_4_1"
~t "T_c"
<ENDHMM>
~h "d"
<BEGINHMM>
<NUMSTATES> 5
<STATE> 2
~s "ST_d_2_1"
<STATE> 3
~s "ST_d_3_1"
<STATE> 4
~s "ST_d_4_1"
~t "T_d"
<ENDHMM>
~h "e"
<BEGINHMM>
<NUMSTATES> 5
<STATE> 2
~s "ST_e_2_1"
<STATE> 3
~s "ST_e_3_1"
<STATE> 4
~s "ST_e_4_1"
<TRANSP> 5
 0.000000e+000 1.000000e+000 0.000000e+000 0.000000e+000 0.000000e+000
 0.000000e+000 4.288114e-001 5.711887e-001 0.000000e+000 0.000000e+000
 0.000000e+000 0.000000e+000 7.469899e-001 2.530101e-001 0.000000e+000
 0.000000e+000 0.000000e+000 0.000000e+000 9.694318e-001 3.056817e-002
 0.000000e+000 0.000000e+000 0.000000e+000 0.000000e+000 0.000000e+000
<ENDHMM>
~h "f"
<BEGINHMM>
<NUMSTATES> 5
<STATE> 2
~s "ST_f_2_1"
<STATE> 3
~s "ST_f_3_1"
<STATE> 4
~s "ST_f_4_1"
~t "T_f"
<ENDHMM>
~h "g"
<BEGINHMM>
<NUMSTATES> 5
<STATE> 2
~s "ST_g_2_1"
<STATE> 3
~s "ST_g_3_1"
<STATE> 4
~s "ST_g_4_1"
~t "T_g"
<ENDHMM>
~h "h"
<BEGINHMM>
<NUMSTATES> 5
<STATE> 2
~s "ST_h_2_1"
<STATE> 3
~s "ST_h_3_1"
<STATE> 4
~s "ST_h_4_1"
~t "T_h"
<ENDHMM>
~h "i"
<BEGINHMM>
<NUMSTATES> 5
<STATE> 2
~s "ST_i_2_1"
<STATE> 3
~s "ST_i_3_1"
<STATE> 4
~s "ST_i_4_1"
~t "T_i"
<ENDHMM>
~h "j"
<BEGINHMM>
<NUMSTATES> 5
<STATE> 2
~s "ST_j_2_1"
<STATE> 3
~s "ST_j_3_1"
<STATE> 4
~s "ST_j_4_1"
~t "T_j"
<ENDHMM>
~h "k"
<BEGINHMM>
<NUMSTATES> 5
<STATE> 2
~s "ST_k_2_1"
<STATE> 3
~s "ST_k_3_1"
<STATE> 4
~s "ST_k_4_1"
~t "T_k"
<ENDHMM>
~h "l"
<BEGINHMM>
<NUMSTATES> 5
<STATE> 2
~s "ST_l_2_1"
<STATE> 3
~s "ST_l_3_1"
<STATE> 4
~s "ST_l_4_1"
~t "T_l"
<ENDHMM>
~h "m"
<BEGINHMM>
<NUMSTATES> 5
<STATE> 2
~s "ST_m_2_1"
<STATE> 3
~s "ST_m_3_1"
<STATE> 4
~s "ST_m_4_1"
~t "T_m"
<ENDHMM>
~h "n"
<BEGINHMM>
<NUMSTATES> 5
<STATE> 2
~s "ST_n_2_1"
<STATE> 3
~s "ST_n_3_1"
<STATE> 4
~s "ST_n_4_1"
~t "T_n"
<ENDHMM>
~h "o"
<BEGINHMM>
<NUMSTATES> 5
<STATE> 2
~s "ST_o_2_1"
<STATE> 3
~s "ST_o_3_1"
<STATE> 4
~s "ST_o_4_1"
~t "T_o"
<ENDHMM>
~h "p"
<BEGINHMM>
<NUMSTATES> 5
<STATE> 2
~s "ST_p_2_1"
<STATE> 3
~s "ST_p_3_1"
<STATE> 4
~s "ST_p_4_1"
~t "T_p"
<ENDHMM>
~h "r"
<BEGINHMM>
<NUMSTATES> 5
<STATE> 2
~s "ST_r_2_1"
<STATE> 3
~s "ST_r_3_1"
<STATE> 4
~s "ST_r_4_1"
~t "T_r"
<ENDHMM>
~h "s"
<BEGINHMM>
<NUMSTATES> 5
<STATE> 2
~s "ST_s_2_1"
<STATE> 3
~s "ST_s_3_1"
<STATE> 4
~s "ST_s_4_1"
~t "T_s"
<ENDHMM>
~h "t"
<BEGINHMM>
<NUMSTATES> 5
<STATE> 2
~s "ST_t_2_1"
<STATE> 3
~s "ST_t_3_1"
<STATE> 4
~s "ST_t_4_1"
~t "T_t"
<ENDHMM>
~h "u"
<BEGINHMM>
<NUMSTATES> 5
<STATE> 2
~s "ST_u_2_1"
<STATE> 3
~s "ST_u_3_1"
<STATE> 4
~s "ST_u_4_1"
~t "T_u"
<ENDHMM>
~h "ng"
<BEGINHMM>
<NUMSTATES> 5
<STATE> 2
~s "ST_ng_2_1"
<STATE> 3
~s "ST_ng_3_1"
<STATE> 4
~s "ST_ng_4_1"
~t "T_ng"
<ENDHMM>
~h "sp"
<BEGINHMM>
<NUMSTATES> 3
<STATE> 2
~s "ST_sil_3_1"
<TRANSP> 3
 0.000000e+000 7.320622e-001 2.679378e-001
 0.000000e+000 9.519973e-001 4.800270e-002
 0.000000e+000 0.000000e+000 0.000000e+000
<ENDHMM>
~h "n-a+m"
<BEGINHMM>
<NUMSTATES> 5
<STATE> 2
~s "ST_a_2_2"
<STATE> 3
~s "ST_a_3_4"
<STATE> 4
~s "ST_a_4_2"
~t "T_a"
<ENDHMM>
~h "d-a+h"
<BEGINHMM>
<NUMSTATES> 5
<STATE> 2
~s "ST_a_2_2"
<STATE> 3
~s "ST_a_3_2"
<STATE> 4
~s "ST_a_4_1"
~t "T_a"
<ENDHMM>
~h "d-e+k"
<BEGINHMM>
<NUMSTATES> 5
<STATE> 2
~s "ST_e_2_1"
<STATE> 3
~s "ST_e_3_2"
<STATE> 4
~s "ST_e_4_3"
~t "T_e"
<ENDHMM>
~h "g-a+j"
<BEGINHMM>
<NUMSTATES> 5
<STATE> 2
~s "ST_a_2_3"
<STATE> 3
~s "ST_a_3_2"
<STATE> 4
~s "ST_a_4_1"
~t "T_a"
<ENDHMM>
~h "j-a+h"
<BEGINHMM>
<NUMSTATES> 5
<STATE> 2
~s "ST_a_2_1"
<STATE> 3
~s "ST_a_3_2"
<STATE> 4
~s "ST_a_4_1"
~t "T_a"
<ENDHMM>
~h "b-e"
<BEGINHMM>
<NUMSTATES> 5
<STATE> 2
~s "ST_e_2_1"
<STATE> 3
~s "ST_e_3_2"
<STATE> 4
~s "ST_e_4_1"
~t "T_e"
<ENDHMM>
~h "c-e"
<BEGINHMM>
<NUMSTATES> 5
<STATE> 2
~s "ST_e_2_1"
<STATE> 3
~s "ST_e_3_1"
<STATE> 4
~s "ST_e_4_1"
~t "T_e"
<ENDHMM>
~h "e+f"
<BEGINHMM>
<NUMSTATES> 5
<STATE> 2
~s "ST_e_2_1"
<STATE> 3
~s "ST_e_3_1"
<STATE> 4
~s "ST_e_4_3"
~t "T_e"
<ENDHMM>
~h "g-e"
<BEGINHMM>
<NUMSTATES> 5
<STATE> 2
~s "ST_e_2_1"
<STATE> 3
~s "ST_e_3_2"
<STATE> 4
~s "ST_e_4_2"
~t "T_e"
<ENDHMM>
~h "m-a"
<BEGINHMM>
<NUMSTATES> 5
<STATE> 2
~s "ST_a_2_2"
<STATE> 3
~s "ST_a_3_3"
<STATE> 4
~s "ST_a_4_1"
~t "T_a"
<ENDHMM>
~h "s-e"
<BEGINHMM>
<NUMSTATES> 5
<STATE> 2
~s "ST_e_2_1"
<STATE> 3
~s "ST_e_3_1"
<STATE> 4
~s "ST_e_4_1"
<TRANSP> 5
 0.000000e+000 1.000000e+000 0.000000e+000 0.000000e+000 0.000000e+000
 0.000000e+000 4.751946e-001 5.248054e-001 0.000000e+000 0.000000e+000
 0.000000e+000 0.000000e+000 7.408621e-001 2.591379e-001 0.000000e+000
 0.000000e+000 0.000000e+000 0.000000e+000 9.694426e-001 3.055737e-002
 0.000000e+000 0.000000e+000 0.000000e+000 0.000000e+000 0.000000e+000
<ENDHMM>
~h "sil"
<BEGINHMM>
<NUMSTATES> 5
<STATE> 2
~s "ST_sil_2_1"
<STATE> 3
~s "ST_sil_3_1"
<STATE> 4
~s "ST_sil_4_1"
<TRANSP> 5
 0.000000e+000 1.000000e+000 0.000000e+000 0.000000e+000 0.000000e+000
 0.000000e+000 8.935081e-001 8.293355e-002 2.355839e-002 0.000000e+000
 0.000000e+000 0.000000e+000 9.685072e-001 3.149282e-002 0.000000e+000
 0.000000e+000 3.940354e-002 0.000000e+000 7.901050e-001 1.704914e-001
 0.000000e+000 0.000000e+000 0.000000e+000 0.000000e+000 0.000000e+000
<ENDHMM>
~h "p-a+n"
<BEGINHMM>
<NUMSTATES> 5
<STATE> 2
~s "ST_a_2_2"
<STATE> 3
~s "ST_a_3_6"
<STATE> 4
~s "ST_a_4_2"
~t "T_a"
<ENDHMM>
~h "s-a+t"
<BEGINHMM>
<NUMSTATES> 5
<STATE> 2
~s "ST_a_2_1"
<STATE> 3
~s "ST_a_3_4"
<STATE> 4
~s "ST_a_4_2"
~t "T_a"
<ENDHMM>
~h "a+ng"
<BEGINHMM>
<NUMSTATES> 5
<STATE> 2
~s "ST_a_2_1"
<STATE> 3
~s "ST_a_3_1"
<STATE> 4
~s "ST_a_4_1"
~t "T_a"
<ENDHMM>
~h "k-a+d"
<BEGINHMM>
<NUMSTATES> 5
<STATE> 2
~s "ST_a_2_3"
<STATE> 3
~s "ST_a_3_5"
<STATE> 4
~s "ST_a_4_2"
~t "T_a"
<ENDHMM>
