~o
<STREAMINFO> 1 25
<VECSIZE> 25<NULLD><MFCC_D_N_Z_0><DIAGC>
~t "T_a"
<TRANSP> 5
 0.000000e+000 1.000000e+000 0.000000e+000 0.000000e+000 0.000000e+000
 0.000000e+000 6.204699e-001 3.795302e-001 0.000000e+000 0.000000e+000
 0.000000e+000 0.000000e+000 9.086880e-001 9.131200e-002 0.000000e+000
 0.000000e+000 0.000000e+000 0.000000e+000 8.423132e-001 1.576868e-001
 0.000000e+000 0.000000e+000 0.000000e+000 0.000000e+000 0.000000e+000
~t "T_b"
<TRANSP> 5
 0.000000e+00 1.000000e+00 0.000000e+00 0.000000e+00 0.000000e+00
 0.000000e+00 8.538597e-01 1.461403e-01 0.000000e+00 0.000000e+00
 0.000000e+00 0.000000e+00 8.101628e-01 1.898372e-01 0.000000e+00
 0.000000e+00 0.000000e+00 0.000000e+00 9.467237e-01 5.327631e-02
 0.000000e+00 0.000000e+00 0.000000e+00 0.000000e+00 0.000000e+00
~t "T_c"
<TRANSP> 5
 0.000000e+000 1.000000e+000 0.000000e+000 0.000000e+000 0.000000e+000
 0.000000e+000 9.368886e-001 6.311147e-002 0.000000e+000 0.000000e+000
 0.000000e+000 0.000000e+000 8.113577e-001 1.886423e-001 0.000000e+000
 0.000000e+000 0.000000e+000 0.000000e+000 6.797712e-001 3.202288e-001
 0.000000e+000 0.000000e+000 0.000000e+000 0.000000e+000 0.000000e+000
~t "T_d"
<TRANSP> 5
 0.000000e+000 1.000000e+000 0.000000e+000 0.000000e+000 0.000000e+000
 0.000000e+000 7.500538e-001 2.499463e-001 0.000000e+000 0.000000e+000
 0.000000e+000 0.000000e+000 6.815100e-001 3.184900e-001 0.000000e+000
 0.000000e+000 0.000000e+000 0.000000e+000 7.754425e-001 2.245575e-001
 0.000000e+000 0.000000e+000 0.000000e+000 0.000000e+000 0.000000e+000
~t "T_e"
<TRANSP> 5
 0.000000e+000 1.000000e+000 0.000000e+000 0.000000e+000 0.000000e+000
 0.000000e+000 3.517398e-001 6.482602e-001 0.000000e+000 0.000000e+000
 0.000000e+000 0.000000e+000 6.760799e-001 3.239200e-001 0.000000e+000
 0.000000e+000 0.000000e+000 0.000000e+000 9.328676e-001 6.713234e-002
 0.000000e+000 0.000000e+000 0.000000e+000 0.000000e+000 0.000000e+000
~t "T_f"
<TRANSP> 5
 0.000000e+000 1.000000e+000 0.000000e+000 0.000000e+000 0.000000e+000
 0.000000e+000 9.080158e-001 9.198418e-002 0.000000e+000 0.000000e+000
 0.000000e+000 0.000000e+000 9.544150e-001 4.558504e-002 0.000000e+000
 0.000000e+000 0.000000e+000 0.000000e+000 9.529507e-001 4.704938e-002
 0.000000e+000 0.000000e+000 0.000000e+000 0.000000e+000 0.000000e+000
~t "T_g"
<TRANSP> 5
 0.000000e+000 1.000000e+000 0.000000e+000 0.000000e+000 0.000000e+000
 0.000000e+000 6.173514e-001 3.826486e-001 0.000000e+000 0.000000e+000
 0.000000e+000 0.000000e+000 7.646325e-001 2.353675e-001 0.000000e+000
 0.000000e+000 0.000000e+000 0.000000e+000 8.257366e-001 1.742634e-001
 0.000000e+000 0.000000e+000 0.000000e+000 0.000000e+000 0.000000e+000
~t "T_h"
<TRANSP> 5
 0.000000e+00 1.000000e+00 0.000000e+00 0.000000e+00 0.000000e+00
 0.000000e+00 8.463461e-01 1.536539e-01 0.000000e+00 0.000000e+00
 0.000000e+00 0.000000e+00 8.444749e-01 1.555251e-01 0.000000e+00
 0.000000e+00 0.000000e+00 0.000000e+00 9.077455e-01 9.225443e-02
 0.000000e+00 0.000000e+00 0.000000e+00 0.000000e+00 0.000000e+00
~t "T_i"
<TRANSP> 5
 0.000000e+00 1.000000e+00 0.000000e+00 0.000000e+00 0.000000e+00
 0.000000e+00 7.386684e-01 2.613316e-01 0.000000e+00 0.000000e+00
 0.000000e+00 0.000000e+00 8.541465e-01 1.458535e-01 0.000000e+00
 0.000000e+00 0.000000e+00 0.000000e+00 8.153135e-01 1.846864e-01
 0.000000e+00 0.000000e+00 0.000000e+00 0.000000e+00 0.000000e+00
~t "T_j"
<TRANSP> 5
 0.000000e+00 1.000000e+00 0.000000e+00 0.000000e+00 0.000000e+00
 0.000000e+00 8.466572e-01 1.533429e-01 0.000000e+00 0.000000e+00
 0.000000e+00 0.000000e+00 8.320937e-01 1.679064e-01 0.000000e+00
 0.000000e+00 0.000000e+00 0.000000e+00 7.709724e-01 2.290276e-01
 0.000000e+00 0.000000e+00 0.000000e+00 0.000000e+00 0.000000e+00
~t "T_k"
<TRANSP> 5
 0.000000e+00 1.000000e+00 0.000000e+00 0.000000e+00 0.000000e+00
 0.000000e+00 7.173845e-01 2.826156e-01 0.000000e+00 0.000000e+00
 0.000000e+00 0.000000e+00 7.459389e-01 2.540611e-01 0.000000e+00
 0.000000e+00 0.000000e+00 0.000000e+00 8.725696e-01 1.274304e-01
 0.000000e+00 0.000000e+00 0.000000e+00 0.000000e+00 0.000000e+00
~t "T_l"
<TRANSP> 5
 0.000000e+000 1.000000e+000 0.000000e+000 0.000000e+000 0.000000e+000
 0.000000e+000 8.329212e-001 1.670788e-001 0.000000e+000 0.000000e+000
 0.000000e+000 0.000000e+000 6.481771e-001 3.518229e-001 0.000000e+000
 0.000000e+000 0.000000e+000 0.000000e+000 7.217663e-001 2.782337e-001
 0.000000e+000 0.000000e+000 0.000000e+000 0.000000e+000 0.000000e+000
~t "T_m"
<TRANSP> 5
 0.000000e+000 1.000000e+000 0.000000e+000 0.000000e+000 0.000000e+000
 0.000000e+000 7.229322e-001 2.770679e-001 0.000000e+000 0.000000e+000
 0.000000e+000 0.000000e+000 8.041068e-001 1.958932e-001 0.000000e+000
 0.000000e+000 0.000000e+000 0.000000e+000 7.495695e-001 2.504306e-001
 0.000000e+000 0.000000e+000 0.000000e+000 0.000000e+000 0.000000e+000
~t "T_n"
<TRANSP> 5
 0.000000e+000 1.000000e+000 0.000000e+000 0.000000e+000 0.000000e+000
 0.000000e+000 6.980610e-001 3.019390e-001 0.000000e+000 0.000000e+000
 0.000000e+000 0.000000e+000 8.570760e-001 1.429240e-001 0.000000e+000
 0.000000e+000 0.000000e+000 0.000000e+000 8.158292e-001 1.841708e-001
 0.000000e+000 0.000000e+000 0.000000e+000 0.000000e+000 0.000000e+000
~t "T_o"
<TRANSP> 5
 0.000000e+000 1.000000e+000 0.000000e+000 0.000000e+000 0.000000e+000
 0.000000e+000 7.178728e-001 2.821272e-001 0.000000e+000 0.000000e+000
 0.000000e+000 0.000000e+000 9.130836e-001 8.691632e-002 0.000000e+000
 0.000000e+000 0.000000e+000 0.000000e+000 8.032707e-001 1.967293e-001
 0.000000e+000 0.000000e+000 0.000000e+000 0.000000e+000 0.000000e+000
~t "T_p"
<TRANSP> 5
 0.000000e+000 1.000000e+000 0.000000e+000 0.000000e+000 0.000000e+000
 0.000000e+000 6.712792e-001 3.287208e-001 0.000000e+000 0.000000e+000
 0.000000e+000 0.000000e+000 9.006451e-001 9.935489e-002 0.000000e+000
 0.000000e+000 0.000000e+000 0.000000e+000 6.560332e-001 3.439668e-001
 0.000000e+000 0.000000e+000 0.000000e+000 0.000000e+000 0.000000e+000
~t "T_r"
<TRANSP> 5
 0.000000e+00 1.000000e+00 0.000000e+00 0.000000e+00 0.000000e+00
 0.000000e+00 7.887558e-01 2.112443e-01 0.000000e+00 0.000000e+00
 0.000000e+00 0.000000e+00 8.162678e-01 1.837322e-01 0.000000e+00
 0.000000e+00 0.000000e+00 0.000000e+00 8.658066e-01 1.341934e-01
 0.000000e+00 0.000000e+00 0.000000e+00 0.000000e+00 0.000000e+00
~t "T_s"
<TRANSP> 5
 0.000000e+00 1.000000e+00 0.000000e+00 0.000000e+00 0.000000e+00
 0.000000e+00 7.910278e-01 2.089722e-01 0.000000e+00 0.000000e+00
 0.000000e+00 0.000000e+00 8.664032e-01 1.335968e-01 0.000000e+00
 0.000000e+00 0.000000e+00 0.000000e+00 7.063578e-01 2.936422e-01
 0.000000e+00 0.000000e+00 0.000000e+00 0.000000e+00 0.000000e+00
~t "T_t"
<TRANSP> 5
 0.000000e+000 1.000000e+000 0.000000e+000 0.000000e+000 0.000000e+000
 0.000000e+000 6.363601e-001 3.636399e-001 0.000000e+000 0.000000e+000
 0.000000e+000 0.000000e+000 6.972104e-001 3.027896e-001 0.000000e+000
 0.000000e+000 0.000000e+000 0.000000e+000 7.304795e-001 2.695206e-001
 0.000000e+000 0.000000e+000 0.000000e+000 0.000000e+000 0.000000e+000
~t "T_u"
<TRANSP> 5
 0.000000e+000 1.000000e+000 0.000000e+000 0.000000e+000 0.000000e+000
 0.000000e+000 7.611040e-001 2.388959e-001 0.000000e+000 0.000000e+000
 0.000000e+000 0.000000e+000 8.882547e-001 1.117453e-001 0.000000e+000
 0.000000e+000 0.000000e+000 0.000000e+000 8.344789e-001 1.655211e-001
 0.000000e+000 0.000000e+000 0.000000e+000 0.000000e+000 0.000000e+000
~t "T_ae"
<TRANSP> 5
 0.000000e+000 1.000000e+000 0.000000e+000 0.000000e+000 0.000000e+000
 0.000000e+000 4.679550e-001 5.320450e-001 0.000000e+000 0.000000e+000
 0.000000e+000 0.000000e+000 5.114874e-001 4.885126e-001 0.000000e+000
 0.000000e+000 0.000000e+000 0.000000e+000 6.854759e-001 3.145241e-001
 0.000000e+000 0.000000e+000 0.000000e+000 0.000000e+000 0.000000e+000
~t "T_ng"
<TRANSP> 5
 0.000000e+00 1.000000e+00 0.000000e+00 0.000000e+00 0.000000e+00
 0.000000e+00 7.946264e-01 2.053736e-01 0.000000e+00 0.000000e+00
 0.000000e+00 0.000000e+00 8.474576e-01 1.525424e-01 0.000000e+00
 0.000000e+00 0.000000e+00 0.000000e+00 8.763862e-01 1.236139e-01
 0.000000e+00 0.000000e+00 0.000000e+00 0.000000e+00 0.000000e+00
~s "ST_f_2_1"
<MEAN> 25
 6.312463e+000 -3.483604e+000 -1.144332e+001 -2.202666e-002 7.740779e+000 -1.565693e+001 -9.549599e-001 1.345947e+001 2.236564e+000 -9.949101e-001 4.096200e+000 -3.945399e+000 2.394023e-001 4.789467e-001 3.768469e-001 4.098791e-001 -8.170985e-002 2.135752e+000 -6.801651e-001 -6.194726e-001 -5.431082e-002 -6.239748e-001 -5.773337e-001 3.935578e-001 -1.356970e+000
<VARIANCE> 25
 1.708173e+001 1.243777e+001 2.211297e+001 2.732024e+001 9.131442e+000 7.441192e+001 2.275239e+001 3.082312e+001 2.666416e+001 3.075884e+001 2.589069e+001 2.148820e+001 2.908894e+000 1.376861e+000 2.280877e+000 1.637649e+000 1.366243e+000 4.512386e+000 1.679370e+000 3.469610e+000 3.154885e+000 1.643104e+000 3.218410e+000 2.146529e+000 4.342280e+000
<GCONST> 9.514806e+001
~s "ST_f_3_1"
<MEAN> 25
 -1.191326e+01 1.366571e+00 2.300433e-02 6.243108e+00 3.578289e+00 7.428899e+00 -2.677231e+00 3.096198e+00 6.770505e+00 1.499912e+00 -2.425808e+00 8.532587e-01 -4.166643e-01 -3.785670e-02 1.760779e-01 -9.508282e-02 -2.772943e-01 3.924982e-01 7.658979e-02 -3.946841e-01 -1.654884e-01 1.668174e-01 -1.457348e-01 6.885060e-02 -7.512634e-01
<VARIANCE> 25
 4.948384e+01 1.227824e+01 1.506857e+01 2.203558e+01 2.603419e+01 2.422381e+01 2.981959e+01 3.119129e+01 3.401368e+01 3.420305e+01 3.394275e+01 2.454481e+01 5.786342e+00 8.369526e-01 1.449600e+00 2.710270e+00 3.364599e+00 3.550897e+00 3.574672e+00 3.416087e+00 4.323065e+00 2.887630e+00 2.996760e+00 2.378055e+00 8.710969e-01
<GCONST> 9.750690e+01
~s "ST_f_4_1"
<MEAN> 25
 -3.174051e-01 2.095480e-03 -3.008834e-01 -1.522767e+00 8.825346e-01 8.660889e+00 -5.713108e-01 -2.690939e+00 -1.389275e+00 3.931471e-01 -6.017592e+00 -5.058444e-01 4.519628e-02 1.438996e-02 6.470095e-02 -9.972581e-02 -3.332112e-02 -3.868162e-02 4.179341e-02 -8.678070e-03 -1.611673e-02 3.914770e-02 -4.491683e-02 6.162423e-02 -1.190951e-02
<VARIANCE> 25
 1.578154e+00 3.312528e+00 6.823831e+00 7.312656e+00 9.423142e+00 1.049860e+01 1.140050e+01 1.061861e+01 1.251917e+01 1.351849e+01 1.369263e+01 1.111517e+01 1.748723e-01 3.285803e-01 6.857560e-01 9.442184e-01 1.057334e+00 1.134523e+00 1.513941e+00 1.138967e+00 1.383224e+00 1.185473e+00 1.744679e+00 1.306414e+00 7.760117e-02
<GCONST> 6.725582e+01
~s "ST_s_2_1"
<MEAN> 25
 -1.153597e+001 5.712666e+000 3.000320e+000 4.702431e-001 6.845852e+000 -4.183334e+000 -2.064206e+000 9.596066e+000 1.064250e+000 -4.796716e-001 -2.117098e+000 1.598002e+000 -4.166936e+000 2.705930e+000 1.117629e+000 4.323911e-001 1.250875e+000 4.264936e-001 3.423855e-001 1.964692e+000 4.241902e-001 -1.919648e-001 5.848922e-001 8.793466e-001 9.250223e-001
<VARIANCE> 25
 6.875387e+001 4.001350e+001 2.095233e+001 2.237567e+001 4.257183e+001 6.981091e+001 2.384555e+001 4.980012e+001 3.473193e+001 2.680502e+001 5.011012e+001 3.630371e+001 2.479883e+000 1.482193e+000 2.429950e+000 2.765213e+000 3.601649e+000 7.528636e+000 3.294632e+000 4.753918e+000 4.438656e+000 3.572819e+000 7.362053e+000 4.590593e+000 2.968165e+000
<GCONST> 1.060660e+002
~s "ST_s_3_1"
<MEAN> 25
 -2.610990e+01 1.547617e+01 5.754557e+00 4.174956e+00 1.204854e+01 6.246601e+00 2.611609e+00 1.481404e+01 4.320828e+00 2.941780e-01 5.860052e-01 8.430504e+00 -5.024546e-01 -1.917366e-02 2.223069e-01 3.054632e-01 -2.389784e-01 4.796651e-01 5.473480e-01 1.193714e-01 5.104401e-01 5.138200e-01 3.032725e-01 4.636442e-01 3.562731e-01
<VARIANCE> 25
 7.402726e+00 1.567119e+01 8.386326e+00 1.398926e+01 2.033755e+01 4.404930e+01 2.897305e+01 4.624569e+01 2.531808e+01 3.435857e+01 1.746540e+01 1.177294e+01 1.693364e+00 3.387735e+00 9.775615e-01 1.067606e+00 2.162946e+00 5.932854e+00 1.578564e+00 2.248044e+00 2.370877e+00 2.153862e+00 2.167490e+00 1.574264e+00 8.246607e-01
<GCONST> 8.983125e+01
~s "ST_s_4_1"
<MEAN> 25
 -1.877469e+01 6.061222e+00 3.532503e+00 2.255655e+00 5.235421e+00 -1.862541e+00 1.493291e+00 1.256132e+01 6.748713e+00 6.764279e+00 2.039858e+00 5.390489e+00 5.517180e+00 -2.842750e+00 -2.362458e+00 -1.922746e+00 -7.567999e-01 -3.031849e+00 -1.481869e+00 -2.484050e+00 -5.950540e-01 1.007030e+00 -5.214578e-01 -2.896486e+00 1.447471e+00
<VARIANCE> 25
 6.708678e+01 3.359527e+01 3.781775e+01 4.217746e+01 3.164458e+01 5.349990e+01 2.302806e+01 3.872043e+01 2.695300e+01 3.293236e+01 2.350219e+01 2.709784e+01 4.126596e+00 2.080475e+00 5.160614e+00 3.644885e+00 6.840717e+00 5.258041e+00 2.839455e+00 5.653272e+00 4.654449e+00 3.993304e+00 2.845931e+00 2.717700e+00 1.517270e+00
<GCONST> 1.053423e+02
~s "ST_i_2_1"
<MEAN> 25
 -4.792841e+00 -3.867905e-01 1.130517e+01 8.422746e+00 -8.832920e+00 -1.099124e+01 -6.511841e-01 2.233875e+00 1.973838e+00 -4.547858e+00 2.795452e+00 5.660797e+00 7.649780e-01 6.747643e-01 2.273905e+00 9.698931e-01 -2.439668e+00 -3.011925e+00 6.029794e-02 -1.008781e+00 -1.737573e+00 -2.251460e-01 1.536736e+00 7.687374e-02 3.140743e+00
<VARIANCE> 25
 4.261851e+01 2.631448e+01 3.963264e+01 3.537960e+01 4.609634e+01 1.061296e+02 4.792715e+01 5.814975e+01 5.814783e+01 2.916218e+01 5.396639e+01 6.114678e+01 5.010281e+00 2.584323e+00 3.816706e+00 3.948665e+00 5.230944e+00 9.938293e+00 3.976243e+00 1.102275e+01 8.264340e+00 4.186542e+00 4.232680e+00 1.119231e+01 5.559438e+00
<GCONST> 1.143031e+02
~s "ST_i_3_1"
<MEAN> 25
 -2.699780e+000 4.443318e+000 1.947970e+001 7.653706e+000 -1.678976e+001 -1.436338e+001 -1.459618e+000 -6.226765e+000 -5.544958e+000 -1.983439e-001 6.858707e+000 2.076991e+000 -3.214822e-001 5.104400e-001 2.036467e-001 -7.621676e-001 -6.087528e-001 6.013313e-001 4.519570e-001 2.124558e-001 -1.043141e-001 5.878730e-001 -2.490174e-001 -3.271607e-001 -1.206462e-001
<VARIANCE> 25
 1.600421e+001 9.438474e+000 1.954092e+001 2.333721e+001 3.683096e+001 3.383128e+001 1.943414e+001 6.067201e+001 4.159201e+001 3.575454e+001 4.830883e+001 2.919430e+001 6.632335e-001 7.177380e-001 2.270058e+000 1.626507e+000 1.753939e+000 2.601458e+000 2.219803e+000 3.054164e+000 2.959342e+000 2.622490e+000 2.165234e+000 2.151683e+000 7.605968e-001
<GCONST> 9.315359e+001
~s "ST_i_4_1"
<MEAN> 25
 4.589802e-001 6.754553e+000 1.369354e+001 4.296250e+000 -1.286253e+001 -6.863941e+000 -1.309653e+000 -1.217194e+000 -5.148579e+000 6.472517e-001 2.331780e-001 5.651458e-001 1.412076e+000 -5.671847e-001 -1.751896e+000 -7.046683e-002 1.251094e+000 1.976798e+000 -3.350576e-001 1.491773e-001 -4.741284e-002 -3.613247e-001 -1.055226e+000 3.229602e-002 -2.228817e+000
<VARIANCE> 25
 2.075502e+001 2.863390e+001 3.291604e+001 2.587397e+001 3.884433e+001 9.617241e+001 3.724068e+001 6.375300e+001 2.733516e+001 3.101239e+001 4.709589e+001 4.115733e+001 2.268267e+000 1.982818e+000 2.271158e+000 1.914249e+000 2.384485e+000 4.008515e+000 2.372191e+000 5.174905e+000 2.380756e+000 2.503371e+000 3.218850e+000 2.814017e+000 1.984850e+000
<GCONST> 1.018042e+002
~s "ST_l_2_1"
<MEAN> 25
 -2.279571e+000 2.978987e+000 6.363605e+000 6.586551e+000 -5.047907e+000 -4.852399e-001 -2.590678e+000 4.969663e+000 -5.480078e-001 -5.005229e+000 -4.259764e+000 1.303622e+000 -1.808378e-002 -1.386954e-001 2.313076e-001 -4.205207e-001 -1.437460e-003 9.262652e-001 -6.533705e-001 -7.064218e-001 4.303909e-001 2.564958e-001 -9.200827e-002 2.893196e-001 -4.252782e-001
<VARIANCE> 25
 3.895894e+001 4.360783e+001 2.697299e+001 5.752235e+001 2.340627e+001 1.278830e+002 4.300008e+001 6.499180e+001 4.376398e+001 7.449548e+001 6.385773e+001 3.873878e+001 2.625296e+000 1.964698e+000 3.063138e+000 3.666995e+000 2.721375e+000 6.536105e+000 6.368495e+000 6.896011e+000 4.842588e+000 5.631388e+000 5.611218e+000 3.237075e+000 1.848385e+000
<GCONST> 1.101140e+002
~s "ST_l_3_1"
<MEAN> 25
 4.845150e+000 2.974788e+000 1.066870e+001 4.919009e+000 -6.669825e+000 -5.250969e-001 -7.898462e+000 -7.138318e+000 3.853356e+000 3.420927e+000 -9.557657e-001 1.288274e+000 1.749482e+000 9.335436e-001 8.283493e-001 4.571133e-001 6.434605e-001 -2.706977e+000 -1.968846e+000 -2.457031e+000 -6.373592e-002 1.303703e+000 1.120567e+000 -2.071728e+000 1.929797e+000
<VARIANCE> 25
 2.718618e+001 4.744552e+001 2.643876e+001 2.583343e+001 4.274260e+001 5.312621e+001 4.446143e+001 8.239078e+001 5.374729e+001 4.650744e+001 6.795353e+001 2.748810e+001 3.162088e+000 5.507151e+000 3.170044e+000 4.791670e+000 8.222307e+000 8.072141e+000 6.150268e+000 6.325273e+000 5.317125e+000 3.902169e+000 7.456825e+000 3.788381e+000 2.363451e+000
<GCONST> 1.115940e+002
~s "ST_l_4_1"
<MEAN> 25
 6.551392e+000 1.343816e+000 7.213749e+000 8.105533e-004 1.574590e-001 -8.017764e+000 -1.063684e+001 -1.307092e+001 2.568614e+000 6.690417e+000 6.022565e+000 -6.703517e+000 -5.351958e-001 -4.674431e-001 -7.534202e-001 -1.118613e+000 9.848247e-001 -1.528720e+000 1.506220e+000 1.280162e+000 -1.097597e+000 -6.414044e-001 1.853549e+000 -6.140707e-001 1.599672e+000
<VARIANCE> 25
 1.285481e+001 3.972366e+001 5.125182e+001 8.964125e+001 6.766640e+001 7.460915e+001 4.834357e+001 1.443403e+002 4.906307e+001 4.341320e+001 7.350096e+001 3.956754e+001 1.175916e+000 1.692165e+000 3.302691e+000 5.147247e+000 9.119815e+000 5.840838e+000 4.646164e+000 9.331545e+000 3.346168e+000 5.776373e+000 5.689892e+000 4.364405e+000 1.393013e+000
<GCONST> 1.114030e+002
~s "ST_b_2_1"
<MEAN> 25
 3.079847e+00 4.597312e+00 8.847422e+00 5.596343e+00 -1.891515e+00 6.921150e+00 -2.737613e+00 -4.715580e+00 -4.284455e+00 -3.029238e+00 -6.043067e+00 2.190878e+00 2.617090e-02 3.975622e-01 4.815677e-01 4.735119e-01 5.432663e-01 1.904335e-01 -1.075862e-01 -2.654939e-01 -1.089630e-01 -1.116022e-01 -4.877473e-02 -5.486363e-02 3.320792e-01
<VARIANCE> 25
 2.140253e+01 2.578780e+01 2.481373e+01 1.690094e+01 2.237159e+01 3.370602e+01 2.746883e+01 1.733826e+01 2.390141e+01 2.349013e+01 1.782462e+01 1.942423e+01 1.946881e+00 1.818452e+00 2.032544e+00 1.704262e+00 1.574854e+00 3.357673e+00 2.876006e+00 1.972735e+00 2.872006e+00 2.584923e+00 2.287994e+00 1.395775e+00 7.721547e-01
<GCONST> 9.208328e+01
~s "ST_b_3_1"
<MEAN> 25
 3.390399e-002 -3.909348e-001 5.693043e+000 6.355587e+000 -8.407668e-001 -6.080708e+000 -8.318330e+000 -1.702676e+000 4.990263e+000 -1.650593e-001 1.469959e+000 3.970643e+000 9.973896e-001 -1.357344e+000 5.622325e-002 8.081878e-001 -7.913070e-001 -5.319496e+000 -1.608055e+000 9.594730e-001 1.198305e+000 -4.375834e-001 2.604180e+000 4.984705e-001 4.913041e+000
<VARIANCE> 25
 5.434793e+001 1.699702e+001 1.930680e+001 2.683132e+001 3.483276e+001 1.548765e+002 5.976753e+001 3.682206e+001 5.890181e+001 4.652887e+001 5.623009e+001 2.229894e+001 6.311270e+000 1.961840e+000 3.507074e+000 3.006102e+000 4.118554e+000 6.674622e+000 8.084321e+000 4.935373e+000 1.187830e+001 7.921026e+000 3.831653e+000 2.963492e+000 2.796462e+000
<GCONST> 1.102392e+002
~s "ST_b_4_1"
<MEAN> 25
 1.946645e+000 -2.285851e+000 1.206866e+001 6.909730e+000 -1.126633e+001 -2.016150e+001 -4.558266e+000 2.105148e+000 -1.465149e+000 -3.565708e+000 9.351993e+000 4.841526e+000 -1.068623e-001 2.067072e-001 2.379836e-001 -1.447826e-001 -3.475864e-001 -1.657042e-001 5.505733e-001 1.660154e-001 -2.068034e-001 1.332309e-002 7.527224e-002 -9.026227e-002 -8.023033e-002
<VARIANCE> 25
 1.148124e+001 9.421947e+000 1.585232e+001 1.591835e+001 2.553627e+001 2.636281e+001 2.135504e+001 2.166816e+001 2.650819e+001 1.872727e+001 1.565636e+001 1.156490e+001 9.245893e-001 6.636690e-001 9.819723e-001 1.018443e+000 1.265427e+000 1.199277e+000 1.468702e+000 1.731640e+000 1.436470e+000 1.176815e+000 1.210935e+000 1.016701e+000 5.758465e-001
<GCONST> 8.126026e+001
~s "ST_o_2_1"
<MEAN> 25
 9.206023e+000 3.066536e+000 -1.657800e+001 -1.508935e+000 -4.313596e+000 5.938053e-001 5.623883e+000 -4.233503e-001 -2.757967e+000 -7.439125e+000 1.096655e+001 1.358748e+001 5.843750e-001 -1.770795e-001 -2.128120e+000 -3.913642e-001 1.942287e+000 -2.720636e+000 3.469276e+000 6.100367e-002 -1.278440e-001 1.226654e-001 9.732992e-001 1.052843e+000 1.628556e+000
<VARIANCE> 25
 2.269580e+001 8.802764e+000 1.998973e+001 1.284514e+001 9.504841e+001 8.202813e+001 7.739718e+001 3.578430e+001 5.666462e+001 4.922286e+001 2.252632e+001 4.921077e+001 3.305498e+000 1.358692e+000 1.953030e+000 1.492114e+000 2.799437e+000 1.029472e+001 3.502595e+000 1.491511e+000 3.069350e+000 2.620409e+000 4.098198e+000 3.561247e+000 3.770068e-001
<GCONST> 1.000006e+002
~s "ST_o_3_1"
<MEAN> 25
 8.465322e+000 3.057840e+000 -1.801546e+001 -6.120703e+000 4.232114e+000 -6.516599e+000 1.348119e+001 -5.114760e-001 -2.503574e+000 -6.183244e+000 1.258264e+001 1.493468e+001 -9.535562e-002 9.342194e-002 3.922934e-001 -1.908908e-001 1.423608e-001 -2.422432e-001 -1.686065e-002 1.422487e-001 -1.947817e-001 -9.415364e-003 -3.403331e-001 -4.125287e-001 -2.360144e-001
<VARIANCE> 25
 1.542336e+001 1.118552e+001 8.644756e+000 2.352715e+001 4.778025e+001 2.686300e+001 2.152765e+001 2.854185e+001 3.522543e+001 3.978032e+001 3.261279e+001 2.260464e+001 9.553456e-001 4.252233e-001 1.131231e+000 1.297845e+000 3.566337e+000 2.619314e+000 2.734057e+000 1.817478e+000 1.677240e+000 2.173504e+000 1.589105e+000 1.567098e+000 7.318701e-001
<GCONST> 8.905322e+001
~s "ST_o_4_1"
<MEAN> 25
 4.599967e+000 5.347867e+000 -2.190903e+000 -4.265641e+000 -4.161306e+000 9.974533e+000 6.752231e+000 -7.057922e-002 -6.475450e+000 -8.434446e+000 8.266857e-001 4.685323e+000 -1.311295e+000 -6.006083e-001 2.034408e+000 4.430172e-001 -6.436453e-001 1.653830e+000 -1.535854e+000 4.073198e-001 3.898230e-001 9.993173e-001 -1.338058e+000 -8.052798e-001 -1.863054e+000
<VARIANCE> 25
 2.643167e+01 2.178863e+01 7.234596e+01 1.268101e+01 3.820073e+01 1.077423e+02 5.022045e+01 3.019081e+01 1.840587e+01 5.728724e+01 6.474201e+01 3.275996e+01 1.651031e+00 2.404859e+00 4.062703e+00 1.096780e+00 4.070170e+00 8.046540e+00 3.891272e+00 3.330450e+00 2.721097e+00 4.062305e+00 6.039456e+00 2.461962e+00 9.358449e-01
<GCONST> 1.033510e+02
~s "ST_e_2_1"
<MEAN> 25
 -8.235647e-001 4.659951e-001 5.449782e+000 3.391149e+000 -5.650413e+000 -7.390171e+000 -2.294587e+000 1.461341e+000 -6.380454e-001 -1.756821e+000 1.075259e+000 2.275373e+000 7.765796e-001 -6.298368e-001 -2.705112e-001 2.475575e-001 -2.194187e-003 -3.461966e+000 1.153483e+000 1.067204e+000 9.643098e-001 -1.857173e-001 1.693450e+000 -2.301270e-001 1.720011e+000
<VARIANCE> 25
 2.058132e+001 1.722110e+001 5.847428e+001 2.028333e+001 4.725113e+001 1.777594e+002 3.894845e+001 2.887137e+001 3.015461e+001 2.709755e+001 5.931914e+001 2.344351e+001 3.288093e+000 2.561109e+000 2.024662e+000 2.402960e+000 2.544010e+000 9.613098e+000 3.129007e+000 5.125854e+000 3.179943e+000 3.905403e+000 4.839593e+000 2.730057e+000 4.357101e+000
<GCONST> 1.051571e+002
~s "ST_e_3_1"
<MEAN> 25
 1.167575e+000 -6.169268e-001 9.513558e-001 1.041866e+000 -2.239439e+000 -2.143037e+001 4.939556e+000 7.107440e+000 4.521060e+000 3.926901e+000 6.636363e+000 -1.686882e+000 1.012764e+000 -5.983163e-001 -8.384693e-002 -4.160891e-001 -4.212605e-001 -5.455424e+000 8.426353e-001 8.035940e-001 5.963517e-001 6.292787e-001 1.766377e+000 -9.378689e-001 4.681159e+000
<VARIANCE> 25
 2.352902e+001 1.889376e+001 4.380794e+001 2.323795e+001 5.817519e+001 1.076262e+002 7.163717e+001 5.033028e+001 2.962816e+001 4.182573e+001 4.300527e+001 3.819911e+001 1.420047e+000 1.254907e+000 3.732318e+000 1.780401e+000 4.439468e+000 1.757503e+001 5.520940e+000 6.341689e+000 2.990776e+000 4.260047e+000 5.928444e+000 3.426405e+000 6.131730e+000
<GCONST> 1.081822e+002
~s "ST_e_3_2"
<MEAN> 25
 3.409168e+000 3.752647e-001 7.681228e+000 9.967134e+000 -7.279087e+000 -1.412155e+001 -6.930379e-002 6.212898e+000 3.807743e-001 -4.359939e+000 2.196802e+000 3.278172e+000 -1.973754e-001 -1.302372e-001 -4.531818e-001 -2.469500e-001 5.870328e-001 1.384241e+000 -2.734326e-001 -1.910722e-001 2.943980e-001 -2.017922e-001 -7.235422e-001 -4.098517e-002 -1.463132e+000
<VARIANCE> 25
 1.410182e+001 2.035677e+001 4.402082e+001 2.857655e+001 4.616189e+001 1.273513e+002 5.472167e+001 3.992471e+001 3.026189e+001 3.881710e+001 8.844865e+001 4.126072e+001 1.247644e+000 8.527923e-001 1.965716e+000 3.291871e+000 3.161500e+000 8.318002e+000 4.248410e+000 3.134126e+000 2.265765e+000 3.033502e+000 5.532103e+000 2.347510e+000 2.288674e+000
<GCONST> 1.034906e+002
~s "ST_e_4_1"
<MEAN> 25
 3.142502e+000 -6.666797e-002 7.222996e+000 4.045092e+000 -8.256278e+000 -1.781348e+001 9.338387e-001 2.916909e+000 -1.178343e+000 -2.194626e+000 8.091883e+000 8.379450e-001 -1.584641e-002 1.367050e-001 -1.476078e-001 3.013323e-002 1.562085e-001 7.005500e-001 3.002308e-002 -3.168586e-002 -1.839879e-001 -4.427778e-002 -3.810041e-001 -3.453397e-002 -8.532479e-001
<VARIANCE> 25
 1.393133e+001 1.898522e+001 1.296008e+001 1.979613e+001 2.068815e+001 6.171874e+001 3.917614e+001 2.905912e+001 2.772184e+001 2.790836e+001 5.597776e+001 2.858518e+001 9.069626e-001 1.045708e+000 8.986812e-001 1.300087e+000 1.249874e+000 3.148914e+000 2.182305e+000 1.710567e+000 1.874403e+000 1.998956e+000 2.343740e+000 1.799598e+000 1.564525e+000
<GCONST> 9.128838e+001
~s "ST_e_4_2"
<MEAN> 25
 2.881295e+000 6.271039e-001 1.170932e+001 7.583714e+000 -1.095028e+001 -2.004557e+001 -2.928766e-001 3.532925e+000 -4.785558e+000 -3.833235e+000 8.482828e+000 3.696339e+000 1.090624e-001 4.713132e-002 -2.927675e-001 -1.439734e-001 2.935999e-001 5.486240e-001 1.842625e-001 1.111751e-001 1.485858e-001 7.921914e-002 -3.439529e-001 -9.345731e-002 -8.289990e-001
<VARIANCE> 25
 1.753231e+01 1.757080e+01 2.178934e+01 2.478086e+01 2.007508e+01 6.397778e+01 4.321653e+01 4.237925e+01 3.017687e+01 2.828517e+01 4.630428e+01 2.153598e+01 1.026437e+00 1.051978e+00 1.076062e+00 1.717347e+00 1.478010e+00 3.051354e+00 2.234007e+00 1.867825e+00 1.962064e+00 1.630255e+00 1.971427e+00 1.356045e+00 1.366550e+00
<GCONST> 9.237802e+01
~s "ST_e_4_3"
<MEAN> 25
 2.824736e+000 -4.742086e+000 1.009864e-001 -2.979424e+000 7.402412e-001 -2.344471e+001 5.030659e+000 8.405789e+000 5.347347e+000 1.902160e+000 4.157122e+000 -1.971519e+000 -4.336973e-002 -1.140535e-001 -7.809372e-002 3.006477e-002 2.166095e-001 3.943842e-001 1.121877e-001 2.097484e-001 -3.630515e-001 -2.936988e-001 -2.487101e-001 -1.021581e-001 1.151928e-001
<VARIANCE> 25
 8.688961e+000 8.249640e+000 2.150590e+001 9.677366e+000 2.690003e+001 3.970099e+001 3.795668e+001 3.863226e+001 2.615588e+001 3.768359e+001 3.267408e+001 2.253144e+001 9.311223e-001 8.491986e-001 1.504884e+000 1.173844e+000 2.060120e+000 2.028147e+000 2.533189e+000 1.695980e+000 2.110731e+000 2.178404e+000 2.213809e+000 1.616037e+000 1.423622e+000
<GCONST> 8.969141e+001
~s "ST_r_2_1"
<MEAN> 25
 -2.121814e+000 1.650992e+000 -3.321257e+000 1.923470e-002 4.155441e+000 8.485386e+000 -7.148272e+000 -5.335371e+000 -1.030026e-001 2.699444e+000 7.027939e+000 2.210158e+000 6.876183e-001 -1.006039e-002 -1.002128e+000 -2.102532e-001 9.556465e-002 -1.360685e-001 -1.888558e-001 1.032037e-001 4.816200e-001 -6.894535e-001 1.256025e+000 8.516329e-001 1.075875e+000
<VARIANCE> 25
 3.352196e+001 2.037069e+001 3.468999e+001 2.004662e+001 3.188603e+001 2.196669e+002 3.570607e+001 6.737726e+001 3.930975e+001 3.344769e+001 5.013060e+001 3.033336e+001 5.940768e+000 1.702220e+000 4.122759e+000 2.085284e+000 4.279596e+000 7.972701e+000 3.984695e+000 3.493051e+000 3.994268e+000 4.704663e+000 4.558540e+000 2.842923e+000 1.884810e+000
<GCONST> 1.069234e+002
~s "ST_r_3_1"
<MEAN> 25
 3.553385e+000 -5.274163e+000 -7.057446e+000 -1.446708e+000 4.230948e+000 -1.635965e+001 -1.507613e-001 3.497903e+000 6.411510e+000 1.924436e+000 4.699826e+000 2.026390e+000 3.943205e-001 -6.081830e-002 -7.954993e-001 1.005263e-001 1.983399e-001 1.181496e-001 5.675409e-001 -1.148475e-001 2.250725e-001 -6.442983e-001 -1.806377e-001 4.245245e-001 -1.188346e-001
<VARIANCE> 25
 1.715676e+001 2.302605e+001 2.074823e+001 1.450166e+001 1.772051e+001 1.078288e+002 4.834274e+001 3.388059e+001 2.169724e+001 3.272034e+001 1.151806e+002 2.015735e+001 1.581734e+000 6.695358e-001 6.808221e-001 8.702905e-001 1.787873e+000 9.808308e-001 1.180861e+000 1.558390e+000 1.483003e+000 2.888522e+000 2.146356e+000 1.720584e+000 7.651557e-001
<GCONST> 9.010345e+001
~s "ST_r_4_1"
<MEAN> 25
 3.236482e+000 -1.217931e+000 -1.152942e+001 3.867685e+000 3.626138e+000 -7.324404e+000 -2.779530e+000 -2.802157e-001 7.923353e+000 -3.162763e+000 1.273433e+000 4.060565e+000 5.590333e-002 2.168399e-001 2.354266e-001 3.168401e-001 -5.763426e-001 2.887108e-001 -1.129703e-001 -9.708042e-002 -3.240094e-001 -2.656869e-001 -5.044762e-001 2.700756e-001 -4.389555e-001
<VARIANCE> 25
 1.269022e+001 1.534425e+001 3.428680e+001 3.896650e+001 2.930132e+001 1.023501e+002 4.418339e+001 5.300061e+001 2.819168e+001 3.711460e+001 7.181880e+001 4.913570e+001 1.743547e+000 1.684733e+000 3.301818e+000 2.553881e+000 2.060256e+000 7.488052e+000 5.125477e+000 3.026755e+000 2.989602e+000 4.341259e+000 3.804498e+000 2.108421e+000 2.048060e+000
<GCONST> 1.033522e+002
~s "ST_h_2_1"
<MEAN> 25
 -4.411903e+000 -2.379268e+000 -3.773162e+000 -9.014652e-001 5.202002e+000 1.032168e+001 -6.100799e+000 -1.376954e-001 3.213735e+000 2.813704e+000 4.262928e+000 1.305888e+000 -7.664756e-001 -7.187465e-001 -7.900264e-002 2.810354e-002 3.967678e-002 -7.947408e-003 1.682120e-001 -7.794063e-002 7.123917e-001 9.100877e-001 1.866629e-001 -2.742250e-001 -1.548031e-001
<VARIANCE> 25
 1.286018e+01 1.673912e+01 5.148912e+01 3.084085e+01 4.842531e+01 4.884034e+01 3.378365e+01 6.360307e+01 5.551778e+01 5.786358e+01 1.130680e+02 4.046822e+01 1.993857e+00 1.134337e+00 2.054781e+00 2.163997e+00 6.672665e+00 3.223690e+00 2.741926e+00 3.117406e+00 4.492058e+00 4.084777e+00 7.359879e+00 2.187277e+00 4.085927e+00
<GCONST> 1.052518e+02
~s "ST_h_3_1"
<MEAN> 25
 -1.181885e+01 -7.896362e+00 -5.655406e+00 -1.491546e+00 1.170377e+01 1.156440e+01 3.354058e+00 3.389137e+00 7.488373e+00 7.371863e+00 8.293837e+00 -8.914425e-01 5.543086e-01 5.953918e-01 -5.251392e-01 -6.441447e-01 1.210951e-01 -3.991293e-01 1.055972e-01 1.144856e-01 -3.000498e-01 -5.898356e-01 -6.921010e-02 -2.359752e-01 1.267357e+00
<VARIANCE> 25
 3.267575e+01 2.309248e+01 1.927960e+01 2.753823e+01 4.682883e+01 3.339027e+01 3.755642e+01 4.621380e+01 3.486911e+01 3.553532e+01 3.626381e+01 2.979247e+01 3.647515e+00 3.515241e+00 1.926057e+00 4.018176e+00 2.574516e+00 3.236886e+00 3.625207e+00 4.398109e+00 2.622351e+00 3.821659e+00 2.798227e+00 2.784560e+00 2.200783e+00
<GCONST> 1.024023e+02
~s "ST_h_4_1"
<MEAN> 25
 1.171204e+000 8.572937e-001 -1.595301e+001 -1.584595e+001 1.677832e+001 4.406900e+000 1.704993e+000 -6.107302e-001 3.406148e+000 -1.352792e+000 1.180844e+001 -7.417269e+000 2.260261e-001 1.206196e-001 -2.325182e-001 1.244346e-002 1.346917e-001 -1.522888e-001 1.815924e-001 2.701587e-002 -1.294955e-001 -4.129840e-002 -3.150583e-002 -2.420257e-001 -4.369853e-001
<VARIANCE> 25
 1.698436e+001 7.319235e+000 2.733742e+001 3.242374e+001 3.983693e+001 1.639684e+001 2.741330e+001 3.590881e+001 4.838177e+001 2.965253e+001 3.725811e+001 3.353506e+001 8.944865e-001 5.541906e-001 1.061879e+000 1.446889e+000 1.300927e+000 1.092873e+000 1.449799e+000 1.656943e+000 1.582782e+000 1.663804e+000 1.801119e+000 1.502295e+000 7.458495e-001
<GCONST> 8.795635e+001
~s "ST_u_2_1"
<MEAN> 25
 1.384675e+000 3.423181e+000 -5.405490e-001 -8.532522e-001 1.271022e+000 -5.865182e-001 -7.504982e+000 -1.000802e+001 -1.686978e+000 3.132958e+000 1.111581e+001 2.086779e+000 2.309615e+000 2.048695e+000 -1.343265e+000 -1.080484e+000 -4.594772e-001 -1.121529e-001 2.482802e-001 -2.662648e+000 -2.743310e+000 -5.797322e-002 3.451030e+000 -9.704065e-002 1.820198e+000
<VARIANCE> 25
 8.445342e+001 3.928782e+001 3.048670e+001 5.628000e+001 4.603440e+001 5.412795e+001 8.614134e+001 9.247290e+001 9.329470e+001 5.460764e+001 8.954886e+001 4.724775e+001 8.222482e+000 2.220421e+000 2.615752e+000 4.596168e+000 6.279024e+000 9.463309e+000 9.001180e+000 6.520491e+000 1.121729e+001 6.787922e+000 6.979283e+000 4.915814e+000 7.283319e+000
<GCONST> 1.185933e+002
~s "ST_u_3_1"
<MEAN> 25
 9.762065e+000 1.198730e+001 -3.777242e+000 -9.621330e+000 -1.063816e+001 7.081432e+000 7.964991e-001 -1.087122e+001 -9.120317e+000 -2.489928e+000 1.145394e+001 2.657627e+000 4.889536e-002 3.773127e-001 8.555160e-002 -6.939157e-001 -3.693894e-001 4.364320e-001 5.990039e-001 4.653299e-001 9.917317e-002 -2.077280e-001 -4.718584e-001 -8.241532e-002 -5.135118e-001
<VARIANCE> 25
 2.117566e+001 1.974954e+001 2.125871e+001 3.753585e+001 5.571880e+001 4.242347e+001 2.573732e+001 5.095385e+001 6.635607e+001 5.692545e+001 8.908352e+001 3.849679e+001 7.493664e-001 1.181167e+000 1.200613e+000 2.431088e+000 2.394863e+000 2.746145e+000 2.478883e+000 3.123919e+000 3.150782e+000 2.665723e+000 3.974086e+000 1.811682e+000 9.287236e-001
<GCONST> 9.889658e+001
~s "ST_u_4_1"
<MEAN> 25
 6.390789e+000 6.516604e+000 -1.857223e+000 -6.751548e+000 -1.691025e+000 6.350732e+000 -2.468271e+000 -1.060668e+001 -5.948220e+000 1.585103e+000 1.331023e+001 7.843174e-001 -9.186860e-001 -1.430457e+000 2.222346e-001 1.307806e+000 1.367433e+000 -3.967161e-001 -9.007881e-001 5.194562e-001 1.105220e+000 7.606888e-001 -5.749431e-001 -4.149909e-001 -2.849485e-001
<VARIANCE> 25
 1.917743e+001 2.121697e+001 3.422361e+001 6.333176e+001 4.491806e+001 5.987691e+001 5.781314e+001 6.188963e+001 3.756382e+001 6.086463e+001 1.211582e+002 5.929080e+001 9.122145e-001 1.381280e+000 1.791820e+000 2.224695e+000 2.276531e+000 4.425324e+000 2.582175e+000 5.104070e+000 3.526716e+000 4.434246e+000 6.878603e+000 3.861227e+000 2.353031e+000
<GCONST> 1.057182e+002
~s "ST_k_2_1"
<MEAN> 25
 -3.963227e+000 -3.559786e+000 -3.127703e+000 -1.853929e+000 3.945225e+000 1.095587e+001 -7.624294e+000 4.764784e+000 4.040626e+000 5.074592e+000 5.966258e-002 -5.643509e-001 -6.555676e-001 -9.340490e-001 -3.530293e+000 -1.343594e+000 2.648589e+000 -5.558184e-001 -3.696672e+000 2.475631e+000 1.949502e+000 1.821979e+000 3.707135e+000 -1.306005e+000 4.566306e+000
<VARIANCE> 25
 8.266710e+000 1.567157e+001 6.134871e+001 3.805574e+001 6.546740e+001 4.829619e+001 7.957648e+001 3.802177e+001 4.698528e+001 4.331538e+001 6.511436e+001 3.378858e+001 1.261297e+000 2.713600e+000 4.028738e+000 3.051695e+000 4.971273e+000 6.933557e+000 6.026415e+000 3.929191e+000 3.780392e+000 4.247054e+000 3.434616e+000 4.202168e+000 4.379701e+000
<GCONST> 1.073218e+002
~s "ST_k_3_1"
<MEAN> 25
 -1.944241e+000 -9.123287e-001 -1.065170e+001 -2.939102e+000 8.190409e+000 -4.386206e+000 -1.344793e+001 9.175470e+000 5.252571e+000 1.868801e+000 1.004085e+001 -4.590866e+000 1.943179e+000 1.094064e+000 1.328244e-002 6.098115e-002 3.570232e-001 -5.062026e+000 2.232141e+000 -6.779986e-001 -9.244310e-001 -2.938434e+000 1.049942e+000 -5.454956e-001 2.321567e+000
<VARIANCE> 25
 3.556001e+001 3.021053e+001 3.347570e+001 2.782731e+001 3.334908e+001 1.665965e+002 5.393063e+001 7.826511e+001 3.680067e+001 7.334880e+001 4.114469e+001 2.855100e+001 2.756160e+000 3.069684e+000 5.136013e+000 2.791579e+000 3.150045e+000 7.739011e+000 5.807692e+000 4.409269e+000 2.966170e+000 4.698471e+000 4.585811e+000 3.112983e+000 3.501056e+000
<GCONST> 1.094841e+002
~s "ST_k_4_1"
<MEAN> 25
 7.794988e+000 1.763934e+000 -7.409207e+000 -1.962948e+000 5.455310e+000 -9.157612e+000 -7.857228e-001 -8.716203e+000 9.340100e+000 1.801109e+000 1.441134e+001 -7.895085e+000 3.536468e-002 1.281339e-001 3.692109e-002 1.984490e-002 5.062918e-002 4.844287e-001 5.707551e-001 -4.026419e-001 1.303929e-001 1.452061e-001 -5.356660e-001 -3.271097e-002 -3.477711e-001
<VARIANCE> 25
 1.335267e+001 2.137729e+001 1.806755e+001 2.784208e+001 2.566627e+001 6.031714e+001 2.848086e+001 7.106591e+001 3.300591e+001 6.047964e+001 4.476131e+001 1.492234e+001 5.512359e-001 1.027627e+000 1.083444e+000 1.519051e+000 1.199113e+000 1.865514e+000 2.218294e+000 2.395813e+000 1.967621e+000 2.495756e+000 2.060976e+000 1.291810e+000 1.338737e+000
<GCONST> 9.215031e+001
~s "ST_a_2_1"
<MEAN> 25
 -1.463216e+000 -1.077421e-001 -1.006616e+001 -9.485497e+000 1.289366e+001 7.791656e-001 3.408443e+000 2.219889e+000 5.284716e+000 8.051538e-001 3.188377e+000 -5.378455e+000 5.553734e-001 -1.800293e-001 -2.190444e+000 -2.100719e+000 2.347851e+000 -1.344122e+000 1.060847e-001 5.843370e-001 4.647936e-001 -2.286417e-001 1.270056e+000 -1.006530e+000 3.624695e+000
<VARIANCE> 25
 2.454617e+001 2.378707e+001 9.334566e+001 7.470139e+001 9.666322e+001 5.510092e+001 3.761227e+001 6.413016e+001 4.389976e+001 4.435944e+001 9.096124e+001 3.636765e+001 2.380487e+000 3.159533e+000 7.521406e+000 8.179815e+000 9.626929e+000 3.330250e+000 4.571054e+000 5.529198e+000 5.755977e+000 3.491160e+000 7.797472e+000 3.032349e+000 8.732374e+000
<GCONST> 1.143786e+002
~s "ST_a_2_2"
<MEAN> 25
 6.171988e+000 -5.109180e+000 -9.276898e+000 -1.126395e+001 8.607202e+000 -7.450287e+000 6.330560e+000 -3.986175e-002 6.149091e-001 4.959111e+000 1.237468e+001 -4.823347e+000 -1.419777e+000 -6.199284e-001 -2.585223e+000 -2.765332e+000 4.827790e+000 -1.828655e+000 4.509472e-001 2.305655e+000 1.833350e+000 5.687336e-001 -1.335056e-001 -1.826438e+000 2.842657e+000
<VARIANCE> 25
 1.660649e+001 1.106536e+001 5.672655e+001 6.353234e+001 8.247321e+001 5.460612e+001 5.752488e+001 4.128943e+001 6.587218e+001 5.379336e+001 4.042089e+001 3.825014e+001 2.141786e+000 1.704784e+000 2.710687e+000 7.889759e+000 7.064552e+000 5.516031e+000 8.551291e+000 5.175885e+000 8.195523e+000 4.083482e+000 5.624230e+000 4.589132e+000 3.167361e+000
<GCONST> 1.107770e+002
~s "ST_a_2_3"
<MEAN> 25
 1.016651e+000 -3.383496e+000 -6.104053e+000 -3.183289e+000 6.218660e+000 -1.898521e+001 -2.140412e+000 5.754063e+000 7.578579e+000 3.015884e-001 8.930041e+000 -1.934051e+000 2.022498e-001 -7.919978e-001 -8.574248e-001 -1.590611e+000 9.644400e-001 3.749851e-001 1.961152e+000 5.009165e-002 1.200763e+000 5.722829e-001 -1.138465e-001 -8.230515e-001 2.858669e-001
<VARIANCE> 25
 8.488352e+000 8.492439e+000 4.317772e+001 3.516930e+001 5.561002e+001 2.738038e+001 3.869673e+001 5.863598e+001 3.835253e+001 5.113111e+001 2.487700e+001 2.053140e+001 1.142842e+000 4.569437e-001 1.281224e+000 9.595991e-001 1.057851e+000 2.543051e+000 2.087692e+000 1.660261e+000 3.916435e+000 1.871068e+000 2.204094e+000 2.848771e+000 7.736811e-001
<GCONST> 9.178454e+001
~s "ST_a_3_1"
<MEAN> 25
 1.159847e+00 -1.524064e+00 -1.598001e+01 -1.236561e+01 1.584121e+01 -7.476989e-01 3.108414e+00 4.204251e+00 1.422931e+00 -7.238348e-01 9.029179e+00 -7.312234e+00 3.057199e-01 1.368157e-01 2.882646e-02 5.129688e-01 -2.446405e-01 -1.325476e-01 1.153584e-01 -1.532364e-01 -4.554062e-01 7.950384e-03 -9.217888e-02 -2.013292e-01 -3.972110e-01
<VARIANCE> 25
 1.348051e+01 1.185616e+01 1.268902e+01 2.225142e+01 1.536285e+01 2.213663e+01 2.761278e+01 2.105008e+01 3.697562e+01 3.369565e+01 1.392354e+01 3.905105e+01 7.218333e-01 7.678953e-01 6.777239e-01 9.787970e-01 9.111885e-01 1.387891e+00 8.967276e-01 1.346630e+00 1.705825e+00 1.402721e+00 1.320226e+00 1.320838e+00 7.642779e-01
<GCONST> 8.286721e+01
~s "ST_a_3_2"
<MEAN> 25
 3.837060e+000 -5.270700e+000 -1.057398e+001 -6.422000e+000 9.285436e+000 -1.297631e+001 6.556948e+000 5.159943e-001 8.149865e+000 5.043433e+000 4.808693e+000 -8.218775e+000 8.191619e-003 1.611907e-001 -4.888017e-001 2.887078e-001 4.200768e-001 -8.451579e-002 2.527761e-001 1.789073e-001 -3.651220e-001 -1.971208e-001 -4.989673e-001 2.439317e-002 -5.731418e-001
<VARIANCE> 25
 1.895710e+001 1.108146e+001 2.061602e+001 1.711747e+001 2.431956e+001 3.412928e+001 2.736984e+001 3.768791e+001 4.395303e+001 3.302227e+001 4.322979e+001 3.864211e+001 7.270210e-001 7.624389e-001 1.060042e+000 1.271097e+000 1.390976e+000 1.855818e+000 1.452491e+000 1.612184e+000 1.703511e+000 1.389345e+000 1.941018e+000 1.394837e+000 6.224324e-001
<GCONST> 8.841269e+001
~s "ST_a_3_3"
<MEAN> 25
 3.691531e+00 -6.365865e+00 -1.337362e+01 -8.733638e+00 1.530623e+01 -1.538245e+01 1.047205e+01 3.953808e+00 4.766857e+00 1.481013e+00 6.334361e+00 -6.642623e+00 1.030067e-01 2.308512e-01 -6.372484e-02 3.717145e-01 -9.687261e-02 -4.936177e-02 5.884999e-02 -6.853733e-02 -1.068119e-01 -6.127424e-02 -5.021635e-01 -4.389636e-02 -5.164531e-01
<VARIANCE> 25
 8.628294e+00 1.468423e+01 8.482188e+00 1.106619e+01 1.125823e+01 1.712459e+01 2.799476e+01 3.899198e+01 2.839207e+01 1.905467e+01 3.505061e+01 1.146555e+01 7.028502e-01 5.305910e-01 5.995505e-01 8.790789e-01 1.070388e+00 9.197124e-01 8.982123e-01 1.756556e+00 1.508219e+00 1.294162e+00 2.013870e+00 8.722270e-01 4.629898e-01
<GCONST> 7.915276e+01
~s "ST_a_3_4"
<MEAN> 25
 1.637643e+000 -4.274004e+000 -1.304158e+001 -1.392712e+001 1.596788e+001 -7.173913e+000 5.395518e+000 1.764093e+000 4.648077e+000 5.621269e+000 4.743279e+000 -5.828789e+000 1.935369e-001 2.600071e-001 -4.959700e-001 1.672239e-001 -5.895341e-002 1.980114e-001 3.763369e-001 -2.186852e-001 -4.003368e-001 -6.323508e-002 2.072095e-001 1.269185e-001 -4.098535e-001
<VARIANCE> 25
 1.664989e+001 8.873876e+000 1.657819e+001 1.879066e+001 1.110750e+001 3.808729e+001 4.477525e+001 3.091235e+001 4.021564e+001 3.659992e+001 2.301203e+001 1.977982e+001 8.512423e-001 5.891655e-001 7.810486e-001 6.914836e-001 1.180904e+000 1.217090e+000 1.093962e+000 1.460519e+000 2.267624e+000 1.909610e+000 1.799505e+000 1.601333e+000 6.250077e-001
<GCONST> 8.495837e+001
~s "ST_a_3_5"
<MEAN> 25
 8.355536e-001 -3.992587e+000 -1.540675e+001 -7.759029e+000 1.446871e+001 -1.256167e+001 4.041789e+000 8.621637e+000 7.708859e-001 -1.277444e+000 6.939939e+000 -8.192047e+000 2.152113e-001 -1.229405e-002 1.691149e-001 7.132105e-003 -1.909104e-001 2.590742e-001 2.217680e-001 -4.837800e-001 1.071520e-001 7.724407e-001 -4.890329e-001 -1.649656e-001 -3.314374e-001
<VARIANCE> 25
 1.311044e+001 4.961583e+000 1.125738e+001 1.622319e+001 1.123209e+001 1.970918e+001 1.887352e+001 2.089163e+001 2.103073e+001 3.678068e+001 2.970055e+001 2.002840e+001 6.598817e-001 4.286789e-001 8.173278e-001 6.725742e-001 7.609610e-001 1.275638e+000 1.345042e+000 1.223148e+000 1.315207e+000 1.262360e+000 1.144893e+000 9.007066e-001 1.908317e-001
<GCONST> 7.723415e+001
~s "ST_a_3_6"
<MEAN> 25
 1.651165e+000 -4.390919e+000 -1.815113e+001 -1.171313e+001 1.728188e+001 -6.205001e+000 8.057923e+000 5.905058e+000 2.195800e+000 5.385209e+000 6.950590e+000 -1.027676e+001 -1.239399e-001 -1.478907e-001 2.413281e-001 4.833297e-001 2.795500e-001 -1.171290e+000 -2.704257e-001 2.714378e-001 5.136844e-001 5.264186e-002 -8.792092e-001 -2.164448e-001 -1.335521e-001
<VARIANCE> 25
 1.389607e+001 8.661341e+000 1.987786e+001 1.573911e+001 1.882947e+001 3.184336e+001 3.130720e+001 2.043700e+001 2.158324e+001 1.899284e+001 3.501316e+001 2.508284e+001 7.662435e-001 6.200613e-001 1.008650e+000 1.340560e+000 1.453890e+000 2.474487e+000 1.970788e+000 1.821128e+000 1.475194e+000 1.531649e+000 1.404911e+000 1.873643e+000 5.778824e-001
<GCONST> 8.548477e+001
~s "ST_a_4_1"
<MEAN> 25
 3.141763e+000 1.091266e-001 -8.596931e+000 6.581666e-001 9.107318e+000 4.082205e-001 8.128496e-001 1.660163e+000 3.036493e+000 6.841921e-001 -3.602319e+000 -4.045887e+000 -4.398056e-001 -1.537562e-001 1.262959e+000 6.115001e-001 -9.953758e-001 1.605283e+000 -8.353303e-001 1.166612e-002 7.363833e-002 1.738724e-002 -8.800547e-001 5.758837e-001 -1.787751e+000
<VARIANCE> 25
 1.146606e+001 2.029935e+001 4.861625e+001 2.868638e+001 4.346014e+001 1.096103e+002 5.995595e+001 5.007129e+001 4.865951e+001 4.967349e+001 4.703178e+001 4.092753e+001 9.471142e-001 1.515994e+000 1.515411e+000 2.515781e+000 2.517489e+000 4.585739e+000 3.336420e+000 3.275930e+000 3.559126e+000 3.392597e+000 3.186893e+000 2.754912e+000 1.187488e+000
<GCONST> 1.018392e+002
~s "ST_a_4_2"
<MEAN> 25
 5.668279e+000 -2.182012e+000 -1.237037e+001 -8.830383e+000 1.181499e+001 -1.011503e+001 3.310958e+000 3.487778e+000 9.113544e-001 6.144110e+000 2.210006e+000 -6.218824e+000 1.548153e+000 9.506879e-001 1.525836e+000 9.592557e-001 -1.931802e+000 9.486834e-001 -1.174785e+000 -4.360796e-001 -9.137341e-001 1.259284e-001 -1.013617e+000 8.449886e-001 -2.969970e+000
<VARIANCE> 25
 2.532886e+001 1.504061e+001 3.011565e+001 2.768480e+001 3.362339e+001 5.416818e+001 5.396842e+001 3.807427e+001 3.843152e+001 4.026974e+001 3.012169e+001 2.723491e+001 8.374447e-001 1.266347e+000 1.953036e+000 1.914672e+000 2.222833e+000 4.901058e+000 3.433010e+000 2.424337e+000 3.063692e+000 3.666003e+000 3.517984e+000 2.451461e+000 2.227199e+000
<GCONST> 9.906396e+001
~s "ST_n_2_1"
<MEAN> 25
 1.033212e+001 -1.939329e+000 -6.345505e-001 1.099428e+000 -2.989699e+000 -8.856432e+000 2.138886e+000 -6.587240e-001 -5.753138e+000 4.438146e+000 9.107953e-001 -6.126834e+000 1.606472e+000 9.567295e-001 2.451492e+000 3.579750e+000 -5.196458e+000 3.029833e+000 6.442154e-001 -3.148907e+000 -2.473572e+000 -9.307424e-001 -8.522045e-001 1.036016e+000 -2.487618e+000
<VARIANCE> 25
 1.229221e+001 1.485809e+001 4.263813e+001 4.496357e+001 9.010376e+001 5.322716e+001 3.654079e+001 6.526921e+001 4.081988e+001 3.903674e+001 4.763487e+001 3.718148e+001 1.039819e+000 1.200937e+000 2.796601e+000 2.058866e+000 3.766432e+000 3.925595e+000 4.078362e+000 3.189395e+000 5.326114e+000 4.345193e+000 2.528683e+000 2.972979e+000 1.204403e+000
<GCONST> 1.023954e+002
~s "ST_n_3_1"
<MEAN> 25
 1.206239e+001 3.823365e-001 4.814025e+000 8.976779e+000 -1.712810e+001 -1.366301e+000 3.983522e+000 -7.968228e+000 -9.141321e+000 4.452300e-001 -1.856404e+000 -1.296419e-001 -2.634754e-001 4.864293e-001 5.262203e-001 7.660121e-002 -2.149521e-001 5.169836e-001 -6.077060e-001 8.377002e-002 2.430135e-001 -3.947355e-001 -3.285023e-001 3.882485e-001 -7.431453e-001
<VARIANCE> 25
 5.042471e+000 2.120809e+001 1.736463e+001 2.756757e+001 3.301059e+001 2.751651e+001 3.703716e+001 5.088257e+001 3.224481e+001 5.125428e+001 4.730328e+001 3.568458e+001 5.275607e-001 9.220969e-001 1.013911e+000 2.357329e+000 3.939285e+000 2.073887e+000 3.505630e+000 3.963312e+000 2.744987e+000 2.234944e+000 2.208902e+000 2.634325e+000 3.859514e-001
<GCONST> 9.349049e+001
~s "ST_n_4_1"
<MEAN> 25
 4.291829e+000 2.125814e+000 5.903637e+000 6.761814e+000 -3.429009e+000 4.376660e+000 -5.018005e+000 -1.327725e+000 -6.769126e-002 1.333850e+000 -5.638223e+000 2.392557e+000 -1.224428e+000 -2.996588e-001 -4.164011e-002 -4.989940e-001 1.310556e+000 9.292461e-001 -9.984110e-002 7.166818e-001 8.159744e-001 6.376918e-002 -3.123416e-001 -3.674027e-002 -6.093829e-001
<VARIANCE> 25
 2.202470e+001 1.991712e+001 2.117194e+001 2.219647e+001 5.948603e+001 5.489373e+001 4.396058e+001 3.495190e+001 4.612589e+001 2.926126e+001 3.540767e+001 2.485877e+001 6.079144e-001 1.252391e+000 1.704999e+000 2.624707e+000 4.156928e+000 3.719659e+000 4.936272e+000 3.597684e+000 3.852740e+000 3.707552e+000 2.547547e+000 2.306980e+000 7.699207e-001
<GCONST> 9.860940e+001
~s "ST_d_2_1"
<MEAN> 25
 3.195317e+000 4.642883e+000 7.919896e+000 5.980111e+000 -1.683347e+000 6.007843e+000 -4.582110e+000 -4.138587e-001 -2.458238e+000 -2.339186e+000 -7.552011e+000 1.433698e+000 -4.842028e-001 -1.983042e-001 7.008784e-001 1.318571e-001 4.857688e-001 4.677891e-001 8.190887e-002 6.478543e-001 9.308519e-001 -1.839409e-001 6.646211e-002 4.578693e-001 3.715973e-001
<VARIANCE> 25
 2.960758e+001 2.071787e+001 1.681674e+001 1.607996e+001 1.821256e+001 4.236883e+001 4.101780e+001 4.033982e+001 3.845870e+001 2.284034e+001 2.961258e+001 1.892941e+001 2.247993e+000 3.099345e+000 2.066370e+000 2.881300e+000 2.955181e+000 3.628157e+000 3.794485e+000 4.219800e+000 5.076404e+000 3.949622e+000 3.875436e+000 2.270946e+000 4.426552e+000
<GCONST> 1.006644e+002
~s "ST_d_3_1"
<MEAN> 25
 -6.232893e-001 -3.219535e+000 9.573476e+000 9.840488e-001 -2.005387e+000 -1.353067e+000 -7.604347e+000 3.664156e+000 5.550682e+000 -1.037411e+000 -9.105902e-001 3.960173e+000 -9.267265e-002 -1.345898e+000 -5.172797e-001 -6.795804e-001 -4.793466e-001 -4.366475e+000 -1.263465e+000 -6.811705e-001 1.316082e+000 9.482282e-001 2.010395e+000 -3.203781e-001 4.814508e+000
<VARIANCE> 25
 2.430053e+001 2.792917e+001 3.570385e+001 3.417532e+001 4.125716e+001 1.222750e+002 5.756155e+001 4.732480e+001 6.317031e+001 5.037176e+001 4.270404e+001 3.572319e+001 4.350070e+000 4.461823e+000 5.250657e+000 5.564537e+000 5.916430e+000 7.140440e+000 8.504571e+000 6.362200e+000 1.063769e+001 4.987763e+000 5.245191e+000 5.241220e+000 5.819430e+000
<GCONST> 1.145267e+002
~s "ST_d_4_1"
<MEAN> 25
 6.316481e-001 -3.203229e+000 3.627161e+000 -1.453887e+000 -2.109486e+000 -1.263924e+001 -3.810814e+000 -2.790234e+000 7.647897e+000 5.477031e+000 1.066514e+000 -1.211435e+000 1.576197e-001 1.396489e-001 -6.612915e-001 -6.094030e-002 1.153939e-001 -1.275807e-003 3.686947e-001 -1.190789e-001 2.737778e-001 3.135664e-001 3.549441e-001 -1.998336e-001 2.253242e-001
<VARIANCE> 25
 2.007400e+001 1.528035e+001 2.622504e+001 2.565272e+001 2.031766e+001 6.915285e+001 4.264431e+001 4.441821e+001 5.427624e+001 3.875008e+001 3.193330e+001 2.269377e+001 1.097216e+000 6.608888e-001 1.737127e+000 8.367639e-001 1.201273e+000 2.078137e+000 4.413468e+000 2.120746e+000 2.250989e+000 1.698897e+000 1.704570e+000 1.210752e+000 2.105119e+000
<GCONST> 9.322978e+001
~s "ST_g_2_1"
<MEAN> 25
 -7.224957e-001 2.251305e+000 6.961293e+000 4.895522e+000 -2.623637e+000 7.781396e+000 -1.020812e+000 -5.792321e-001 -2.095738e+000 -1.321065e+000 -7.745266e+000 2.436619e+000 1.063678e+000 1.130563e+000 1.356710e+000 1.008253e+000 1.494458e-001 -5.285506e-002 -5.305533e-001 -3.819957e-001 -4.621241e-001 -2.376075e-001 -2.061216e-001 5.818943e-002 5.133600e-001
<VARIANCE> 25
 1.575497e+001 1.879488e+001 2.190342e+001 1.439591e+001 1.489555e+001 3.196879e+001 1.724851e+001 2.236558e+001 2.991427e+001 1.726535e+001 2.577419e+001 1.707809e+001 1.718357e+000 2.856183e+000 2.614926e+000 2.178629e+000 1.967373e+000 3.557124e+000 2.627729e+000 2.563389e+000 2.784463e+000 1.913056e+000 2.298332e+000 2.236320e+000 6.687141e-001
<GCONST> 9.193780e+001
~s "ST_g_3_1"
<MEAN> 25
 5.523407e+000 8.258491e+000 1.217966e+001 6.117905e+000 -3.752864e+000 6.147551e+000 -3.765727e+000 -1.683405e+000 -4.937121e+000 -1.429756e+000 -6.146162e+000 2.743484e+000 -5.705304e-001 -3.748605e-001 1.303009e-001 4.569392e-002 4.020595e-001 2.360041e-001 -3.943570e-001 1.536340e-001 1.823435e-001 4.260949e-001 2.208646e-001 8.664330e-002 8.502231e-001
<VARIANCE> 25
 1.475912e+001 1.026289e+001 1.124764e+001 8.810437e+000 2.731056e+001 2.845366e+001 2.158486e+001 2.648608e+001 2.997314e+001 2.424413e+001 3.828169e+001 2.427157e+001 3.996438e+000 2.924340e+000 1.818388e+000 1.314350e+000 3.515840e+000 2.921209e+000 2.659050e+000 3.582979e+000 3.937026e+000 4.358664e+000 3.428257e+000 2.373151e+000 2.334592e+000
<GCONST> 9.569024e+001
~s "ST_g_4_1"
<MEAN> 25
 -7.520773e+000 1.858679e+000 9.506280e+000 5.452542e+000 -5.414036e+000 -3.646761e-001 -7.600963e+000 -1.120415e+000 -7.326339e-001 4.630345e+000 -1.971454e+000 1.843368e+000 -4.344976e-001 -2.101764e-001 -8.973656e-002 6.059583e-002 -8.190905e-001 -3.627118e+000 -4.808625e-001 1.450941e-001 1.109451e-001 1.011324e-001 2.053528e+000 1.603608e-002 3.445823e+000
<VARIANCE> 25
 3.623555e+001 2.805899e+001 4.092706e+001 3.277104e+001 3.921965e+001 1.187097e+002 5.186337e+001 4.075585e+001 4.200430e+001 4.420166e+001 4.786359e+001 3.795898e+001 9.695560e+000 5.395474e+000 5.193302e+000 4.231163e+000 4.151114e+000 5.865646e+000 4.199104e+000 4.805782e+000 7.092195e+000 1.041284e+001 4.293251e+000 4.366570e+000 5.187512e+000
<GCONST> 1.133296e+002
~s "ST_t_2_1"
<MEAN> 25
 4.380355e+000 4.670599e+000 -8.525061e-001 -2.110393e+000 3.924385e+000 -1.208885e+000 -3.128235e+000 1.650538e+000 3.465192e-001 1.569850e-001 -5.330128e+000 -4.787885e+000 -1.952930e-001 -4.268373e-001 1.300978e+000 1.431819e+000 -1.470432e+000 2.561830e+000 -6.581910e-001 -3.211996e-001 -1.406527e-001 -1.392651e+000 -1.779291e+000 6.415377e-001 -2.805327e+000
<VARIANCE> 25
 1.924354e+001 1.914428e+001 7.253986e+001 8.099403e+001 7.174862e+001 4.898944e+001 4.233459e+001 3.484152e+001 4.115413e+001 7.481339e+001 3.630218e+001 3.855684e+001 1.360189e+000 1.382240e+000 1.666259e+000 2.508937e+000 5.737626e+000 5.489506e+000 4.463044e+000 3.982255e+000 4.872806e+000 5.669274e+000 4.142636e+000 3.715749e+000 2.871530e+000
<GCONST> 1.067690e+002
~s "ST_t_3_1"
<MEAN> 25
 1.090395e+000 1.211883e+000 2.110019e+000 1.034093e+000 -1.497806e+000 6.848717e+000 -3.537252e+000 -4.764840e-001 6.438179e-001 -1.013526e+000 -8.724780e+000 -1.755601e+000 -1.197070e+000 -9.483649e-001 -2.201556e-002 -2.013013e-001 -6.799186e-001 1.214905e+000 4.663348e-001 -8.615228e-002 2.796572e-001 4.246990e-001 1.892555e-001 4.171099e-001 -8.619238e-001
<VARIANCE> 25
 1.145018e+001 1.396243e+001 5.281897e+001 3.914155e+001 5.097461e+001 2.829865e+001 2.170399e+001 2.869419e+001 3.248854e+001 4.323804e+001 2.380358e+001 2.948393e+001 7.839969e-001 1.056925e+000 1.402567e+000 1.792859e+000 2.871679e+000 2.973040e+000 2.039088e+000 2.747952e+000 2.843287e+000 2.406324e+000 1.463889e+000 2.477489e+000 6.012725e-001
<GCONST> 9.346964e+001
~s "ST_t_4_1"
<MEAN> 25
 -3.272944e+000 -1.873894e+000 2.178397e+000 3.309058e-001 -2.456513e+000 9.387810e+000 -1.045993e+000 -1.176631e-001 8.754792e-001 3.989618e-001 -7.397913e+000 8.116566e-001 -8.720343e-001 -2.768096e-001 9.433861e-002 -5.458874e-002 4.191507e-001 -6.498633e-001 1.810456e-001 1.388005e-001 5.164321e-001 2.644820e-001 7.887114e-001 6.150879e-001 1.027726e+000
<VARIANCE> 25
 2.899028e+000 3.931188e+000 1.676764e+001 1.413799e+001 1.534976e+001 1.878220e+001 1.594765e+001 1.612172e+001 2.629898e+001 2.409441e+001 1.885439e+001 1.601045e+001 1.019250e+000 7.021994e-001 8.942286e-001 1.969133e+000 2.853407e+000 3.585306e+000 2.924350e+000 3.082827e+000 2.843761e+000 3.042163e+000 3.217471e+000 2.174263e+000 4.519531e+000
<GCONST> 8.759054e+001
~s "ST_sil_2_1"
<MEAN> 25
 -2.073944e+000 -2.385638e-001 -1.368522e+000 -1.046317e+000 8.720803e-001 1.031255e+001 6.169095e-001 -2.894436e+000 -6.000428e-001 2.370068e-001 -5.895595e+000 1.154503e-001 -1.431371e-002 1.753846e-003 4.417624e-003 -2.111997e-002 -5.559665e-002 -1.784604e-002 3.462341e-003 -6.322511e-002 -4.569681e-002 -5.737690e-002 -4.588460e-002 3.442990e-003 -1.751609e-002
<VARIANCE> 25
 7.844188e+00 9.352392e+00 1.110342e+01 8.500565e+00 1.275711e+01 1.434503e+01 1.406836e+01 1.619026e+01 1.777755e+01 1.600096e+01 1.413301e+01 1.345294e+01 1.934001e-01 3.102851e-01 5.969707e-01 7.351290e-01 9.619302e-01 1.383067e+00 1.616427e+00 1.774370e+00 1.839485e+00 1.837378e+00 1.634861e+00 1.467023e+00 6.618015e-02
<GCONST> 7.340538e+01
~s "silst"
<MEAN> 25
 -3.656442e+00 -1.193767e+00 3.004222e+00 1.099785e+00 -2.509609e+00 8.364035e+00 -7.233426e-01 -8.095910e-02 -1.220817e+00 -1.201472e+00 -7.349977e+00 2.098055e+00 -4.016356e-02 1.300943e-02 1.440050e-02 -2.080548e-02 -2.092530e-02 2.115291e-02 4.370103e-02 -3.336377e-02 -5.782240e-02 -3.706796e-02 -3.665390e-02 1.836625e-02 -2.189185e-02
<VARIANCE> 25
 3.771149e+00 3.843096e+00 7.442359e+00 8.424103e+00 1.083868e+01 1.668797e+01 1.475158e+01 1.517498e+01 1.724037e+01 1.464701e+01 1.583437e+01 1.366990e+01 1.996289e-01 3.297659e-01 5.793821e-01 8.011117e-01 1.062235e+00 1.363198e+00 1.471953e+00 1.528852e+00 1.575758e+00 1.503081e+00 1.484633e+00 1.318449e+00 8.123700e-02
<GCONST> 7.099312e+01
~s "ST_sil_3_1"
<MEAN> 25
 -3.641723e+000 -1.201550e+000 2.985497e+000 1.117690e+000 -2.479979e+000 8.360177e+000 -7.488332e-001 -7.861133e-002 -1.178707e+000 -1.164647e+000 -7.342390e+000 2.084706e+000 -4.333594e-002 1.368192e-002 1.883609e-002 -2.123622e-002 -2.481441e-002 2.142194e-002 4.984889e-002 -3.196971e-002 -5.956844e-002 -3.732853e-002 -4.223596e-002 1.977033e-002 -2.520211e-002
<VARIANCE> 25
 3.776419e+000 3.875289e+000 7.554894e+000 8.492182e+000 1.090942e+001 1.674736e+001 1.485621e+001 1.516089e+001 1.742855e+001 1.476628e+001 1.573629e+001 1.370344e+001 2.059173e-001 3.331845e-001 5.826404e-001 8.051901e-001 1.073016e+000 1.367425e+000 1.478631e+000 1.533770e+000 1.585993e+000 1.501521e+000 1.502181e+000 1.321190e+000 8.448387e-002
<GCONST> 7.118874e+001
~s "ST_sil_4_1"
<MEAN> 25
 -2.179932e+000 -1.356053e+000 2.558671e+000 1.201874e+000 -2.220180e+000 -1.904424e+000 1.996675e+000 3.343390e+000 6.541247e-001 -1.386237e+000 6.396173e-001 4.852063e-001 1.954944e-002 2.474429e-002 5.763418e-002 6.649807e-002 6.342122e-002 -1.577641e-001 3.174600e-002 9.920873e-002 3.378215e-002 -9.519321e-003 1.927639e-001 6.950603e-002 1.614719e-001
<VARIANCE> 25
 7.207567e+01 3.565897e+01 2.347160e+01 2.525215e+01 3.246851e+01 1.998255e+02 3.206873e+01 4.025789e+01 3.237327e+01 4.026203e+01 7.884009e+01 3.357639e+01 3.419524e+00 2.926553e+00 1.709127e+00 1.747079e+00 2.765068e+00 4.220738e+00 2.690777e+00 3.224996e+00 2.649807e+00 3.324541e+00 3.097377e+00 2.214163e+00 2.675434e+00
<GCONST> 1.042787e+02
~s "ST_j_2_1"
<MEAN> 25
 -5.725893e-01 1.576221e+01 4.343508e+00 5.557551e+00 3.391858e+00 -5.287699e+00 -6.760541e+00 -5.589176e+00 -2.034349e+00 4.496155e-01 -1.203639e+00 -1.325460e+00 -2.793354e+00 2.588174e+00 8.324900e-01 -2.867646e-01 1.447216e+00 8.493230e-01 7.773733e-01 1.309122e+00 2.783193e-01 -8.422129e-01 -2.097821e+00 1.451247e+00 -8.061507e-01
<VARIANCE> 25
 5.331616e+01 6.104160e+01 2.361072e+01 3.500899e+01 3.806116e+01 5.662758e+01 3.207519e+01 5.516138e+01 4.151005e+01 3.780653e+01 8.531441e+01 3.611366e+01 9.397692e+00 2.411870e+00 2.008133e+00 3.671545e+00 5.449982e+00 4.315350e+00 3.392581e+00 4.699067e+00 4.388015e+00 3.603448e+00 7.232713e+00 3.100058e+00 6.769935e+00
<GCONST> 1.101262e+02
~s "ST_j_3_1"
<MEAN> 25
 -2.117905e+01 1.857333e+01 1.279128e+01 1.476529e+00 6.459911e+00 2.626323e-01 -6.538438e+00 3.337358e+00 1.062068e+00 -3.483932e+00 -1.525652e+00 5.288002e+00 5.717856e-01 -2.598842e+00 7.920445e-01 6.513544e-01 -1.249007e+00 -1.653654e+00 -1.760165e+00 -1.951278e-01 5.959986e-01 -4.518040e-02 1.310000e+00 3.980592e-01 1.909638e+00
<VARIANCE> 25
 3.003208e+01 3.958688e+01 3.004512e+01 2.612643e+01 3.082947e+01 5.695641e+01 8.678933e+01 5.540026e+01 3.208818e+01 3.300189e+01 2.735586e+01 1.959373e+01 1.593089e+01 2.302971e+00 4.732435e+00 4.375154e+00 3.664847e+00 9.182515e+00 6.702117e+00 8.730712e+00 3.334934e+00 3.166981e+00 2.601783e+00 2.861248e+00 9.554901e-01
<GCONST> 1.074287e+02
~s "ST_j_4_1"
<MEAN> 25
 -1.476676e+000 2.945435e+000 5.373628e+000 4.717381e+000 3.117583e-001 -1.126805e+001 -1.372414e+001 -6.189978e+000 -5.792087e-001 -3.681520e-001 9.036489e+000 1.751030e+000 3.148552e+000 -1.768613e+000 -2.748356e+000 -1.046203e+000 -1.507407e-001 1.618598e-001 1.283262e+000 -1.733223e+000 -8.994859e-001 9.844423e-001 2.356516e+000 -1.576263e+000 3.478607e-001
<VARIANCE> 25
 2.632028e+001 1.236736e+001 1.738589e+001 1.220550e+001 1.351416e+001 2.338389e+001 3.246358e+001 2.601225e+001 2.251469e+001 2.392886e+001 6.133446e+001 2.215115e+001 3.270672e+000 3.900785e+000 1.006522e+000 9.877307e-001 1.420104e+000 3.956140e+000 3.127148e+000 1.870884e+000 6.173595e+000 2.476668e+000 2.864904e+000 2.106376e+000 1.330416e+000
<GCONST> 9.393088e+001
~s "ST_ae_2_1"
<MEAN> 25
 3.084011e+000 3.069560e+000 7.871233e-001 2.057573e+000 1.769269e+000 3.246063e+000 -1.589080e+000 -4.219708e+000 6.311949e+000 1.733174e+000 -6.638869e-001 -2.587605e+000 -7.646602e-001 -8.374821e-001 2.651446e-001 -3.801292e-001 -5.637417e-002 8.873621e-001 -1.509401e-002 1.691500e+000 5.239165e-001 9.878146e-001 -3.391133e-001 4.797694e-001 -4.893816e-001
<VARIANCE> 25
 2.681021e+001 2.659377e+001 2.440009e+001 2.130299e+001 2.887831e+001 5.229125e+001 2.728781e+001 5.856646e+001 6.231637e+001 4.574812e+001 4.770264e+001 3.207130e+001 2.160427e+000 2.180317e+000 6.714320e+000 2.976008e+000 5.852180e+000 6.539168e+000 2.905387e+000 4.904405e+000 7.130442e+000 3.043186e+000 6.300814e+000 4.357286e+000 7.265214e+000
<GCONST> 1.079735e+002
~s "ST_ae_3_1"
<MEAN> 25
 1.674003e-001 -1.451406e+000 -3.804364e+000 -4.160651e+000 5.291464e+000 -6.491001e-001 1.615560e+000 7.792912e-001 6.494636e+000 6.718903e+000 2.226910e+000 -2.972467e+000 7.543505e-001 -5.274827e-001 -2.409108e+000 -2.096486e+000 2.175562e+000 -3.232188e+000 6.039277e-001 7.775939e-002 8.664027e-001 1.491825e+000 2.081533e+000 -1.670673e+000 3.591538e+000
<VARIANCE> 25
 2.897582e+001 1.395488e+001 4.937294e+001 4.002916e+001 6.909447e+001 9.647641e+001 5.719413e+001 4.631993e+001 4.739787e+001 4.120489e+001 5.515120e+001 4.591956e+001 4.931148e+000 1.969904e+000 4.497910e+000 2.101377e+000 8.008039e+000 8.287492e+000 4.304384e+000 6.842666e+000 1.022129e+001 4.226649e+000 6.173218e+000 6.157604e+000 7.736382e+000
<GCONST> 1.131866e+002
~s "ST_ae_4_1"
<MEAN> 25
 2.423531e+000 -6.708440e-001 -4.532245e+000 -6.060490e+000 5.623656e+000 -9.397609e+000 1.572845e+000 -3.982090e+000 8.199067e+000 7.079557e+000 3.121022e+000 -6.232070e+000 3.685917e-001 -2.836360e-001 3.426385e-001 5.606868e-001 -7.159737e-001 1.511085e-001 -3.868602e-001 8.471216e-002 -1.161515e+000 -5.272958e-001 -9.245384e-002 2.321269e-001 -1.016533e-001
<VARIANCE> 25
 1.924509e+001 2.929088e+001 5.243666e+001 4.845863e+001 6.451014e+001 7.336349e+001 5.557261e+001 4.648338e+001 5.218730e+001 3.543708e+001 5.697290e+001 4.100939e+001 2.014773e+000 1.409562e+000 2.301619e+000 2.529295e+000 2.730044e+000 4.425912e+000 2.945682e+000 3.239380e+000 4.187894e+000 3.343393e+000 3.128008e+000 2.886257e+000 3.311707e+000
<GCONST> 1.053096e+002
~s "ST_ng_2_1"
<MEAN> 25
 6.529008e+00 -2.939024e+00 -7.067191e+00 1.383595e+00 -2.040595e+00 -1.401205e+01 1.153943e+01 -1.200463e+00 -4.581537e+00 3.711044e+00 1.154383e+01 -6.992478e+00 1.468008e+00 6.452687e-02 9.543834e-01 1.687624e+00 -3.758300e+00 1.517814e+00 1.783929e+00 -9.138213e-01 -1.659094e+00 -4.546270e-01 -4.106034e-01 7.575969e-01 -1.599969e+00
<VARIANCE> 25
 1.326118e+01 8.535199e+00 2.229299e+01 2.422122e+01 8.297401e+01 3.940087e+01 3.995655e+01 6.859427e+01 4.624934e+01 1.753849e+01 2.550157e+01 2.203346e+01 7.286219e-01 5.217238e-01 7.006945e-01 2.125737e+00 5.066928e+00 4.983633e+00 2.612508e+00 3.420802e+00 2.995680e+00 4.381120e+00 3.757695e+00 3.608135e+00 7.915292e-01
<GCONST> 9.580350e+01
~s "ST_ng_3_1"
<MEAN> 25
 1.218001e+01 -4.356162e+00 -2.093581e+00 8.370319e+00 -1.644745e+01 -3.982661e+00 1.300901e+01 -6.366788e-01 -1.096627e+01 -3.773357e+00 7.536969e+00 2.304857e+00 3.195923e-02 4.314445e-01 6.926209e-01 1.036721e-01 -7.711373e-01 1.038691e+00 -1.033164e+00 -1.366757e-01 1.909706e-01 -5.015801e-01 -2.868933e-01 8.676196e-01 -9.362663e-01
<VARIANCE> 25
 2.711195e+00 1.462901e+01 1.608495e+01 1.234853e+01 4.052593e+01 8.728630e+01 2.040105e+01 3.079271e+01 4.401021e+01 1.397794e+01 4.059661e+01 2.783435e+01 2.830222e-01 1.190924e+00 9.279042e-01 1.774950e+00 3.093621e+00 4.075782e+00 2.815679e+00 3.173090e+00 3.154470e+00 1.755983e+00 1.860267e+00 2.132895e+00 5.777125e-01
<GCONST> 8.966172e+01
~s "ST_m_2_1"
<MEAN> 25
 1.167972e+001 -1.637226e+000 -3.167709e+000 1.643704e+000 -6.160374e+000 -2.833318e+000 6.121310e+000 -4.602197e+000 -1.173893e+001 -1.476816e+000 6.729683e+000 3.113983e+000 1.309674e+000 -3.667303e-001 1.677928e+000 3.123814e+000 -2.503701e+000 1.510244e+000 5.814979e-001 -1.707172e+000 -2.547559e+000 -2.158631e+000 -9.872180e-001 7.076340e-001 -9.585873e-001
<VARIANCE> 25
 2.013766e+001 1.968262e+001 5.520505e+001 5.851740e+001 5.760223e+001 6.855187e+001 6.863237e+001 6.968918e+001 3.969714e+001 5.221183e+001 5.442886e+001 3.898479e+001 2.003250e+000 1.809065e+000 3.468380e+000 3.529065e+000 3.746219e+000 4.946043e+000 6.283034e+000 4.971946e+000 2.962017e+000 2.804052e+000 5.297963e+000 3.782918e+000 3.050105e+000
<GCONST> 1.084435e+002
~s "ST_ng_4_1"
<MEAN> 25
 4.826922e+000 2.606953e+000 4.922224e+000 2.844108e+000 -7.484956e+000 4.550180e+000 2.639442e-001 -2.551176e+000 -3.715710e+000 -2.758152e+000 -1.631640e+000 4.212647e+000 -1.415486e+000 4.472302e-001 4.769307e-001 -5.126846e-001 2.102647e+000 1.690770e+000 -1.429148e+000 -5.573097e-001 7.844372e-001 4.565530e-001 -1.118675e+000 -4.579752e-003 -1.133873e+000
<VARIANCE> 25
 3.901408e+001 2.432955e+001 1.549214e+001 1.871194e+001 5.537874e+001 6.193928e+001 3.136096e+001 4.278605e+001 4.564602e+001 2.271734e+001 4.026307e+001 4.618341e+001 1.694688e+000 2.277866e+000 2.063288e+000 1.576895e+000 2.811616e+000 2.314309e+000 2.393025e+000 2.772817e+000 4.122100e+000 3.232992e+000 3.731974e+000 1.855274e+000 1.251258e+000
<GCONST> 9.933094e+001
~s "ST_m_3_1"
<MEAN> 25
 1.263317e+001 -4.469428e+000 1.101198e+000 1.205930e+001 -1.318881e+001 -6.876694e-001 1.001899e+001 -8.962767e+000 -1.685100e+001 -7.667834e+000 4.204199e+000 3.136679e+000 -2.971981e-001 2.515923e-001 1.611342e-001 2.988216e-002 7.669862e-002 1.804205e-001 -7.415603e-002 -2.687933e-001 1.185688e-001 -9.077223e-002 5.331802e-001 3.185475e-001 -2.895593e-001
<VARIANCE> 25
 4.717168e+000 1.895701e+001 1.867768e+001 2.163382e+001 2.046374e+001 2.542312e+001 5.676451e+001 8.139304e+001 3.348398e+001 3.747539e+001 2.174781e+001 3.870343e+001 8.146307e-001 1.553603e+000 2.020355e+000 2.815273e+000 2.348248e+000 2.785114e+000 3.771665e+000 2.330319e+000 2.290307e+000 2.609449e+000 2.722258e+000 1.952321e+000 1.259226e+000
<GCONST> 9.471877e+001
~s "ST_m_4_1"
<MEAN> 25
 6.174772e+000 3.313745e+000 6.302558e+000 6.160932e+000 -5.217247e+000 5.171672e+000 -9.868327e-002 -5.229574e+000 -8.788165e+000 -3.179144e+000 2.154149e-001 5.813819e+000 -1.421692e+000 3.155003e-001 3.598461e-002 -1.506665e+000 1.287220e+000 5.009303e-001 -7.101422e-001 1.022648e+000 1.881545e+000 8.626642e-001 -9.737473e-001 -4.734471e-001 -7.494767e-001
<VARIANCE> 25
 2.461170e+001 1.533182e+001 2.442378e+001 1.909942e+001 3.363308e+001 4.443320e+001 5.704493e+001 3.980227e+001 5.185538e+001 2.706950e+001 4.873130e+001 4.223936e+001 8.144057e-001 2.156536e+000 3.579559e+000 3.141069e+000 3.334884e+000 3.718117e+000 4.707991e+000 3.862692e+000 4.358319e+000 2.651175e+000 5.200758e+000 3.402315e+000 2.203896e+000
<GCONST> 1.024510e+002
~s "ST_c_2_1"
<MEAN> 25
 -3.071703e+000 1.289549e+000 -2.440709e+000 -1.076025e+000 2.106345e+000 8.386838e+000 4.216215e-001 -2.768093e+000 -2.641554e-001 3.742698e-001 -5.447478e+000 2.635272e-001 -2.015066e-001 -1.216381e-002 -2.218100e-001 -1.271313e-001 1.288968e-002 1.394217e-001 1.061076e-002 -7.928151e-002 4.520129e-002 -3.186972e-002 -9.419006e-002 -6.065310e-002 1.827398e-003
<VARIANCE> 25
 1.795759e+01 1.685257e+01 1.396995e+01 7.994112e+00 1.504963e+01 1.885091e+01 1.580971e+01 1.332661e+01 1.215080e+01 1.492664e+01 1.510487e+01 1.703474e+01 8.207827e-01 5.985299e-01 7.882400e-01 1.000676e+00 1.726622e+00 2.443856e+00 1.839235e+00 1.586673e+00 1.530568e+00 1.548018e+00 1.759207e+00 2.614755e+00 2.332817e-01
<GCONST> 8.062001e+01
~s "ST_c_3_1"
<MEAN> 25
 -1.613794e+01 1.077898e+01 3.618994e-01 2.119885e+00 5.793494e+00 1.130012e+01 4.620046e+00 3.576254e+00 4.058658e+00 2.818737e+00 -3.036529e+00 6.501861e+00 -2.356045e+00 7.286144e-01 1.054984e+00 5.567326e-02 5.036508e-01 -9.301337e-01 6.081882e-01 2.043965e+00 6.863011e-01 8.910963e-01 1.491603e+00 1.069502e+00 3.613237e+00
<VARIANCE> 25
 1.014877e+02 9.149750e+01 2.892347e+01 1.859658e+01 4.083350e+01 2.265347e+01 3.592260e+01 4.692886e+01 2.042885e+01 1.770283e+01 1.436631e+01 2.009649e+01 5.150530e+00 1.489929e+01 3.495522e+00 3.063823e+00 8.996135e+00 7.459666e+00 5.806168e+00 3.401761e+00 2.474726e+00 2.502030e+00 3.064235e+00 1.745193e+00 1.903814e+00
<GCONST> 1.052316e+02
~s "ST_c_4_1"
<MEAN> 25
 -1.119573e+001 3.040230e+000 4.377287e+000 2.178277e-001 -1.360037e+000 -5.585263e+000 -1.282909e+000 9.050556e+000 2.953709e+000 4.262140e+000 4.463833e+000 6.847161e+000 5.154935e+000 -1.707540e+000 5.519562e-001 1.099872e+000 -1.821994e+000 -5.455769e+000 -3.043344e+000 -1.533307e+000 -1.283614e+000 -8.232881e-001 6.944670e-001 -1.275351e+000 2.469932e+000
<VARIANCE> 25
 7.698121e+001 3.725095e+001 2.297886e+001 4.070949e+001 2.223932e+001 5.292266e+001 6.062889e+001 4.424760e+001 4.109389e+001 3.378339e+001 2.509044e+001 1.678811e+001 3.719429e+000 2.824834e+000 4.118515e+000 2.293815e+000 2.198788e+000 2.634246e+000 1.974500e+000 6.711051e+000 2.091027e+000 2.010351e+000 2.436670e+000 2.922796e+000 3.908114e+000
<GCONST> 1.026939e+002
~s "ST_p_2_1"
<MEAN> 25
 3.191055e+000 1.814224e+000 -6.321840e-001 -1.160952e+000 -1.205731e+000 1.013244e+001 -1.908227e+000 -1.273650e+000 1.449886e+000 1.688516e+000 -6.424466e+000 -1.070993e+000 -1.621527e+000 -4.576242e-001 9.648840e-001 3.322152e-001 -1.083151e+000 1.108836e+000 -1.517123e-001 4.686427e-001 -1.088777e-001 -2.722476e-001 -7.660179e-001 3.659068e-003 -1.375411e+000
<VARIANCE> 25
 2.285115e+001 5.236403e+000 3.213934e+001 2.139590e+001 1.460930e+001 1.651509e+001 2.227158e+001 1.677619e+001 3.516751e+001 2.475381e+001 2.445426e+001 1.683164e+001 9.796171e-001 6.184868e-001 1.472926e+000 1.193252e+000 2.632596e+000 2.780237e+000 1.919448e+000 2.415045e+000 4.084767e+000 2.860518e+000 2.627129e+000 1.800392e+000 1.066505e+000
<GCONST> 8.912688e+001
~s "ST_p_3_1"
<MEAN> 25
 -4.942665e+00 -1.350447e+00 4.756393e+00 2.524404e+00 -2.094611e+00 1.251426e+01 -8.460507e-01 -1.999452e-01 -2.817107e+00 -1.595922e+00 -7.490543e+00 5.979163e-01 -1.450260e-01 -7.059119e-02 -8.728582e-02 -4.686839e-02 5.487479e-02 4.295589e-03 1.085135e-01 4.341114e-02 3.129846e-02 5.753738e-02 1.014964e-01 1.062244e-01 4.322092e-02
<VARIANCE> 25
 3.368000e+00 3.179975e+00 8.874056e+00 1.134537e+01 9.616529e+00 1.471394e+01 1.318160e+01 1.658864e+01 2.580350e+01 1.472098e+01 1.859454e+01 1.580302e+01 4.424626e-01 3.160728e-01 7.131494e-01 1.144018e+00 1.056343e+00 1.444483e+00 1.583881e+00 1.587875e+00 1.892124e+00 1.401380e+00 1.748046e+00 1.439615e+00 2.518606e-01
<GCONST> 7.458602e+01
~s "ST_p_4_1"
<MEAN> 25
 -2.025361e+00 5.777775e-01 -1.321671e+00 -2.594644e+00 5.537180e-01 9.532043e+00 1.918142e+00 9.780006e-01 1.767192e+00 2.189330e+00 -6.622741e-01 3.789612e+00 1.456653e+00 -1.967561e-01 -3.780638e+00 -2.593731e+00 2.495267e+00 -2.265267e+00 1.218306e+00 8.085860e-01 1.001548e+00 1.558796e+00 4.180634e+00 -8.568311e-02 5.613712e+00
<VARIANCE> 25
 3.731892e+001 9.889850e+000 4.602777e+001 3.666542e+001 2.225378e+001 2.617848e+001 2.611788e+001 2.350620e+001 3.922805e+001 2.876195e+001 6.190156e+001 1.822112e+001 4.074699e+000 1.880026e+000 6.439074e+000 6.937971e+000 2.744482e+000 6.116697e+000 5.254716e+000 3.135361e+000 7.329648e+000 3.154238e+000 3.339253e+000 5.414756e+000 3.681472e+000
<GCONST> 1.049297e+002
~h "a"
<BEGINHMM>
<NUMSTATES> 5
<STATE> 2
~s "ST_a_2_1"
<STATE> 3
~s "ST_a_3_1"
<STATE> 4
~s "ST_a_4_1"
<TRANSP> 5
 0.000000e+00 1.000000e+00 0.000000e+00 0.000000e+00 0.000000e+00
 0.000000e+00 8.517879e-01 1.482122e-01 0.000000e+00 0.000000e+00
 0.000000e+00 0.000000e+00 9.565194e-01 4.348065e-02 0.000000e+00
 0.000000e+00 0.000000e+00 0.000000e+00 9.316915e-01 6.830847e-02
 0.000000e+00 0.000000e+00 0.000000e+00 0.000000e+00 0.000000e+00
<ENDHMM>
~h "b"
<BEGINHMM>
<NUMSTATES> 5
<STATE> 2
~s "ST_b_2_1"
<STATE> 3
~s "ST_b_3_1"
<STATE> 4
~s "ST_b_4_1"
~t "T_b"
<ENDHMM>
~h "c"
<BEGINHMM>
<NUMSTATES> 5
<STATE> 2
~s "ST_c_2_1"
<STATE> 3
~s "ST_c_3_1"
<STATE> 4
~s "ST_c_4_1"
~t "T_c"
<ENDHMM>
~h "d"
<BEGINHMM>
<NUMSTATES> 5
<STATE> 2
~s "ST_d_2_1"
<STATE> 3
~s "ST_d_3_1"
<STATE> 4
~s "ST_d_4_1"
~t "T_d"
<ENDHMM>
~h "e"
<BEGINHMM>
<NUMSTATES> 5
<STATE> 2
~s "ST_e_2_1"
<STATE> 3
~s "ST_e_3_1"
<STATE> 4
~s "ST_e_4_1"
<TRANSP> 5
 0.000000e+000 1.000000e+000 0.000000e+000 0.000000e+000 0.000000e+000
 0.000000e+000 4.288113e-001 5.711887e-001 0.000000e+000 0.000000e+000
 0.000000e+000 0.000000e+000 7.469900e-001 2.530101e-001 0.000000e+000
 0.000000e+000 0.000000e+000 0.000000e+000 9.694318e-001 3.056817e-002
 0.000000e+000 0.000000e+000 0.000000e+000 0.000000e+000 0.000000e+000
<ENDHMM>
~h "f"
<BEGINHMM>
<NUMSTATES> 5
<STATE> 2
~s "ST_f_2_1"
<STATE> 3
~s "ST_f_3_1"
<STATE> 4
~s "ST_f_4_1"
~t "T_f"
<ENDHMM>
~h "g"
<BEGINHMM>
<NUMSTATES> 5
<STATE> 2
~s "ST_g_2_1"
<STATE> 3
~s "ST_g_3_1"
<STATE> 4
~s "ST_g_4_1"
~t "T_g"
<ENDHMM>
~h "h"
<BEGINHMM>
<NUMSTATES> 5
<STATE> 2
~s "ST_h_2_1"
<STATE> 3
~s "ST_h_3_1"
<STATE> 4
~s "ST_h_4_1"
~t "T_h"
<ENDHMM>
~h "i"
<BEGINHMM>
<NUMSTATES> 5
<STATE> 2
~s "ST_i_2_1"
<STATE> 3
~s "ST_i_3_1"
<STATE> 4
~s "ST_i_4_1"
~t "T_i"
<ENDHMM>
~h "j"
<BEGINHMM>
<NUMSTATES> 5
<STATE> 2
~s "ST_j_2_1"
<STATE> 3
~s "ST_j_3_1"
<STATE> 4
~s "ST_j_4_1"
~t "T_j"
<ENDHMM>
~h "k"
<BEGINHMM>
<NUMSTATES> 5
<STATE> 2
~s "ST_k_2_1"
<STATE> 3
~s "ST_k_3_1"
<STATE> 4
~s "ST_k_4_1"
~t "T_k"
<ENDHMM>
~h "l"
<BEGINHMM>
<NUMSTATES> 5
<STATE> 2
~s "ST_l_2_1"
<STATE> 3
~s "ST_l_3_1"
<STATE> 4
~s "ST_l_4_1"
~t "T_l"
<ENDHMM>
~h "m"
<BEGINHMM>
<NUMSTATES> 5
<STATE> 2
~s "ST_m_2_1"
<STATE> 3
~s "ST_m_3_1"
<STATE> 4
~s "ST_m_4_1"
~t "T_m"
<ENDHMM>
~h "n"
<BEGINHMM>
<NUMSTATES> 5
<STATE> 2
~s "ST_n_2_1"
<STATE> 3
~s "ST_n_3_1"
<STATE> 4
~s "ST_n_4_1"
~t "T_n"
<ENDHMM>
~h "o"
<BEGINHMM>
<NUMSTATES> 5
<STATE> 2
~s "ST_o_2_1"
<STATE> 3
~s "ST_o_3_1"
<STATE> 4
~s "ST_o_4_1"
~t "T_o"
<ENDHMM>
~h "p"
<BEGINHMM>
<NUMSTATES> 5
<STATE> 2
~s "ST_p_2_1"
<STATE> 3
~s "ST_p_3_1"
<STATE> 4
~s "ST_p_4_1"
~t "T_p"
<ENDHMM>
~h "r"
<BEGINHMM>
<NUMSTATES> 5
<STATE> 2
~s "ST_r_2_1"
<STATE> 3
~s "ST_r_3_1"
<STATE> 4
~s "ST_r_4_1"
~t "T_r"
<ENDHMM>
~h "s"
<BEGINHMM>
<NUMSTATES> 5
<STATE> 2
~s "ST_s_2_1"
<STATE> 3
~s "ST_s_3_1"
<STATE> 4
~s "ST_s_4_1"
~t "T_s"
<ENDHMM>
~h "t"
<BEGINHMM>
<NUMSTATES> 5
<STATE> 2
~s "ST_t_2_1"
<STATE> 3
~s "ST_t_3_1"
<STATE> 4
~s "ST_t_4_1"
~t "T_t"
<ENDHMM>
~h "u"
<BEGINHMM>
<NUMSTATES> 5
<STATE> 2
~s "ST_u_2_1"
<STATE> 3
~s "ST_u_3_1"
<STATE> 4
~s "ST_u_4_1"
~t "T_u"
<ENDHMM>
~h "ae"
<BEGINHMM>
<NUMSTATES> 5
<STATE> 2
~s "ST_ae_2_1"
<STATE> 3
~s "ST_ae_3_1"
<STATE> 4
~s "ST_ae_4_1"
~t "T_ae"
<ENDHMM>
~h "ng"
<BEGINHMM>
<NUMSTATES> 5
<STATE> 2
~s "ST_ng_2_1"
<STATE> 3
~s "ST_ng_3_1"
<STATE> 4
~s "ST_ng_4_1"
~t "T_ng"
<ENDHMM>
~h "sp"
<BEGINHMM>
<NUMSTATES> 3
<STATE> 2
~s "ST_sil_3_1"
<TRANSP> 3
 0.000000e+000 7.320622e-001 2.679378e-001
 0.000000e+000 9.519973e-001 4.800269e-002
 0.000000e+000 0.000000e+000 0.000000e+000
<ENDHMM>
~h "n-a+m"
<BEGINHMM>
<NUMSTATES> 5
<STATE> 2
~s "ST_a_2_2"
<STATE> 3
~s "ST_a_3_4"
<STATE> 4
~s "ST_a_4_2"
~t "T_a"
<ENDHMM>
~h "d-a+h"
<BEGINHMM>
<NUMSTATES> 5
<STATE> 2
~s "ST_a_2_2"
<STATE> 3
~s "ST_a_3_2"
<STATE> 4
~s "ST_a_4_1"
~t "T_a"
<ENDHMM>
~h "d-e+k"
<BEGINHMM>
<NUMSTATES> 5
<STATE> 2
~s "ST_e_2_1"
<STATE> 3
~s "ST_e_3_2"
<STATE> 4
~s "ST_e_4_3"
~t "T_e"
<ENDHMM>
~h "g-a+j"
<BEGINHMM>
<NUMSTATES> 5
<STATE> 2
~s "ST_a_2_3"
<STATE> 3
~s "ST_a_3_2"
<STATE> 4
~s "ST_a_4_1"
~t "T_a"
<ENDHMM>
~h "j-a+h"
<BEGINHMM>
<NUMSTATES> 5
<STATE> 2
~s "ST_a_2_1"
<STATE> 3
~s "ST_a_3_2"
<STATE> 4
~s "ST_a_4_1"
~t "T_a"
<ENDHMM>
~h "b-e"
<BEGINHMM>
<NUMSTATES> 5
<STATE> 2
~s "ST_e_2_1"
<STATE> 3
~s "ST_e_3_2"
<STATE> 4
~s "ST_e_4_1"
~t "T_e"
<ENDHMM>
~h "c-e"
<BEGINHMM>
<NUMSTATES> 5
<STATE> 2
~s "ST_e_2_1"
<STATE> 3
~s "ST_e_3_1"
<STATE> 4
~s "ST_e_4_1"
~t "T_e"
<ENDHMM>
~h "e+f"
<BEGINHMM>
<NUMSTATES> 5
<STATE> 2
~s "ST_e_2_1"
<STATE> 3
~s "ST_e_3_1"
<STATE> 4
~s "ST_e_4_3"
~t "T_e"
<ENDHMM>
~h "g-e"
<BEGINHMM>
<NUMSTATES> 5
<STATE> 2
~s "ST_e_2_1"
<STATE> 3
~s "ST_e_3_2"
<STATE> 4
~s "ST_e_4_2"
~t "T_e"
<ENDHMM>
~h "m-a"
<BEGINHMM>
<NUMSTATES> 5
<STATE> 2
~s "ST_a_2_2"
<STATE> 3
~s "ST_a_3_3"
<STATE> 4
~s "ST_a_4_1"
~t "T_a"
<ENDHMM>
~h "s-e"
<BEGINHMM>
<NUMSTATES> 5
<STATE> 2
~s "ST_e_2_1"
<STATE> 3
~s "ST_e_3_1"
<STATE> 4
~s "ST_e_4_1"
<TRANSP> 5
 0.000000e+00 1.000000e+00 0.000000e+00 0.000000e+00 0.000000e+00
 0.000000e+00 4.751942e-01 5.248058e-01 0.000000e+00 0.000000e+00
 0.000000e+00 0.000000e+00 7.408632e-01 2.591368e-01 0.000000e+00
 0.000000e+00 0.000000e+00 0.000000e+00 9.694426e-01 3.055738e-02
 0.000000e+00 0.000000e+00 0.000000e+00 0.000000e+00 0.000000e+00
<ENDHMM>
~h "sil"
<BEGINHMM>
<NUMSTATES> 5
<STATE> 2
~s "ST_sil_2_1"
<STATE> 3
~s "ST_sil_3_1"
<STATE> 4
~s "ST_sil_4_1"
<TRANSP> 5
 0.000000e+000 1.000000e+000 0.000000e+000 0.000000e+000 0.000000e+000
 0.000000e+000 8.935081e-001 8.293352e-002 2.355839e-002 0.000000e+000
 0.000000e+000 0.000000e+000 9.685072e-001 3.149282e-002 0.000000e+000
 0.000000e+000 3.940354e-002 0.000000e+000 7.901050e-001 1.704914e-001
 0.000000e+000 0.000000e+000 0.000000e+000 0.000000e+000 0.000000e+000
<ENDHMM>
~h "p-a+n"
<BEGINHMM>
<NUMSTATES> 5
<STATE> 2
~s "ST_a_2_2"
<STATE> 3
~s "ST_a_3_6"
<STATE> 4
~s "ST_a_4_2"
~t "T_a"
<ENDHMM>
~h "s-a+t"
<BEGINHMM>
<NUMSTATES> 5
<STATE> 2
~s "ST_a_2_1"
<STATE> 3
~s "ST_a_3_4"
<STATE> 4
~s "ST_a_4_2"
~t "T_a"
<ENDHMM>
~h "a+ng"
<BEGINHMM>
<NUMSTATES> 5
<STATE> 2
~s "ST_a_2_1"
<STATE> 3
~s "ST_a_3_1"
<STATE> 4
~s "ST_a_4_1"
~t "T_a"
<ENDHMM>
~h "k-a+d"
<BEGINHMM>
<NUMSTATES> 5
<STATE> 2
~s "ST_a_2_3"
<STATE> 3
~s "ST_a_3_5"
<STATE> 4
~s "ST_a_4_2"
~t "T_a"
<ENDHMM>
